591 35
dropin 0.7016169 -0.47622526 -0.40505958 -0.21273021 0.6124413 0.5011258 -0.33775088 0.5423156 0.50883216 0.20093565 0.64343536 0.62884873 -0.5427793 0.43252116 -0.5770065 -0.07522189 0.3924342 0.028002774 -0.10390005 0.675159 -0.43831503 -0.66057247 0.5149622 0.55100465 -0.6443533 0.48425207 -0.38192242 -0.4540331 0.352584 -0.48191503 -0.06306101 -0.2683638 0.14528543 0.5679689 -0.25489384
advising 0.38469478 -0.32463703 -0.20310095 -0.40225726 0.33192235 0.25801438 -0.13784891 0.21987641 -0.0074462313 0.11522323 0.29563865 0.35920143 -0.29708552 0.29818487 -0.19760048 0.14521357 0.23296705 -0.24196728 -0.037681866 0.28756133 -0.1195369 -0.10533888 -0.051585004 0.20502073 -0.32554573 0.1600536 0.097354196 0.0348658 0.048715554 -0.15836829 0.15252802 0.15336907 -0.26550126 0.26278973 -0.117007956
quantitative -0.19602786 0.19910452 0.18934868 0.16554084 -0.23279436 -0.17614172 0.23405565 -0.27513227 0.20386131 -0.25640884 -0.22550824 -0.22017924 0.288366 -0.15392926 0.2224709 0.0868064 -0.24225387 0.18488465 0.12697951 -0.19541517 0.14852759 -0.12577993 0.12292794 -0.19062816 0.2141139 -0.16899894 -0.20516022 0.039126683 -0.17613591 0.2719808 0.08434659 -0.18050845 -0.08142518 -0.18618412 0.19578607
prepare -0.18147416 0.17749345 0.2603933 0.24657935 -0.20294687 -0.19377947 0.27368915 -0.23629239 0.19333313 -0.20997319 -0.19916447 -0.22655874 0.24863449 -0.23717003 0.23100941 0.0901049 -0.29595244 0.20151488 0.10420205 -0.27061468 0.21989055 -0.11141546 0.14733103 -0.20318285 0.27151808 -0.19862027 -0.21559761 0.11940776 -0.17800382 0.24412028 0.14228205 -0.25271937 -0.06435642 -0.23911323 0.19389296
database 0.16720529 -0.24899009 -0.14306848 -0.058357608 0.30782327 0.16637677 -0.1958298 0.2383315 0.098412335 -0.0165567 0.36025447 0.3251147 -0.25847903 0.09341415 -0.21220571 0.12342995 0.00797944 -0.19282268 -0.023016786 0.29596803 -0.060422152 -0.19931339 0.038568344 0.2689498 -0.25638038 0.03868061 -0.08111886 -0.053229254 0.017856365 -0.073278435 0.17569007 0.059459303 -0.18018737 0.18675773 0.05004539
java 0.16238895 -0.35794488 -0.56075186 -0.097241476 0.5549073 0.37202686 -0.50381243 0.49735975 -0.32896605 0.039413072 0.24397032 0.32898453 -0.4501447 0.041567147 -0.18149616 0.1295557 0.7791053 -0.3050043 0.03209357 0.39465588 -0.32077533 0.044305414 -0.19299531 0.44775656 -0.37132773 0.11750851 0.25321794 -0.7000438 0.38754913 -0.61365044 0.28885108 0.52416885 -0.016136887 0.6279946 -0.11020383
python 0.41373506 -0.18833393 -0.7210516 -0.33784527 0.49828535 0.32546508 -0.61464375 0.37717813 0.41778702 0.2727581 0.5489549 0.5232475 -0.39285102 0.3426436 -0.5599907 0.16774368 0.10182485 -0.28655857 0.062384695 0.83895624 -0.40825263 -0.46797508 0.4069921 0.50396246 -0.5137386 0.40563735 -0.3039256 -0.034839507 0.22265759 -0.3965436 0.15651372 -0.26696348 -0.20846413 0.44195795 0.022940394
engineering -0.4745155 0.29638648 0.5007798 0.47370553 -0.5669652 -0.420019 0.5574427 -0.6345162 0.44218397 -0.51596767 -0.497449 -0.5833697 0.5300351 -0.5398211 0.015207003 -0.018940795 -0.53392345 0.538925 0.37716544 -0.5114492 0.29472476 -0.45703104 0.49866018 -0.54444814 0.5486242 -0.3758184 -0.5206481 0.19310503 -0.35320035 0.623694 -0.1599389 -0.5335219 -0.5811931 -0.5340469 0.5830607
university 0.16770591 -0.34903747 -0.24594165 -0.0049313046 0.29677138 0.29011452 -0.10328342 0.2533423 0.3122628 -0.14614968 0.42285064 0.2049117 -0.0622472 -0.17001256 -0.32772937 0.21328792 0.12399449 -0.09702498 0.21157709 0.44631505 -0.3097647 -0.6209874 0.117883526 0.2219575 -0.18980442 0.13270909 -0.17699412 -0.49182168 0.12573792 -0.2005157 0.35210294 -0.03893307 -0.16182616 0.17747888 -0.026488964
education 0.70718336 -0.33155215 -0.15148547 -0.8115363 0.32270637 0.361261 -0.2409723 0.2468649 0.30198678 0.15098171 0.44288942 0.46072674 -0.31227747 0.4817296 -0.18046036 0.5045391 0.14726394 -0.36311087 0.31442627 0.39734542 0.023475582 -0.5796077 -0.01012641 0.23287961 -0.45907474 0.3130069 -0.06708834 0.21213686 0.059456144 -0.23768501 0.65767616 0.00017132272 -0.50457454 0.16448577 -0.1137564
fractal 0.4709141 -0.3298696 -0.4663666 -0.18918076 0.39075807 0.29886383 0.08747915 0.35174102 0.4169905 0.3161563 0.4510283 0.40283722 -0.41751432 0.18413493 -0.32161316 0.330664 0.057972353 -0.31237295 0.24722603 0.65833986 -0.31167656 -0.39386496 0.3681435 0.4690491 -0.42704305 0.15210463 -0.23634161 0.1999779 -0.18956307 -0.20315035 0.26036516 -0.019324675 -0.41782138 0.35748133 0.3870969
aggregates 0.15969549 -0.27559042 -0.1335494 -0.06664247 0.1801629 0.20253406 -0.16379134 0.13099526 -0.119129315 0.05385613 0.24940223 0.14807095 -0.10420758 0.07312846 -0.11026444 0.028265126 0.068297505 -0.13752192 -0.11508092 0.1622729 -0.23218705 0.059947204 -0.07082754 0.16707437 -0.09637464 0.17276576 0.06741618 -0.22136511 0.16679649 -0.16459249 -0.09191949 0.1327017 0.024982637 0.14354505 -0.01662428
measure 0.6466619 -0.21227077 -0.5574143 -0.5540076 0.60180587 0.3951755 -0.090619184 0.4410991 0.528671 0.32647273 0.5763945 0.70544696 -0.51698834 0.44995314 -0.44771892 0.6957328 0.09122075 -0.3542286 0.5709885 0.79443353 -0.22138217 -0.6139078 0.5180006 0.59339666 -0.69460773 0.0029934205 -0.46267945 0.14798404 -0.45158565 -0.19702466 0.6345704 -0.04643095 -0.61081773 0.40629706 0.5039854
penetration -0.084505185 0.55687314 -0.62640864 0.15397887 -0.38721257 -0.5526574 0.49844646 -0.50013375 -0.7009955 0.29284534 -0.56344795 -0.36643118 0.22685099 0.4414177 0.3879683 0.118717454 0.23950724 0.40488178 0.5351951 -0.53903097 -0.17373264 0.67315894 0.472577 -0.46228725 0.26623556 -0.5453903 0.045059357 -0.8945079 0.0043653883 0.13888508 -0.21310304 0.71253985 -0.46181452 -0.42423442 0.49671054
assistant 0.0650509 -0.122436166 -0.08286953 0.10575908 0.08684838 0.07570782 0.006269739 0.09183009 0.18255128 -0.05687199 0.1813596 0.096427016 0.024096983 -0.106375754 -0.12759101 -0.046469055 0.034252036 -0.036334224 -0.079287946 0.12826754 -0.06941369 -0.1705429 0.106747776 0.09298984 -0.08758218 -0.0010015105 -0.09656796 -0.089863665 0.09760831 -0.0742452 0.03316736 -0.09322169 0.014940592 0.10728216 0.034719143
graduate 0.17033245 0.44201773 -0.008355028 -0.2301787 0.06757699 -0.374844 0.41263625 -0.43168712 -0.41501647 0.09568594 -0.3993073 0.051155556 0.10005574 0.29615092 0.3639362 0.46631745 -0.38413316 -0.1743583 0.4222074 -0.48351467 0.24162593 0.3175099 0.5414476 -0.55873275 -0.11718051 -0.10093451 -0.02040231 0.18425336 -0.40879646 0.40366054 0.11088219 0.2794357 -0.29519156 -0.4358195 0.46080562
level 0.8207179 -0.21145226 -0.54714197 -0.70295805 0.6396613 0.46238455 -0.12669002 0.46375054 0.50537026 0.3410983 0.68889683 0.81395024 -0.68233037 0.57593316 -0.48366126 0.6726048 0.15787871 -0.3869451 0.41632736 0.96322733 -0.2301844 -0.74539495 0.5132476 0.64741296 -0.8572803 0.27137628 -0.38883603 0.040465113 -0.19201228 -0.38716412 0.5514806 -0.18593511 -0.556465 0.6182377 0.33767268
courseadvanced -0.7132918 0.4987745 0.25505242 -0.0681659 -0.46198764 -0.53923815 -0.013927392 -0.2115382 -0.66959673 -0.4433927 -0.030248793 -0.028438227 0.3889437 0.5439895 -0.31327695 -0.66680735 0.041403707 -0.26609382 0.38491824 -0.5030758 -0.6393696 0.5547649 -0.2846165 -0.41914415 0.66947716 -0.46295395 0.38975522 -0.4536177 -0.4426236 -0.34254098 -0.6630639 0.48282087 0.625315 -0.25911376 -0.1641228
aerosol 0.5537617 -0.25226223 -0.52213496 -0.2990048 0.4948474 0.2667688 -0.23351434 0.5268147 0.5876127 0.3109051 0.45307365 0.5658823 -0.3438478 0.21555266 -0.4654227 0.4702997 0.17958078 -0.46240953 0.457242 0.7110442 -0.36189803 -0.38754508 0.38434485 0.5072894 -0.45369446 0.2548388 -0.39830086 0.37369415 -0.25256586 -0.3017367 0.428881 0.14228255 -0.46138507 0.3819756 0.43839994
electron 0.37326542 -0.5882054 -0.39844707 -0.45882064 0.63044965 0.6063134 -0.08809437 0.30321804 0.4527028 0.058780022 0.7724084 0.6532947 -0.6034505 0.48506695 -0.5089386 0.22137748 0.34104368 -0.17160292 -0.21008928 0.723621 -0.1609246 -0.7610363 0.47581568 0.55735546 -0.7317981 0.42655763 -0.43037826 -0.4216222 0.31271225 -0.39726496 0.09383318 -0.38816467 0.07248189 0.6638414 0.019338029
microscopy 0.49949315 -0.44130597 -0.41015056 -0.4537027 0.5647938 0.5281493 -0.10927494 0.3121736 0.3785144 0.119716845 0.6214182 0.59958977 -0.5571506 0.39763612 -0.4149159 0.38464317 0.23119497 -0.22762892 0.018565895 0.5860794 -0.15860115 -0.5831021 0.4444011 0.4909984 -0.6425419 0.33897448 -0.31051403 -0.18600518 0.052458003 -0.2796712 0.29355747 -0.3133748 -0.16249558 0.51585966 0.03823793
tem -0.066966206 0.23667502 0.16862404 -0.042324465 -0.2352997 -0.20322827 0.21524619 -0.21670797 0.16538751 -0.16262291 -0.24010865 -0.20954093 0.23350818 0.00664265 0.27662525 0.25346306 -0.21374969 0.19234774 0.2053291 -0.22689411 0.18008697 -0.19181085 0.17953269 -0.26093087 0.22229402 -0.13241954 -0.24843572 0.23732454 -0.20213096 0.26047823 0.20758379 -0.24659856 -0.24996187 -0.22655612 0.24860273
sem -0.036744274 0.14594567 -0.0065879975 0.053588353 -0.22848581 -0.31577468 0.22892693 -0.22726974 -0.13748644 -0.045898907 -0.27942187 -0.17426899 0.19364811 0.046453178 0.26633644 0.2718083 -0.21174783 0.24973051 0.1648572 -0.29895937 0.14808509 -0.079452105 0.23810646 -0.24936554 0.11664895 -0.19062719 -0.1684405 -0.028075002 -0.16803296 0.22997439 0.12584966 0.116528854 -0.21138863 -0.22113568 0.26864776
candidate 0.45597124 -0.44919643 -0.2542802 -0.38999537 0.455639 0.5335215 -0.09541202 0.30130923 0.30274922 0.14576069 0.52917105 0.52434456 -0.4908941 0.37668177 -0.29010618 0.41007027 0.20308737 -0.14085972 0.051441003 0.56358063 -0.18001866 -0.5791503 0.3493861 0.44205454 -0.59209627 0.3359356 -0.26994976 -0.13863745 0.07014635 -0.32024282 0.30564323 -0.07013331 -0.14778227 0.5013896 -0.019619465
mechanical -0.014896883 -0.07591198 0.05003254 -0.15857254 0.015595199 0.12024693 0.08039778 -0.12224525 0.095302925 -0.13752817 0.15566452 0.040180933 -0.036419753 0.08479972 -0.10805709 -0.06183034 0.09718673 -0.060521685 0.08015239 0.030820014 -0.039363835 0.10315404 0.07666761 -0.06264773 0.1106625 -0.06271447 0.06026677 0.16477607 -0.09119008 -0.048000567 -0.011173377 -0.050922714 -0.026041275 -0.0033920829 -0.071672894
engineering -0.4745155 0.29638648 0.5007798 0.47370553 -0.5669652 -0.420019 0.5574427 -0.6345162 0.44218397 -0.51596767 -0.497449 -0.5833697 0.5300351 -0.5398211 0.015207003 -0.018940795 -0.53392345 0.538925 0.37716544 -0.5114492 0.29472476 -0.45703104 0.49866018 -0.54444814 0.5486242 -0.3758184 -0.5206481 0.19310503 -0.35320035 0.623694 -0.1599389 -0.5335219 -0.5811931 -0.5340469 0.5830607
anical -0.7778874 0.4922519 0.66118747 0.7763281 -0.71385014 -0.8003797 0.719308 -0.77317196 0.7514829 -0.736666 -0.38882557 -0.77899814 0.8449576 -0.7880086 0.6394275 0.52103174 -0.8215935 0.7159401 0.47736427 -0.68841636 0.5098806 -0.75694907 0.6814299 -0.8336437 0.7476219 -0.6811013 -0.77682656 0.5179006 -0.68517905 0.7661482 0.5670649 -0.8688349 -0.45587733 -0.7344157 0.7082719
michael 0.07895391 -0.088557675 -0.38705495 -0.09546099 0.4440217 0.12045022 -0.4879571 0.34104535 -0.07571279 -0.0076738964 0.26486403 0.2521722 -0.26637295 0.24006818 -0.53334177 -0.4640735 0.35878837 -0.4952626 -0.28811228 0.3173758 -0.46046743 0.54516435 -0.4440893 0.31227702 -0.1399565 0.38916102 0.58197916 -0.4380563 0.20583008 -0.50182647 -0.55337316 -0.1350721 0.58020794 0.22810265 -0.5781574
goldy -0.28581414 0.24722685 0.20661482 0.27986053 -0.32846883 -0.2542218 0.26500028 -0.35900447 0.32584286 -0.23765995 -0.24783665 -0.31530288 0.29138523 -0.25502717 0.24747893 0.13389362 -0.2735072 0.3256603 0.15878318 -0.3108098 0.21507572 -0.2333187 0.24874656 -0.26357806 0.29888102 -0.28233293 -0.2061296 0.18423662 -0.25271732 0.2705357 0.15036462 -0.29486558 -0.13926665 -0.3241872 0.28722817
article -0.31308237 0.32748377 0.2629932 0.38589564 -0.351898 -0.33108154 0.28412852 -0.30970675 0.42555174 -0.36933103 -0.23638317 -0.30280873 0.39441055 -0.3585553 0.2731319 0.09043166 -0.30730549 0.31198633 -0.017826956 -0.21206674 0.2773857 -0.3693624 0.35026884 -0.28587475 0.32449192 -0.20598868 -0.42862928 0.4965063 -0.29032922 0.2819643 0.20646535 -0.4004587 -0.095291615 -0.27958548 0.27871257
grant 0.42054385 0.23015988 -0.06301813 -0.2439546 -0.08486583 -0.16244003 0.27948993 -0.21697052 -0.053783983 0.098524414 -0.16213904 0.28797933 -0.09909563 0.26982093 0.25128335 0.28533795 -0.22799067 -0.0020767879 0.22807412 -0.07329701 0.16195102 -0.15515041 0.2501214 -0.0737296 -0.2803745 -0.10720536 -0.14326783 0.28091487 -0.2314732 0.23693386 0.2881656 0.0535482 -0.2729667 -0.20283924 0.33906245
riter -0.1252811 0.0754237 0.15890233 0.19246656 -0.20477046 -0.15403178 0.18370344 -0.19431388 0.12110507 -0.17363507 -0.10499695 -0.15164012 0.20844875 -0.15030943 0.12380059 0.13320124 -0.15077564 0.19512574 0.12671597 -0.15655936 0.12432152 -0.17634273 0.17945077 -0.16077769 0.19098288 -0.14106801 -0.19593698 0.048963666 -0.17622705 0.1359525 0.081833445 -0.20525497 -0.106471956 -0.18949606 0.22259556
journal 0.68990016 -0.55833447 -0.8992062 -0.5612258 0.8987324 0.59177846 -0.19347978 0.5596827 0.7764142 0.5150449 1.005336 0.9099463 -0.73374146 0.7489659 -0.79646087 0.07133436 0.29513317 -0.2440669 -0.324331 1.1732389 -0.26046565 -0.8270776 0.51488113 0.9220935 -1.0294056 0.62700516 -0.55719244 -0.19820337 0.39691046 -0.5054579 0.111796774 -0.83748657 0.24357451 0.76355326 -0.09324141
article -0.31308237 0.32748377 0.2629932 0.38589564 -0.351898 -0.33108154 0.28412852 -0.30970675 0.42555174 -0.36933103 -0.23638317 -0.30280873 0.39441055 -0.3585553 0.2731319 0.09043166 -0.30730549 0.31198633 -0.017826956 -0.21206674 0.2773857 -0.3693624 0.35026884 -0.28587475 0.32449192 -0.20598868 -0.42862928 0.4965063 -0.29032922 0.2819643 0.20646535 -0.4004587 -0.095291615 -0.27958548 0.27871257
title 0.41067898 -0.62523264 -0.20956497 -0.49272412 0.89365786 0.5522994 -0.3964673 0.7268153 0.6672406 -0.15778783 0.8727005 0.71061134 -0.6803695 0.07465596 -0.72454166 0.05838021 0.1119195 -0.5635328 -0.37568516 0.6953547 -0.14481565 -0.12354153 0.06525147 0.7867186 -0.5152189 0.36048 -0.29483145 0.30018067 0.20532005 -0.5661129 0.46019912 -0.75604486 0.15289706 0.5490721 -0.39455655
international 0.82081306 0.09954238 -0.5052403 -0.3724362 0.52327746 0.5529973 -0.43973234 0.66334057 0.33094877 0.043875825 0.6091165 0.8060321 -0.24286461 0.21015875 -0.57942605 0.3292444 0.043284602 -0.4689324 0.33796862 0.9610196 -0.5338057 -0.549405 0.22167723 0.71498287 -0.86118585 0.09330237 -0.06305541 -0.1095675 -0.25879526 -0.30459237 0.24343349 -0.16690825 -0.26555893 0.6287189 0.08778297
journal 0.68990016 -0.55833447 -0.8992062 -0.5612258 0.8987324 0.59177846 -0.19347978 0.5596827 0.7764142 0.5150449 1.005336 0.9099463 -0.73374146 0.7489659 -0.79646087 0.07133436 0.29513317 -0.2440669 -0.324331 1.1732389 -0.26046565 -0.8270776 0.51488113 0.9220935 -1.0294056 0.62700516 -0.55719244 -0.19820337 0.39691046 -0.5054579 0.111796774 -0.83748657 0.24357451 0.76355326 -0.09324141
skills -0.001790547 -0.18435554 -0.27699745 -0.48573115 0.32700363 0.29547435 0.07856236 0.072813176 0.33454332 0.3981101 0.300107 0.38778448 -0.36329034 0.80304325 -0.22517896 0.3322554 0.19359264 0.09884542 -0.13865833 0.42286482 0.31028453 -0.21310493 0.23707095 0.33171195 -0.45747253 0.13604113 -0.07218367 0.20803148 0.16451754 -0.20543325 0.55399597 -0.21096478 0.048324794 0.3002195 0.13446032
multidisciplinary -0.002886794 0.011152567 0.12618166 -0.09225076 0.12355079 0.20684433 -0.063276306 -0.13245037 -0.16067572 -0.32128438 -0.051959105 0.005375473 -0.107578404 -0.0434606 -0.108824894 0.05319793 0.159213 -0.019739306 0.21297808 -0.11618638 -0.06896309 0.268533 0.042498957 0.049492035 -0.09745373 -0.11082771 0.2613606 -0.15947957 0.040221255 -0.050332963 -0.11737872 0.07752193 0.12435476 -0.027050948 0.049961552
team -0.0020794393 0.1269397 0.27823055 -0.16633186 -0.1900652 -0.19285586 0.20099074 -0.24539791 -0.28932673 -0.23199958 -0.105977304 0.038880702 0.095114075 0.20793955 -0.0504792 -0.10029091 -0.028410025 -0.072770074 0.1694932 -0.19608644 -0.04272623 0.103920855 -0.094700046 -0.2224102 0.23775662 -0.1571334 0.094530754 0.048071068 -0.24227053 0.058494113 -0.17030026 0.1231342 0.19340238 -0.1528989 -0.060509767
advanced -0.34629244 -0.24409983 -0.4035931 0.68018824 0.22706395 -0.34022495 0.3393119 -0.08732284 0.081108876 0.26516372 -0.06824477 0.11792085 0.09787704 -0.44165003 0.07353498 -0.57006323 0.12949538 0.040557053 -0.4517955 -0.1295272 0.099794134 -0.090116 -0.12493963 0.49199948 0.7410369 0.4278201 0.23075417 -0.5564645 0.05925579 0.21086258 0.20649369 0.10022737 -0.15504797 -0.21239327 0.20294984
practice 0.7821733 -0.29835823 -0.6536503 -0.7800469 0.73841393 0.5911632 -0.05866939 0.49489456 0.66230536 0.32843181 0.7806881 0.8456201 -0.66916376 0.6514601 -0.6119102 0.7010176 0.2868158 -0.36037225 0.17224173 0.95609844 -0.21537435 -0.7659399 0.5146315 0.74486965 -0.93246686 0.35949382 -0.55075634 -0.016285134 -0.07096316 -0.4148089 0.5693973 -0.32792842 -0.4595533 0.6019581 0.36738193
nursing 0.12808768 -0.000317192 -0.291452 -0.121324845 0.16566455 0.04148593 -0.24554002 0.29631197 0.22012888 -0.03837 0.14180024 0.2966615 -0.3540178 0.08424206 -0.17729571 -0.05662347 0.1452678 -0.41275063 -0.045575723 0.16741687 -0.10923927 0.5385021 -0.24914715 0.1420404 -0.080896124 0.21619192 0.3681715 0.044931326 0.09822144 -0.1418768 -0.0023085838 -0.078058794 0.14502847 0.2227435 -0.26102856
experience 0.022212747 -0.0045693405 -0.0002523288 -0.014152013 -0.047384966 0.039530937 -0.045702934 0.020656075 -0.022030747 -0.010176133 0.031232622 -0.0047122836 -0.023452295 -0.002027057 -0.024228275 -0.025993371 0.035223972 -0.011961363 0.017410431 0.02361459 0.025264923 0.0037368424 -0.019532014 0.04051454 0.032274317 -0.0010486357 -0.011299301 -4.2401254e-05 0.034271386 0.046576943 0.04127899 -0.015514351 0.0013193116 -0.02707888 0.029235851
publications 0.37180194 -0.15677199 -0.38022304 -0.32439157 0.34319487 0.09917374 -0.31030864 0.41040158 0.27433914 -0.04462733 0.3728455 0.38521227 -0.3784819 0.10363221 -0.21528146 0.39968887 0.28997752 -0.34529835 0.101750225 0.39631686 -0.14204136 -0.26141077 0.19283463 0.41570765 -0.3850514 0.23677589 -0.04194858 0.01559938 -0.08564748 -0.356815 0.29768214 -0.0400319 -0.28586963 0.32633096 0.08155933
measurement 0.44440955 -0.2431882 -0.14480445 -0.3760099 0.21125661 0.114933304 0.058913365 0.036456157 -0.08418843 0.056547746 0.29406068 0.27978122 -0.09229897 0.32825586 -0.021823905 0.366137 -0.027127098 -0.09875726 0.15190889 0.20392331 -0.06022347 -0.109265715 0.046926733 0.068439506 -0.2565708 0.058089 0.014937453 0.15736851 -0.13816284 -0.0030395638 0.228956 0.20177653 -0.22836988 0.0114352545 0.08749082
reports 0.36308885 -0.31372565 -0.6504829 -0.23799764 0.7006542 0.50118375 -0.14402068 0.34475812 0.39854872 0.121406995 0.60771155 0.62184244 -0.5675145 0.28755334 -0.55125445 0.021471674 0.31262305 -0.2735087 -0.17439389 0.72181433 -0.2735486 -0.5136018 0.26152745 0.72228557 -0.5807694 0.49257272 -0.52584714 -0.2329645 0.16571607 -0.31219727 0.047610518 -0.452806 0.13145815 0.36499676 -0.063742176
weak 0.19448225 -0.0869128 -0.3426554 -0.23908082 0.21833517 0.09496667 -0.14158592 0.27804294 0.12715642 -0.04230123 0.18910542 0.23892635 -0.27947047 0.086463235 -0.18674873 0.2127888 0.19535756 -0.23365492 0.0733955 0.25320753 -0.102728866 -0.084877566 0.13184217 0.20369497 -0.27360573 0.08070499 -0.012696669 0.041611772 -0.08424914 -0.265273 0.18140174 -0.03592414 -0.1340998 0.17457056 0.025528176
skills -0.001790547 -0.18435554 -0.27699745 -0.48573115 0.32700363 0.29547435 0.07856236 0.072813176 0.33454332 0.3981101 0.300107 0.38778448 -0.36329034 0.80304325 -0.22517896 0.3322554 0.19359264 0.09884542 -0.13865833 0.42286482 0.31028453 -0.21310493 0.23707095 0.33171195 -0.45747253 0.13604113 -0.07218367 0.20803148 0.16451754 -0.20543325 0.55399597 -0.21096478 0.048324794 0.3002195 0.13446032
statement -0.19266543 0.16411416 0.6573669 0.2971871 -0.2711031 -0.29605967 0.18562919 -0.21989217 0.5413631 -0.23162681 -0.12303048 -0.19694471 0.29945597 -0.31976324 0.32897303 0.0067304433 -0.53529954 0.17053843 0.049820874 -0.19121304 0.26027578 -0.49783066 0.26136667 -0.23272684 0.21384618 -0.111679494 -0.30300257 0.36856773 -0.29873773 0.29688978 0.3974369 -0.5657535 -0.11233193 -0.30518132 0.24239737
nursing 0.12808768 -0.000317192 -0.291452 -0.121324845 0.16566455 0.04148593 -0.24554002 0.29631197 0.22012888 -0.03837 0.14180024 0.2966615 -0.3540178 0.08424206 -0.17729571 -0.05662347 0.1452678 -0.41275063 -0.045575723 0.16741687 -0.10923927 0.5385021 -0.24914715 0.1420404 -0.080896124 0.21619192 0.3681715 0.044931326 0.09822144 -0.1418768 -0.0023085838 -0.078058794 0.14502847 0.2227435 -0.26102856
technology 0.19160919 -0.12164827 0.06022349 -0.035540964 0.18406166 0.064455286 -0.36818564 0.14905223 -0.81512976 -0.16590041 0.1072808 0.11224135 -0.06188908 -0.103158355 -0.006343554 -0.5063296 0.15425143 -0.11330315 -0.47354424 0.19151123 -0.12521729 0.4746736 -0.5295312 0.19289285 -0.12508233 -0.107661046 0.5757597 -1.0319991 0.68498856 -0.06250051 -0.55305046 0.079981215 0.2531602 0.11167036 -0.53029174
lab -0.3599264 0.24228723 0.27801865 0.4550615 -0.34793824 -0.3476081 0.29957566 -0.40402508 0.44937485 -0.32688993 -0.25629672 -0.34155902 0.32432443 -0.44872785 0.2847934 0.20747769 -0.41301015 0.41613346 0.2662688 -0.3858711 0.24797356 -0.41241813 0.41243476 -0.36499172 0.34135845 -0.24469896 -0.41796222 0.26014763 -0.288346 0.40937468 0.37000632 -0.46284825 -0.35914096 -0.36132017 0.398903
complex -0.49231023 0.22048055 -0.040882308 0.4243007 -0.21656147 -0.3599715 0.33886278 -0.35781145 0.16675797 -0.35005003 -0.32617414 -0.41211542 0.27442268 -0.4032652 0.21647765 0.06017578 -0.13031328 0.3601793 0.1987792 -0.24954316 0.038704954 -0.15835203 0.3574045 -0.32962355 0.4501892 -0.25760752 -0.2870457 -0.17302623 -0.07086322 0.18725647 0.12607415 -0.093012966 -0.2242217 -0.24445032 0.3656245
findings 0.53020984 -0.03582568 -0.6281555 -0.37908506 0.44209313 0.2570427 -0.5883863 0.37695187 0.5879513 0.22449309 0.4173726 0.5744645 -0.41966715 0.20744571 -0.5234104 0.2973648 0.11056641 -0.25544417 0.16463862 0.9166685 -0.5394664 -0.4381053 0.28620455 0.48278716 -0.5428074 0.28746396 -0.032634486 0.1116092 -0.06697141 -0.24141818 0.32753432 -0.14167567 -0.21976738 0.36185104 0.00916101
problemsolving 0.5675076 -0.29650167 -0.52267796 -0.46249995 0.5132809 0.3926634 -0.09915965 0.4319677 0.54853255 0.37351993 0.5662755 0.6432029 -0.42794332 0.29616985 -0.44798094 0.6031268 0.14708066 -0.41927642 0.56973946 0.7093379 -0.40391958 -0.62856835 0.54784364 0.5509688 -0.62545216 0.0965943 -0.39954466 0.20641574 -0.44890425 -0.36081707 0.6333762 -0.13055034 -0.68141 0.46425894 0.57420033
decision -0.12397502 0.05456736 0.24724154 0.06862789 -0.14788385 -0.029821625 -0.052026577 -0.0538391 -0.54485935 -0.21322075 -0.07871694 -0.01878768 0.06832871 -0.005078142 0.03003872 0.0032375734 0.24335091 -0.11301095 0.277153 -0.20783651 0.00342755 0.45868832 -0.35069877 -0.15536796 0.13801178 -0.07335399 0.2691919 -0.39508227 0.075391695 -0.046660356 -0.27966762 0.5724435 0.02226411 0.008358213 -0.2539228
monitor -0.11630239 0.44033805 0.31983188 0.02434082 -0.32686442 -0.41379142 0.32372162 -0.31862044 0.07899603 -0.2315844 -0.48863307 -0.19541426 0.2312899 -0.10112614 0.3932674 0.4488877 -0.34902593 0.16783196 0.25418958 -0.38395807 0.31132984 -0.12418837 0.18247774 -0.26713645 0.2684135 -0.32417497 -0.20574334 0.60286963 -0.2990468 0.28958318 0.16054676 -0.098633856 -0.28738508 -0.3641754 0.38314304
coworkers -0.19570944 0.210347 0.22383411 0.2201846 -0.25901318 -0.24779327 0.28032237 -0.27598497 0.24698032 -0.25664344 -0.25059202 -0.2672344 0.32198074 -0.26035392 0.19394432 0.14274763 -0.2556703 0.2066653 0.17747116 -0.21639284 0.2009253 -0.19169736 0.16350831 -0.20859547 0.31269738 -0.24501392 -0.20884189 0.12999831 -0.18933928 0.2502008 0.09418003 -0.2706953 -0.07414984 -0.22879855 0.17543212
communication -0.1914966 0.14330134 0.37380356 0.016759973 -0.17777865 -0.007547534 0.054650567 -0.12851067 -0.035886094 -0.33483037 -0.013796742 -0.120373674 0.16546951 -0.2021064 -0.023496125 -0.0833246 -0.1229089 0.094130404 0.2872739 -0.22842863 0.052749652 -0.022995422 0.025284084 -0.25482124 0.24942079 -0.2403428 -0.0045297127 0.24531771 -0.18449783 0.106807634 0.010440269 -0.14482786 0.050254777 -0.17515793 0.06440689
teamwork 0.4702275 -0.12849182 -0.35439685 -0.38008747 0.35213006 0.24672051 -0.027615283 0.28441712 0.2832375 0.20891832 0.37917027 0.545062 -0.34557462 0.238901 -0.29469928 0.42382452 0.11276823 -0.27897474 0.29573855 0.68314636 -0.12838665 -0.3330197 0.22549687 0.45819747 -0.5383003 -0.046200566 -0.19283397 0.016392583 -0.22564362 -0.14909746 0.37215754 -0.08649238 -0.4270173 0.32437173 0.22981888
silver 0.4176774 -0.44716355 -0.4847262 -0.4222127 0.5818408 0.5150651 -0.013875517 0.37998632 0.35358799 0.09000984 0.60767263 0.56073034 -0.52493334 0.3401373 -0.47082272 0.27488646 0.29705054 -0.17419244 0.0061789667 0.6647458 -0.24722423 -0.57804614 0.35997587 0.60102534 -0.6378519 0.33166927 -0.44585508 -0.27201575 0.16263281 -0.2628144 0.1772198 -0.2829476 0.012600344 0.44495967 0.10013859
aggregates 0.15969549 -0.27559042 -0.1335494 -0.06664247 0.1801629 0.20253406 -0.16379134 0.13099526 -0.119129315 0.05385613 0.24940223 0.14807095 -0.10420758 0.07312846 -0.11026444 0.028265126 0.068297505 -0.13752192 -0.11508092 0.1622729 -0.23218705 0.059947204 -0.07082754 0.16707437 -0.09637464 0.17276576 0.06741618 -0.22136511 0.16679649 -0.16459249 -0.09191949 0.1327017 0.024982637 0.14354505 -0.01662428
research 0.88875395 -0.36754763 -0.44155702 -0.18959336 0.51904434 0.04438862 -0.010399041 0.59883267 0.1519224 0.22467445 0.4652619 0.6775235 -0.46582007 0.33067715 -0.11411456 0.446652 -0.085557826 -0.20814125 -0.11907593 0.6613528 0.14181513 -0.3820196 0.19706659 0.6326897 -0.49041885 0.061060257 -0.48099786 0.09821099 -0.17268984 0.06517841 0.48633572 -0.015539787 -0.5154893 0.34860566 0.25686786
calculating -0.31931514 0.20072484 0.2609323 0.3697098 -0.28711376 -0.22978128 0.2938923 -0.26007828 0.24384958 -0.2867361 -0.24587376 -0.25658378 0.3217962 -0.3287331 0.28074718 0.06014743 -0.3726155 0.23555055 0.1736081 -0.23933601 0.18330398 -0.18064553 0.21069458 -0.25992993 0.2925047 -0.29132545 -0.24586827 0.13004449 -0.25625134 0.26946712 0.15205862 -0.35349295 -0.13575067 -0.30643 0.2769488
results -0.44121543 0.45243928 0.3706658 0.2954521 -0.40239868 -0.48868918 0.4685057 -0.45856625 0.46541998 -0.42584646 -0.42821202 -0.425883 0.4962621 -0.29305613 0.3185427 0.21341684 -0.47333193 0.50412464 -0.10397955 -0.30319664 0.3000883 -0.43783897 0.45003316 -0.47415036 0.4546767 -0.36866376 -0.42090264 0.48206988 -0.4013644 0.46479687 0.30497998 -0.63655466 -0.21688777 -0.5152661 0.29722795
particle 0.699489 -0.11191307 -0.50768614 -0.59844977 0.34081638 0.1632992 -0.033363726 0.12738709 -0.06388456 0.64353067 0.27705777 0.8448112 -0.7441602 0.66702324 -0.10913605 0.48035017 -0.00847855 -0.3045813 0.025446108 0.2697877 -0.18849574 -0.40435025 0.044404555 0.37793604 -0.7640193 0.23837139 0.174819 0.31032872 -0.12631895 -0.10525049 0.47956485 0.51072043 -0.52485245 0.18312536 0.045977514
counter -0.054384157 -0.14719456 -0.018125175 0.05048478 -0.057942398 0.07021552 0.11530042 -0.03067807 -0.047322996 -0.09421927 0.2957511 -0.028986743 0.06245592 -0.043952577 -0.3074401 -0.20322661 0.012695666 -0.036549173 0.06907336 -0.0019381517 -0.16805343 0.08257333 0.07846506 -0.04336916 0.09102573 -0.030269375 -0.102447346 -0.09512784 -0.009893949 -0.040722977 -0.13776413 0.008725587 0.092909314 -0.0322227 0.057192508
nanoparticle 0.66430235 -0.17001237 -0.68428653 -0.58332497 0.6382444 0.47631177 -0.8800047 0.62401056 0.5204063 0.38212356 0.6792282 0.69213223 -0.59185445 0.48896942 -0.61857295 0.49803653 -0.077090956 -0.45338482 0.38248757 0.91101664 -0.59667706 -0.68814546 0.5071968 0.76184195 -0.72459716 0.26572722 -0.42569515 0.11176095 -0.17460723 -0.5229921 0.46017185 -0.5551009 -0.48552874 0.59950715 0.30137324
surface 0.3194246 -0.12324973 -0.30335632 -0.5029612 0.5726616 0.40458626 -0.172864 0.20089993 0.32925445 0.56737596 0.50001746 0.5725301 -0.5035375 0.42373034 -0.26317933 -0.1280694 0.0016327762 -0.015719995 -0.25774044 0.76180273 0.010788415 -0.42621842 0.14486998 0.6807292 -0.50508183 0.2606301 -0.35465723 0.23184675 0.074811876 -0.14858995 0.12817585 -0.37709907 0.10395625 0.15535843 0.017877635
area -0.0035367608 0.04437879 0.048159663 0.0099799745 -0.044011902 0.048017386 -0.03359443 -0.031428684 0.011120163 0.02979168 -0.013445817 0.0025488362 0.020493593 -0.013591029 -0.045996178 0.015082512 0.019083533 -0.026132537 0.041859034 -0.03901895 -0.025626494 -0.0024183504 0.027791966 0.023935627 0.04622486 -0.0030615442 -0.025169779 -0.04728743 -0.0038751848 -0.0045101047 0.03190324 0.021774735 -0.024274051 0.0068198442 -0.040134013
monitor -0.11630239 0.44033805 0.31983188 0.02434082 -0.32686442 -0.41379142 0.32372162 -0.31862044 0.07899603 -0.2315844 -0.48863307 -0.19541426 0.2312899 -0.10112614 0.3932674 0.4488877 -0.34902593 0.16783196 0.25418958 -0.38395807 0.31132984 -0.12418837 0.18247774 -0.26713645 0.2684135 -0.32417497 -0.20574334 0.60286963 -0.2990468 0.28958318 0.16054676 -0.098633856 -0.28738508 -0.3641754 0.38314304
nanometer 0.12509613 0.09935357 -0.17051141 -0.1264889 -0.17339571 -0.20726132 0.13008656 -0.19658732 -0.3015693 0.30728146 -0.28286892 0.046329502 -0.11126623 0.31351012 0.26410532 0.19611366 0.014838785 0.10851594 0.21393672 -0.12253401 -0.024095409 0.11862158 0.10409859 -0.04232949 -0.002277112 -0.035340548 0.10909485 -0.0903442 -0.060281303 0.07639018 0.10629533 0.3007718 -0.28714126 -0.18435119 0.15027276
aerosol 0.5537617 -0.25226223 -0.52213496 -0.2990048 0.4948474 0.2667688 -0.23351434 0.5268147 0.5876127 0.3109051 0.45307365 0.5658823 -0.3438478 0.21555266 -0.4654227 0.4702997 0.17958078 -0.46240953 0.457242 0.7110442 -0.36189803 -0.38754508 0.38434485 0.5072894 -0.45369446 0.2548388 -0.39830086 0.37369415 -0.25256586 -0.3017367 0.428881 0.14228255 -0.46138507 0.3819756 0.43839994
sampler 0.3327899 -0.104576275 -0.0012383277 -0.16084224 0.36768603 0.33238265 -0.14951394 0.13673893 0.19757779 -0.2549332 0.25464037 0.34525898 -0.18696675 0.021000765 -0.4356352 0.040205557 0.26343623 -0.09696879 0.08789585 0.19676584 -0.13606903 -0.020939369 -0.087943345 0.22634521 -0.39943284 0.03282841 0.11022213 -0.119608335 0.114757754 -0.13686445 0.11783274 -0.029227762 0.18975283 0.12706055 -0.24362457
aerodynamic -0.04026313 -0.15536731 -0.07105322 0.036272284 0.14595951 0.032813404 0.11218613 0.028402008 0.22689721 0.09425359 -0.13379277 -0.108740784 0.102237456 -0.012596579 0.26644588 0.1894846 -0.12524512 -0.05428637 -0.13620512 0.10718701 0.10319218 -0.0705164 0.08744957 0.07167639 -0.0845946 0.1115764 -0.09864355 0.07004686 -0.060410183 0.14790495 0.28550127 -0.1432605 -0.12924339 0.10758328 0.004525343
particle 0.699489 -0.11191307 -0.50768614 -0.59844977 0.34081638 0.1632992 -0.033363726 0.12738709 -0.06388456 0.64353067 0.27705777 0.8448112 -0.7441602 0.66702324 -0.10913605 0.48035017 -0.00847855 -0.3045813 0.025446108 0.2697877 -0.18849574 -0.40435025 0.044404555 0.37793604 -0.7640193 0.23837139 0.174819 0.31032872 -0.12631895 -0.10525049 0.47956485 0.51072043 -0.52485245 0.18312536 0.045977514
awards -0.18346494 0.14134862 0.036135156 0.2850758 -0.027673237 -0.010977293 0.06523776 -0.14856717 -0.09784376 -0.124876335 -0.11675757 -0.09673656 0.15191047 -0.2326978 0.0036945287 -0.008099844 -0.04869306 0.17176175 0.15383331 -0.12892847 -0.044178907 -0.0018291479 -0.009748979 -0.14243922 0.1004216 -0.18082678 -0.051627792 -0.21583788 0.084551886 0.047217134 -0.10764383 0.15890037 0.16564016 -0.12232132 0.11562579
publicationspresentations 0.47174212 -0.3955343 -0.43986088 -0.29159266 0.55088365 0.42664233 -0.18891779 0.4643747 0.41938746 0.23424077 0.5124347 0.54901415 -0.4349401 0.236506 -0.44988003 0.43781295 0.25382435 -0.39187655 0.3784951 0.66361725 -0.44219083 -0.47906166 0.22318777 0.517938 -0.5578037 0.31607473 -0.03455294 0.12089301 -0.103254005 -0.40046692 0.46420318 0.2794053 -0.51040894 0.43381146 0.11663872
organizations 0.5020262 -0.20467171 -0.3982272 -0.30518544 0.3786098 0.1964205 -0.009349748 0.33596534 0.26421323 0.10396901 0.3158555 0.45225143 -0.26473626 0.22452973 -0.29082912 0.3101706 0.047735848 -0.34655318 0.264289 0.56434184 -0.19116579 -0.30789182 0.24500091 0.44562486 -0.49589634 -0.014150961 -0.12540355 -0.062174696 -0.16834813 -0.21191141 0.25237042 -0.18750119 -0.4827008 0.36261672 0.23426908
relationships -0.11033345 0.13018835 0.17026614 0.11226978 -0.25314867 -0.1387368 0.24127026 -0.25453234 0.20709144 -0.1873579 -0.20156237 -0.16580838 0.24646929 -0.13600868 0.13256045 0.13282348 -0.14637414 0.17003421 0.17344104 -0.1711659 0.08173267 -0.19099581 0.26082593 -0.18380643 0.19057594 -0.15997784 -0.28013763 0.12236885 -0.11442945 0.18508135 0.13860345 -0.21571712 -0.15910675 -0.26392883 0.13664685
assistant 0.0650509 -0.122436166 -0.08286953 0.10575908 0.08684838 0.07570782 0.006269739 0.09183009 0.18255128 -0.05687199 0.1813596 0.096427016 0.024096983 -0.106375754 -0.12759101 -0.046469055 0.034252036 -0.036334224 -0.079287946 0.12826754 -0.06941369 -0.1705429 0.106747776 0.09298984 -0.08758218 -0.0010015105 -0.09656796 -0.089863665 0.09760831 -0.0742452 0.03316736 -0.09322169 0.014940592 0.10728216 0.034719143
particle 0.699489 -0.11191307 -0.50768614 -0.59844977 0.34081638 0.1632992 -0.033363726 0.12738709 -0.06388456 0.64353067 0.27705777 0.8448112 -0.7441602 0.66702324 -0.10913605 0.48035017 -0.00847855 -0.3045813 0.025446108 0.2697877 -0.18849574 -0.40435025 0.044404555 0.37793604 -0.7640193 0.23837139 0.174819 0.31032872 -0.12631895 -0.10525049 0.47956485 0.51072043 -0.52485245 0.18312536 0.045977514
diffusion 0.37106797 -0.06730292 -0.18706232 -0.25230533 0.39096388 0.36677152 -0.20273754 0.3752468 -0.08680387 0.10706822 0.3852898 0.39942768 -0.27468744 0.1548851 -0.25049725 0.04978515 0.27710956 -0.28200462 0.043485545 0.39147884 -0.27020058 -0.041230015 0.047420327 0.37001404 -0.3320316 0.13827261 0.13497473 -0.06343877 0.11160202 -0.25277317 0.095518775 0.27070644 -0.0007322567 0.29606086 -0.033629615
loss 0.36434788 -0.10036606 -0.21544512 -0.26858672 0.2131868 0.098717384 -0.036464714 0.20028013 0.16561495 0.14935125 0.2390724 0.3953549 -0.1614243 0.20592977 -0.15422085 0.19977596 0.092082605 -0.20284389 0.17981522 0.40956283 -0.16082013 -0.24220003 0.10672868 0.24046986 -0.3601251 0.0629795 -0.09889355 -0.054107238 -0.11389777 -0.105133966 0.24948336 0.013821643 -0.29848993 0.20199673 0.12146756
correction -0.06532036 0.15171461 -0.07775043 0.09632936 -0.14299768 -0.06867263 0.095461406 -0.19849873 -0.09678811 -0.119866304 -0.076116815 -0.04499346 0.15087774 -0.0078939935 0.16189714 0.14288686 -0.06356523 0.104048945 0.1816971 -0.06757516 0.012635959 0.02071912 0.17206798 -0.16547051 0.13064206 -0.096974306 -0.13434304 -0.060993496 -0.08683962 0.11922207 0.006473648 0.22731295 -0.11621876 -0.18650861 0.053006217
templates -0.27865848 0.18682674 0.11159504 -0.06043426 -0.059510864 -0.15736395 0.16098168 -0.11917309 -0.11091291 -0.16382556 -0.055858746 -0.13757154 0.35231882 0.049793568 0.09999224 -0.032790106 -0.084136896 0.23423474 0.13839093 -0.123748444 -0.07758321 0.061709914 0.12630299 -0.19041382 0.15795945 -0.16047435 0.017787201 0.06437095 -0.16537228 0.18207571 -0.055109065 0.11109205 0.20602335 -0.17826451 0.0590087
problem -0.23760033 0.2252045 0.19828771 0.21050397 -0.28800324 -0.22140719 0.27173898 -0.24342106 0.20701623 -0.2202219 -0.19958335 -0.21467951 0.29692426 -0.23906854 0.20520462 0.10699481 -0.23616116 0.22563933 0.15961874 -0.24410133 0.16599074 -0.17308696 0.20491731 -0.27763823 0.24241047 -0.21836762 -0.16616856 0.17757282 -0.19513209 0.22852667 0.08354126 -0.21929497 -0.08328964 -0.23788734 0.16767305
solving -0.14901419 0.113191895 0.20088372 0.20570591 -0.2522701 -0.19726133 0.18157785 -0.198149 0.073903374 -0.15119426 -0.14519209 -0.16052409 0.15968084 -0.16159359 0.15432239 0.16097082 -0.21836476 0.20814438 0.13045737 -0.22555561 0.1569931 -0.10905945 0.112217546 -0.1960231 0.22137323 -0.03838489 -0.13443896 0.18575735 -0.08567962 0.18334933 0.08930737 -0.2288923 -0.13176185 -0.18588352 0.1935638
homework 0.7131599 -0.206509 -0.567658 -0.5942649 0.691274 0.43954033 -0.003450492 0.55932176 0.55365616 0.34014434 0.63095444 0.8093817 -0.5920593 0.36645243 -0.5117154 0.67322195 0.08229087 -0.48786065 0.48366624 0.88368434 -0.36970064 -0.71139044 0.5243675 0.6543452 -0.7345943 0.11252011 -0.40879837 0.17888139 -0.3731645 -0.3385511 0.6164598 -0.11383244 -0.6972765 0.6144432 0.45197618
problems 0.20246626 0.14263947 0.10415875 -0.29277545 -0.20292974 -0.14612189 0.15071015 -0.26304314 -0.15926635 0.32949835 -0.31086415 -0.0048561315 -0.042025402 0.3915331 0.33253974 0.18242247 -0.14664023 -0.09355696 0.05392975 -0.16776076 0.121387124 0.10197399 0.13435681 -0.13081959 -0.072373375 -0.07753196 -0.015296581 0.13801953 -0.16081482 0.15080787 0.14725243 0.17341757 -0.2180388 -0.23603857 0.19111931
collaborate 0.33043596 -0.30886778 -0.40149164 -0.2921007 0.46947962 0.2730216 -0.015345754 0.31726414 0.30265585 0.29262155 0.48003232 0.5388193 -0.44691405 0.24712628 -0.20846452 0.14609818 -0.005992722 -0.044937346 -0.120391004 0.6169799 0.030116463 -0.58553404 0.25595066 0.44010246 -0.4573585 0.26263544 -0.397652 0.20471878 -0.008957205 -0.15016668 0.29131687 -0.36943567 -0.176667 0.35379437 0.13513799
mechanical -0.014896883 -0.07591198 0.05003254 -0.15857254 0.015595199 0.12024693 0.08039778 -0.12224525 0.095302925 -0.13752817 0.15566452 0.040180933 -0.036419753 0.08479972 -0.10805709 -0.06183034 0.09718673 -0.060521685 0.08015239 0.030820014 -0.039363835 0.10315404 0.07666761 -0.06264773 0.1106625 -0.06271447 0.06026677 0.16477607 -0.09119008 -0.048000567 -0.011173377 -0.050922714 -0.026041275 -0.0033920829 -0.071672894
engineering -0.4745155 0.29638648 0.5007798 0.47370553 -0.5669652 -0.420019 0.5574427 -0.6345162 0.44218397 -0.51596767 -0.497449 -0.5833697 0.5300351 -0.5398211 0.015207003 -0.018940795 -0.53392345 0.538925 0.37716544 -0.5114492 0.29472476 -0.45703104 0.49866018 -0.54444814 0.5486242 -0.3758184 -0.5206481 0.19310503 -0.35320035 0.623694 -0.1599389 -0.5335219 -0.5811931 -0.5340469 0.5830607
university 0.16770591 -0.34903747 -0.24594165 -0.0049313046 0.29677138 0.29011452 -0.10328342 0.2533423 0.3122628 -0.14614968 0.42285064 0.2049117 -0.0622472 -0.17001256 -0.32772937 0.21328792 0.12399449 -0.09702498 0.21157709 0.44631505 -0.3097647 -0.6209874 0.117883526 0.2219575 -0.18980442 0.13270909 -0.17699412 -0.49182168 0.12573792 -0.2005157 0.35210294 -0.03893307 -0.16182616 0.17747888 -0.026488964
intelligence 0.51606536 -0.12163746 -0.28672415 -0.35362878 0.33611003 0.1686578 -0.0068559134 0.1885458 0.32288572 0.19174527 0.33341315 0.45060655 -0.3266779 0.22244117 -0.20286623 0.3573668 0.091836534 -0.23837698 0.23608637 0.6249769 -0.111513175 -0.33842918 0.23616172 0.34425795 -0.42381147 0.032912545 -0.14385459 0.024153046 -0.18428414 -0.15045665 0.35154626 -0.089334294 -0.32679042 0.27713466 0.1972089
level 0.8207179 -0.21145226 -0.54714197 -0.70295805 0.6396613 0.46238455 -0.12669002 0.46375054 0.50537026 0.3410983 0.68889683 0.81395024 -0.68233037 0.57593316 -0.48366126 0.6726048 0.15787871 -0.3869451 0.41632736 0.96322733 -0.2301844 -0.74539495 0.5132476 0.64741296 -0.8572803 0.27137628 -0.38883603 0.040465113 -0.19201228 -0.38716412 0.5514806 -0.18593511 -0.556465 0.6182377 0.33767268
assessing 0.4911735 -0.36644503 -0.47674337 -0.4280662 0.5562077 0.5497854 -0.08398438 0.36582586 0.3670635 0.09892868 0.6696872 0.6836886 -0.52871555 0.36679614 -0.4944597 0.30125377 0.24612497 -0.21249849 0.005048591 0.7022104 -0.2709328 -0.61117333 0.3710538 0.62394583 -0.5893525 0.38547578 -0.3897733 -0.2763883 0.1759243 -0.32105234 0.23248217 -0.2697668 -0.012939008 0.48333207 0.084892794
students 0.39836523 -0.35235927 -0.029323194 -0.13068503 0.51334953 0.39569464 -0.10923871 0.33963042 0.40231884 0.0032554516 0.22146422 0.38234836 -0.17473567 -0.24994135 -0.042680614 0.19843134 -0.1186127 -0.4407579 -0.2829941 0.5641122 0.05842618 -0.31671256 -0.01639674 0.34571987 -0.40948626 0.48983786 -0.22563118 0.45239303 0.0036499286 0.09295477 0.43371353 -0.33766115 -0.16419904 0.3247724 0.06919827
teaching -0.06996515 0.17948264 0.1058376 0.03766265 -0.16582946 -0.16651504 0.25826982 -0.197405 0.22563608 -0.16062874 -0.12895918 -0.093654886 0.15051958 -0.13404869 0.19615614 0.11816167 -0.15754695 0.1894802 0.120870404 -0.14339994 0.1292213 -0.21960571 0.19811071 -0.23334515 0.08440674 -0.15055321 -0.22785039 0.2547982 -0.19769819 0.21450503 0.22426891 -0.27027854 -0.18366723 -0.16765925 0.24032976
experiences -0.2017759 -0.23357198 -0.17791073 0.4365377 0.27885133 -0.06552836 0.24655257 -0.12629066 0.29411125 0.16034524 0.075862676 -0.014145929 -0.2208519 -0.26609504 0.6843649 -0.26458168 -0.0071089766 0.1558503 -0.67478275 0.11470423 0.31844807 -0.091776766 0.10464743 0.20508078 0.066468924 0.30194765 -0.08433316 -0.075100146 0.55568045 0.2785472 0.15881571 -0.29091293 0.036372803 0.05313652 0.080096714
search 0.037833415 -0.3513336 -0.30572593 0.13800809 0.3322215 0.34298268 -0.20759293 0.2459917 0.381763 -0.4153847 0.3560213 0.41153294 -0.2930287 -0.1025549 -0.39589277 -0.3038037 0.34436697 -0.22545382 -0.1720355 0.4879238 -0.39413458 -0.19606021 0.0073437365 0.3371585 -0.38154635 0.2719906 -0.31650835 -0.35310075 0.19412675 -0.30687594 -0.18818206 -0.31859228 0.3925087 0.24846393 -0.31772372
curriculum 0.260204 -0.1332514 -0.11104686 -0.21311471 0.28340048 0.19690552 0.0077751945 0.24002801 0.32378685 0.12839617 0.27198276 0.3039209 -0.3805182 0.19866772 -0.19828981 0.019064661 0.088826954 -0.11665339 -0.07215352 0.3280461 -0.10427724 -0.26719373 0.10725991 0.3500846 -0.37483367 0.34097978 -0.28764662 -0.10644832 0.12669756 -0.21328798 0.13300198 -0.29179275 -0.21971926 0.2341185 0.041792534
vitae 0.2058453 0.29628944 -0.24375191 -0.32767114 0.2198487 -0.36452508 -0.12363604 0.20714478 0.3908058 0.083901875 0.13412137 0.13778986 -0.13919179 0.105898 0.32041028 0.40884897 0.15100424 -0.14272708 -0.23026635 0.27703813 0.26522094 0.10718258 -0.17522211 0.110015064 -0.21407011 0.1183844 -0.03150809 0.22468184 0.084571816 -0.13989504 0.6685082 -0.23182419 0.35161814 0.053778365 -0.24527642
workshops 0.34680015 -0.010819634 -0.2869063 -0.24993324 0.35640177 0.21790501 0.05816291 0.25705916 0.202062 0.15087692 0.31880704 0.44762436 -0.3089301 0.13609996 -0.23051079 0.37495852 0.05630648 -0.224316 0.2034827 0.4984198 -0.07833516 -0.36181185 0.23666416 0.37326843 -0.40424487 0.02449034 -0.14730383 0.030614367 -0.18326637 -0.090604156 0.28682122 -0.088101886 -0.33045503 0.28266713 0.25100407
clinical 0.06984268 -0.090681866 -0.38754976 0.10300355 -0.13798398 -0.31098032 0.3224359 0.12155652 0.15038688 0.5084021 0.2076717 0.24291606 -0.25558272 0.34400693 0.20258206 -0.40148383 -0.1725106 0.25931355 -0.4005697 0.5242151 0.28578255 -0.4853534 0.31463045 0.29149416 -0.11558225 0.2215027 -0.40305093 -0.39459148 0.19986796 -0.32038674 0.14039744 0.07512297 -0.28271237 0.41690844 0.3866305
advanced -0.34629244 -0.24409983 -0.4035931 0.68018824 0.22706395 -0.34022495 0.3393119 -0.08732284 0.081108876 0.26516372 -0.06824477 0.11792085 0.09787704 -0.44165003 0.07353498 -0.57006323 0.12949538 0.040557053 -0.4517955 -0.1295272 0.099794134 -0.090116 -0.12493963 0.49199948 0.7410369 0.4278201 0.23075417 -0.5564645 0.05925579 0.21086258 0.20649369 0.10022737 -0.15504797 -0.21239327 0.20294984
practice 0.7821733 -0.29835823 -0.6536503 -0.7800469 0.73841393 0.5911632 -0.05866939 0.49489456 0.66230536 0.32843181 0.7806881 0.8456201 -0.66916376 0.6514601 -0.6119102 0.7010176 0.2868158 -0.36037225 0.17224173 0.95609844 -0.21537435 -0.7659399 0.5146315 0.74486965 -0.93246686 0.35949382 -0.55075634 -0.016285134 -0.07096316 -0.4148089 0.5693973 -0.32792842 -0.4595533 0.6019581 0.36738193
graduate 0.17033245 0.44201773 -0.008355028 -0.2301787 0.06757699 -0.374844 0.41263625 -0.43168712 -0.41501647 0.09568594 -0.3993073 0.051155556 0.10005574 0.29615092 0.3639362 0.46631745 -0.38413316 -0.1743583 0.4222074 -0.48351467 0.24162593 0.3175099 0.5414476 -0.55873275 -0.11718051 -0.10093451 -0.02040231 0.18425336 -0.40879646 0.40366054 0.11088219 0.2794357 -0.29519156 -0.4358195 0.46080562
assistant 0.0650509 -0.122436166 -0.08286953 0.10575908 0.08684838 0.07570782 0.006269739 0.09183009 0.18255128 -0.05687199 0.1813596 0.096427016 0.024096983 -0.106375754 -0.12759101 -0.046469055 0.034252036 -0.036334224 -0.079287946 0.12826754 -0.06941369 -0.1705429 0.106747776 0.09298984 -0.08758218 -0.0010015105 -0.09656796 -0.089863665 0.09760831 -0.0742452 0.03316736 -0.09322169 0.014940592 0.10728216 0.034719143
gpa 0.7709967 -0.06871629 -0.4821006 -0.50701135 0.60903066 0.118394695 -0.1793034 0.4881777 0.40237853 0.36552164 0.6286918 0.75881284 -0.5074968 0.405794 -0.3963083 0.66933656 0.18738535 -0.45526114 0.13780686 0.72759527 -0.0899498 -0.6358275 0.23235933 0.6824396 -0.73125404 0.1371095 -0.13999698 0.15948549 -0.12050981 -0.31586307 0.53693604 -0.2164269 -0.6142121 0.5020658 0.09873763
3340 0.08689918 -0.5781755 -0.67515016 -0.2037968 0.75737864 0.6391172 -0.29263228 0.4869598 0.4664092 -0.17249027 0.82747364 0.55823743 -0.4976837 0.34199655 -0.7076458 -0.08833644 0.42367294 -0.031047463 -0.22641683 0.97502166 -0.37328666 -0.6368846 0.44675627 0.7408838 -0.5404583 0.732137 -0.44532925 -0.48853248 0.42306143 -0.49315435 -0.2559203 -0.7154431 0.38987312 0.64820325 -0.34656838
university 0.16770591 -0.34903747 -0.24594165 -0.0049313046 0.29677138 0.29011452 -0.10328342 0.2533423 0.3122628 -0.14614968 0.42285064 0.2049117 -0.0622472 -0.17001256 -0.32772937 0.21328792 0.12399449 -0.09702498 0.21157709 0.44631505 -0.3097647 -0.6209874 0.117883526 0.2219575 -0.18980442 0.13270909 -0.17699412 -0.49182168 0.12573792 -0.2005157 0.35210294 -0.03893307 -0.16182616 0.17747888 -0.026488964
java 0.16238895 -0.35794488 -0.56075186 -0.097241476 0.5549073 0.37202686 -0.50381243 0.49735975 -0.32896605 0.039413072 0.24397032 0.32898453 -0.4501447 0.041567147 -0.18149616 0.1295557 0.7791053 -0.3050043 0.03209357 0.39465588 -0.32077533 0.044305414 -0.19299531 0.44775656 -0.37132773 0.11750851 0.25321794 -0.7000438 0.38754913 -0.61365044 0.28885108 0.52416885 -0.016136887 0.6279946 -0.11020383
python 0.41373506 -0.18833393 -0.7210516 -0.33784527 0.49828535 0.32546508 -0.61464375 0.37717813 0.41778702 0.2727581 0.5489549 0.5232475 -0.39285102 0.3426436 -0.5599907 0.16774368 0.10182485 -0.28655857 0.062384695 0.83895624 -0.40825263 -0.46797508 0.4069921 0.50396246 -0.5137386 0.40563735 -0.3039256 -0.034839507 0.22265759 -0.3965436 0.15651372 -0.26696348 -0.20846413 0.44195795 0.022940394
managing 0.13763747 -0.28866324 -0.6127626 -0.22227079 0.6693111 0.27242887 -0.14632554 0.20572332 0.5108766 0.39686644 0.5097197 0.61406225 -0.5991456 0.23725688 -0.11689848 -0.13771485 0.14511271 -0.065897085 -0.2618865 0.46435216 0.061116144 -0.6504894 0.24286632 0.5034295 -0.58920515 0.33624604 -0.6111995 0.0093328655 0.23234798 -0.18218774 0.48312944 -0.39281735 -0.15229113 0.27790105 0.05768165
books -0.3187203 0.24709138 0.054336235 0.25328064 -0.19424115 -0.20476311 0.24455625 -0.28546295 -0.034617435 -0.2795172 -0.28542066 -0.2374745 0.21919309 -0.21704862 0.26698762 0.31226194 -0.1945717 0.18498957 0.31593227 -0.29225507 0.11563352 -0.0354874 0.17140253 -0.27184296 0.2314648 -0.23903704 -0.07313685 -0.21207514 -0.27284628 0.18956414 0.057277087 -0.029608363 -0.352304 -0.33024338 0.16291441
java 0.16238895 -0.35794488 -0.56075186 -0.097241476 0.5549073 0.37202686 -0.50381243 0.49735975 -0.32896605 0.039413072 0.24397032 0.32898453 -0.4501447 0.041567147 -0.18149616 0.1295557 0.7791053 -0.3050043 0.03209357 0.39465588 -0.32077533 0.044305414 -0.19299531 0.44775656 -0.37132773 0.11750851 0.25321794 -0.7000438 0.38754913 -0.61365044 0.28885108 0.52416885 -0.016136887 0.6279946 -0.11020383
python 0.41373506 -0.18833393 -0.7210516 -0.33784527 0.49828535 0.32546508 -0.61464375 0.37717813 0.41778702 0.2727581 0.5489549 0.5232475 -0.39285102 0.3426436 -0.5599907 0.16774368 0.10182485 -0.28655857 0.062384695 0.83895624 -0.40825263 -0.46797508 0.4069921 0.50396246 -0.5137386 0.40563735 -0.3039256 -0.034839507 0.22265759 -0.3965436 0.15651372 -0.26696348 -0.20846413 0.44195795 0.022940394
workshops 0.34680015 -0.010819634 -0.2869063 -0.24993324 0.35640177 0.21790501 0.05816291 0.25705916 0.202062 0.15087692 0.31880704 0.44762436 -0.3089301 0.13609996 -0.23051079 0.37495852 0.05630648 -0.224316 0.2034827 0.4984198 -0.07833516 -0.36181185 0.23666416 0.37326843 -0.40424487 0.02449034 -0.14730383 0.030614367 -0.18326637 -0.090604156 0.28682122 -0.088101886 -0.33045503 0.28266713 0.25100407
professional -0.54000497 -0.06274595 0.11412795 0.1919147 -0.32681286 -0.29400718 0.4715691 -0.28583464 0.45041162 0.0783826 -0.19457099 -0.27816695 -0.065240175 0.092303075 0.62019825 0.13507222 0.004008347 0.66551805 -0.36055368 -0.11471093 0.3428608 -0.42048746 0.42055923 -0.08246478 0.030430507 0.01627766 -0.5347305 0.40729526 0.1858809 0.29157865 0.5775892 -0.2803955 -0.29420128 -0.11337059 0.55689275
engineers 0.30385926 -0.4921901 -0.11814675 -0.23545685 0.35963187 0.28718376 -0.13419704 0.25477326 0.14182337 0.06120872 0.48989397 0.30014712 -0.10209058 0.0717329 -0.3142036 0.48607942 0.058335885 -0.11415397 0.3810497 0.44885206 -0.28292364 -0.60052603 0.087426044 0.22194636 -0.19187464 0.10051328 -0.075456 -0.032752585 0.04593239 -0.10776448 0.7254907 -0.061630346 -0.535783 0.108458206 -0.09331265
presentations 0.40467548 -0.41604465 -0.31637138 -0.33487836 0.41518703 0.347915 -0.16028725 0.42576462 0.42717052 0.17982928 0.40477625 0.44724548 -0.41939306 0.23710339 -0.3515181 0.5204946 0.3111592 -0.35104677 0.46044892 0.4776479 -0.38609448 -0.4717509 0.5754158 0.46080214 -0.44258744 0.20678505 -0.48849323 0.063345425 -0.3845311 -0.32752118 0.47186506 0.19919533 -0.5562741 0.3845181 0.48105454
computers 0.5234411 -0.36762926 -0.4155027 -0.37730062 0.47144103 0.32539043 -0.17846423 0.46406388 0.4635212 0.3020633 0.500835 0.55005956 -0.39367315 0.26253143 -0.39755222 0.5425673 0.19585139 -0.40350202 0.5802393 0.613098 -0.40512884 -0.5204604 0.6256066 0.48667356 -0.5448306 0.26088133 -0.60303754 0.18745588 -0.41865787 -0.3101726 0.5062384 -0.002374111 -0.53022325 0.46124035 0.5974342
manufacturing 0.50257146 -0.3878753 -0.6084872 -0.70785135 0.59871924 0.45233503 -0.23486492 0.55738837 0.40716365 0.42247382 0.6284593 0.36307666 -0.6285409 0.58590347 0.210251 0.33599862 0.06026292 0.012765437 -0.3229794 0.51206464 0.41042414 -0.44913834 0.48031476 0.55607736 -0.52009547 0.3624607 -0.5762289 0.21101765 0.43278942 0.2518434 0.48627472 -0.5973561 -0.4651762 0.5500147 0.40392113
webbased 0.54133075 -0.36060765 -0.4094825 -0.37984988 0.5212764 0.29183054 -0.16774088 0.41490534 0.34837884 0.2853028 0.51964515 0.604091 -0.32274336 0.21551602 -0.3139646 0.6121839 0.2537859 -0.34550214 0.5598571 0.65613204 -0.30325782 -0.7247422 0.1905347 0.46704638 -0.48503897 0.17575113 0.003362692 0.15311842 -0.062312026 -0.320257 0.66969204 0.12439903 -0.75446415 0.38054442 0.12916157
software -0.46852908 -0.26803067 -0.111039534 0.8486582 -0.14386514 -0.1817537 0.47588152 0.20924942 0.23883724 -0.4830211 0.34985253 -0.21984996 0.007831008 -0.72225016 -0.19006023 -0.70421576 0.013147182 0.34556776 -0.4288286 0.07016918 0.051847603 -0.15987751 0.17800939 0.100092076 0.3481474 0.42779973 -0.40342557 -0.3450225 0.5366597 0.18946443 -0.0016476386 -0.2988316 0.0608094 0.21217406 -0.30146208
c++ 0.24121064 -0.0034453752 0.28774494 -0.12856051 -0.040945157 -0.05125809 -0.025498 -0.19397874 -0.16623288 -0.034172066 -0.074711025 0.034969997 0.17435922 0.29668707 0.2249278 0.21005206 -0.16155446 0.012960714 0.08552894 -0.07958641 -0.11977563 -0.014006859 -0.036984622 0.017247925 -0.24178421 -0.056178357 0.08383413 0.42537245 -0.040039502 0.24338457 0.03425082 0.14229678 -0.089637615 0.0015452944 -0.12469387
transferable -0.08713133 0.12223231 0.08416615 0.05769165 -0.12313338 -0.08014997 0.13699012 -0.17707905 0.20306058 -0.11648296 -0.20324475 -0.13200921 0.14238362 -0.12264387 0.17484902 -0.0996832 -0.11247972 0.14667971 0.0063914433 -0.13831463 0.11796079 -0.20254464 0.15142016 -0.20573293 0.1117519 -0.07173227 -0.15123539 0.45574224 -0.08962007 0.1551509 0.12201188 -0.17668487 0.08957701 -0.1472136 0.104985826
skills -0.001790547 -0.18435554 -0.27699745 -0.48573115 0.32700363 0.29547435 0.07856236 0.072813176 0.33454332 0.3981101 0.300107 0.38778448 -0.36329034 0.80304325 -0.22517896 0.3322554 0.19359264 0.09884542 -0.13865833 0.42286482 0.31028453 -0.21310493 0.23707095 0.33171195 -0.45747253 0.13604113 -0.07218367 0.20803148 0.16451754 -0.20543325 0.55399597 -0.21096478 0.048324794 0.3002195 0.13446032
c++ 0.24121064 -0.0034453752 0.28774494 -0.12856051 -0.040945157 -0.05125809 -0.025498 -0.19397874 -0.16623288 -0.034172066 -0.074711025 0.034969997 0.17435922 0.29668707 0.2249278 0.21005206 -0.16155446 0.012960714 0.08552894 -0.07958641 -0.11977563 -0.014006859 -0.036984622 0.017247925 -0.24178421 -0.056178357 0.08383413 0.42537245 -0.040039502 0.24338457 0.03425082 0.14229678 -0.089637615 0.0015452944 -0.12469387
human 0.16950661 -0.48350054 -0.7265827 -0.40333948 0.7360285 0.6239666 -0.12359317 0.5967541 0.42707616 0.041042857 0.78559124 0.6582891 -0.60598224 0.41234136 -0.8449063 -0.2389932 0.5357092 -0.035755582 -0.3800606 0.79242545 -0.33690533 -0.51973397 0.4659093 0.72526044 -0.5631846 0.65843236 -0.47228417 -0.51106876 0.42718405 -0.64662117 -0.30810884 -0.70152086 0.6592329 0.62672806 -0.338096
relations -0.11755134 0.103075266 0.1629694 0.08692969 -0.18425378 -0.27015913 0.22511518 -0.2020629 0.062362347 -0.13233717 -0.2015554 -0.19174793 0.1768852 -0.028969875 0.24550237 0.26577836 -0.1833331 0.1434128 0.1180456 -0.19396132 0.1609727 -0.14217108 0.14664972 -0.22012952 0.17047057 -0.11708042 -0.119459204 0.18889104 -0.12382525 0.24569915 0.06180327 -0.05336331 -0.09952235 -0.24970876 0.12974194
professional -0.54000497 -0.06274595 0.11412795 0.1919147 -0.32681286 -0.29400718 0.4715691 -0.28583464 0.45041162 0.0783826 -0.19457099 -0.27816695 -0.065240175 0.092303075 0.62019825 0.13507222 0.004008347 0.66551805 -0.36055368 -0.11471093 0.3428608 -0.42048746 0.42055923 -0.08246478 0.030430507 0.01627766 -0.5347305 0.40729526 0.1858809 0.29157865 0.5775892 -0.2803955 -0.29420128 -0.11337059 0.55689275
organizations 0.5020262 -0.20467171 -0.3982272 -0.30518544 0.3786098 0.1964205 -0.009349748 0.33596534 0.26421323 0.10396901 0.3158555 0.45225143 -0.26473626 0.22452973 -0.29082912 0.3101706 0.047735848 -0.34655318 0.264289 0.56434184 -0.19116579 -0.30789182 0.24500091 0.44562486 -0.49589634 -0.014150961 -0.12540355 -0.062174696 -0.16834813 -0.21191141 0.25237042 -0.18750119 -0.4827008 0.36261672 0.23426908
manufacturing 0.50257146 -0.3878753 -0.6084872 -0.70785135 0.59871924 0.45233503 -0.23486492 0.55738837 0.40716365 0.42247382 0.6284593 0.36307666 -0.6285409 0.58590347 0.210251 0.33599862 0.06026292 0.012765437 -0.3229794 0.51206464 0.41042414 -0.44913834 0.48031476 0.55607736 -0.52009547 0.3624607 -0.5762289 0.21101765 0.43278942 0.2518434 0.48627472 -0.5973561 -0.4651762 0.5500147 0.40392113
six 0.51622677 -0.5009642 -0.32034305 -0.4461127 0.5036341 0.64076847 -0.08356187 0.2893405 0.45498198 0.08977726 0.7429858 0.5803885 -0.56215566 0.36421236 -0.44462237 0.33881742 0.23484038 -0.18145707 -0.004265315 0.62180007 -0.119105406 -0.60632724 0.427587 0.47580004 -0.6213725 0.38966563 -0.3693367 -0.32058132 0.1592254 -0.28745538 0.27922297 -0.187673 -0.09729529 0.6084654 0.063336134
sigma -0.12727562 0.01449006 0.090961635 0.15813649 -0.1917478 -0.1291179 0.23288554 -0.15649457 0.19703671 -0.15323196 -0.15206006 -0.13201949 0.18405806 -0.17152391 0.17078458 0.12585099 -0.22188692 0.18336222 0.16471285 -0.19842315 0.07180108 -0.18311259 0.16006769 -0.18155092 0.22129184 -0.14367627 -0.22819267 -0.017710134 -0.12399741 0.17877479 0.15438142 -0.19448276 -0.0676288 -0.16884525 0.20771566
capability -0.22667223 0.3063846 0.34811965 0.12523876 -0.30275652 -0.32059795 0.34970286 -0.39666873 0.17068706 -0.30948678 -0.33493567 -0.25361347 0.25756192 -0.19348119 0.3523712 0.28301182 -0.3424165 0.3375275 0.17923862 -0.33026165 0.29197785 -0.2613779 0.3018203 -0.3681588 0.25240937 -0.24465182 -0.33577648 0.287069 -0.2918516 0.31177726 0.36408195 -0.2447571 -0.35245785 -0.37303844 0.30512473
studies -0.18163183 0.10968726 0.1742027 0.20390208 -0.22976215 -0.23255567 0.23926257 -0.24898182 0.18832561 -0.19864659 -0.31802934 -0.28331187 0.31116283 -0.19590102 0.28937545 0.2678356 -0.21220802 0.2062576 0.18510483 -0.23572284 0.08802467 -0.20679796 0.24655658 -0.2671655 0.2669347 -0.25390795 -0.17041236 0.18727252 -0.25277382 0.2894196 0.10062904 -0.17803003 -0.2103874 -0.30172336 0.2948186
assisting 0.39375594 -0.13235782 -0.62193376 -0.4221662 0.5015146 0.3072778 -0.043442655 0.33847624 0.25470224 0.07161164 0.4579746 0.464354 -0.46041375 0.499545 -0.48398495 0.15343668 0.15852265 -0.29255193 0.016970323 0.5425172 -0.32217246 -0.24578667 0.18384174 0.4773059 -0.5325392 0.51072466 -0.28122738 -0.07025469 -0.04988025 -0.34289718 0.093531 -0.26594016 -0.061469823 0.33394945 0.11833457
students 0.39836523 -0.35235927 -0.029323194 -0.13068503 0.51334953 0.39569464 -0.10923871 0.33963042 0.40231884 0.0032554516 0.22146422 0.38234836 -0.17473567 -0.24994135 -0.042680614 0.19843134 -0.1186127 -0.4407579 -0.2829941 0.5641122 0.05842618 -0.31671256 -0.01639674 0.34571987 -0.40948626 0.48983786 -0.22563118 0.45239303 0.0036499286 0.09295477 0.43371353 -0.33766115 -0.16419904 0.3247724 0.06919827
universal 0.85719544 -0.1671986 -0.8207651 -0.6883355 0.74921066 0.3772627 -0.13345511 0.6067804 0.80213547 0.5390453 0.7332969 0.9060072 -0.63549876 0.4943296 -0.599544 0.8481008 0.033625904 -0.5328469 0.6011446 1.1303918 -0.32998377 -0.807669 0.6426584 0.755433 -0.97273433 0.17906736 -0.44083056 0.20240234 -0.5594085 -0.32943854 0.74602807 -0.13349836 -0.84000105 0.57432395 0.5556626
nanoparticle 0.66430235 -0.17001237 -0.68428653 -0.58332497 0.6382444 0.47631177 -0.8800047 0.62401056 0.5204063 0.38212356 0.6792282 0.69213223 -0.59185445 0.48896942 -0.61857295 0.49803653 -0.077090956 -0.45338482 0.38248757 0.91101664 -0.59667706 -0.68814546 0.5071968 0.76184195 -0.72459716 0.26572722 -0.42569515 0.11176095 -0.17460723 -0.5229921 0.46017185 -0.5551009 -0.48552874 0.59950715 0.30137324
analyzer 0.3318345 -0.24485514 -0.5316145 -0.11907713 0.537155 0.22993605 -0.2507547 0.40205255 0.2927471 -0.1003276 0.5377388 0.46037227 -0.47381493 0.06841531 -0.48185673 0.036395065 0.2279231 -0.4850682 -0.25012478 0.51550066 -0.21707788 -0.49885896 -0.064115055 0.5476083 -0.24714115 0.5075146 -0.3360775 -0.1087004 0.20465942 -0.38494122 -0.0394583 -0.16561106 0.13647793 0.34760523 -0.26464415
teaching -0.06996515 0.17948264 0.1058376 0.03766265 -0.16582946 -0.16651504 0.25826982 -0.197405 0.22563608 -0.16062874 -0.12895918 -0.093654886 0.15051958 -0.13404869 0.19615614 0.11816167 -0.15754695 0.1894802 0.120870404 -0.14339994 0.1292213 -0.21960571 0.19811071 -0.23334515 0.08440674 -0.15055321 -0.22785039 0.2547982 -0.19769819 0.21450503 0.22426891 -0.27027854 -0.18366723 -0.16765925 0.24032976
c++ 0.24121064 -0.0034453752 0.28774494 -0.12856051 -0.040945157 -0.05125809 -0.025498 -0.19397874 -0.16623288 -0.034172066 -0.074711025 0.034969997 0.17435922 0.29668707 0.2249278 0.21005206 -0.16155446 0.012960714 0.08552894 -0.07958641 -0.11977563 -0.014006859 -0.036984622 0.017247925 -0.24178421 -0.056178357 0.08383413 0.42537245 -0.040039502 0.24338457 0.03425082 0.14229678 -0.089637615 0.0015452944 -0.12469387
industry -0.011285512 -0.31781435 -0.37375647 0.0438304 0.2832371 0.27094945 -0.19030485 0.26180896 0.37896082 -0.05023739 0.26936367 0.18048233 -0.26841173 -0.18755703 -0.2925965 -0.05365245 0.08888987 -0.24754252 -0.044283506 0.31234 -0.3040257 -0.45042586 -0.049287703 0.35936394 -0.059245564 0.21046999 -0.005201012 -0.09277027 0.0740217 -0.2012703 -0.06820288 -0.1988618 0.10564595 0.22631401 -0.17951612
systematic 0.44654492 -0.2579752 -0.29302117 -0.40341765 0.30309662 0.21829069 -0.024194717 0.06991785 -0.16062121 0.14232336 0.28701344 0.32517126 -0.18448137 0.3620026 -0.08157808 0.56038475 0.060226757 -0.1937428 0.18860449 0.28754035 -0.22969344 -0.005176962 -0.05589631 0.12427806 -0.30229083 0.1233773 0.13530396 0.40239382 -0.1691385 -0.010739723 0.29956228 0.22162434 -0.37148556 0.09551102 0.007796918
measurement 0.44440955 -0.2431882 -0.14480445 -0.3760099 0.21125661 0.114933304 0.058913365 0.036456157 -0.08418843 0.056547746 0.29406068 0.27978122 -0.09229897 0.32825586 -0.021823905 0.366137 -0.027127098 -0.09875726 0.15190889 0.20392331 -0.06022347 -0.109265715 0.046926733 0.068439506 -0.2565708 0.058089 0.014937453 0.15736851 -0.13816284 -0.0030395638 0.228956 0.20177653 -0.22836988 0.0114352545 0.08749082
strengths 0.020117568 0.040128905 0.3243351 0.08626703 -0.06496656 -0.10334408 -0.10916106 -0.020474939 -0.44553176 -0.269582 -0.11863918 -0.036979374 0.052929427 -0.29582068 0.11056769 -0.14432123 -0.0028341888 0.04537109 -0.17313285 -0.019627502 0.0653789 0.13157548 -0.36266592 0.033690188 0.0570398 -0.2675954 0.36963192 -0.81058544 0.37181833 0.13398725 -0.25773406 -0.16609377 -0.035818905 -0.072013654 -0.37871563
mechanical -0.014896883 -0.07591198 0.05003254 -0.15857254 0.015595199 0.12024693 0.08039778 -0.12224525 0.095302925 -0.13752817 0.15566452 0.040180933 -0.036419753 0.08479972 -0.10805709 -0.06183034 0.09718673 -0.060521685 0.08015239 0.030820014 -0.039363835 0.10315404 0.07666761 -0.06264773 0.1106625 -0.06271447 0.06026677 0.16477607 -0.09119008 -0.048000567 -0.011173377 -0.050922714 -0.026041275 -0.0033920829 -0.071672894
design 0.3993107 -0.1930894 -0.29885092 -0.23866953 0.33261478 0.19534259 -0.091435924 0.30168298 0.1422959 0.06770648 0.28473553 0.35944352 -0.34936965 0.1928867 -0.32509547 0.26571578 0.1146842 -0.2939199 0.15411156 0.43691322 -0.21155602 -0.25691327 0.12061851 0.38991272 -0.37996244 0.15758334 -0.047956105 -0.14731415 0.048346277 -0.2472302 0.20550478 0.040907886 -0.40205976 0.34104243 0.13690479
identifying 0.29041478 -0.07068073 -0.34002647 -0.14373104 0.30540004 -0.01218762 -0.15883557 0.40442094 0.3052318 0.026473133 0.20350565 0.3291981 -0.29198477 0.026251996 -0.13615926 0.28865784 0.12421798 -0.30543694 0.068547264 0.388062 -0.1232559 -0.14615895 0.08772763 0.34086764 -0.35879308 0.13314193 -0.070110835 0.056263745 -0.10211485 -0.36755112 0.35293466 -0.1148215 -0.275318 0.27827838 0.11770253
resources -0.49743962 0.417893 0.1069491 0.679872 -0.42715165 -0.32442912 0.24211432 -0.23783042 0.3084491 -0.42741966 -0.20981722 -0.5263861 0.39772674 -0.51942563 0.030992033 -0.056674067 -0.39546755 0.14014268 0.16772749 -0.3604359 0.12453733 -0.15269838 0.19600837 -0.35364658 0.560266 -0.37566188 -0.250712 0.10668359 -0.18713367 0.27944362 -0.02544499 -0.2931831 0.1637306 -0.3385 0.26980162
attention 0.5464503 -0.33383274 -0.50811744 -0.45372236 0.5495416 0.39996514 -0.10731384 0.4981202 0.5971848 0.34391162 0.49620688 0.6032852 -0.42472386 0.32244763 -0.4409708 0.53204876 0.209124 -0.3919189 0.64658314 0.6933994 -0.37507504 -0.62070495 0.6407115 0.56959593 -0.5403476 0.21560925 -0.5355412 0.2227286 -0.5219353 -0.36096463 0.5979928 -0.1611945 -0.69231355 0.5096771 0.6221032
master 0.3470045 -0.28513837 -0.47791532 -0.15304032 0.49338925 0.23351108 -0.5290886 0.39178094 0.09542182 0.2539196 0.42436904 0.51027197 -0.383856 0.12664172 -0.3958757 -0.1145262 0.27179125 -0.32833624 0.23128244 0.44166833 -0.39636412 -0.14112741 -0.07263992 0.50897264 -0.43851367 0.30909765 0.22168699 -0.30680293 0.38999158 -0.31621757 -0.061748035 0.0007242658 -0.00736173 0.38585365 -0.31363055
java 0.16238895 -0.35794488 -0.56075186 -0.097241476 0.5549073 0.37202686 -0.50381243 0.49735975 -0.32896605 0.039413072 0.24397032 0.32898453 -0.4501447 0.041567147 -0.18149616 0.1295557 0.7791053 -0.3050043 0.03209357 0.39465588 -0.32077533 0.044305414 -0.19299531 0.44775656 -0.37132773 0.11750851 0.25321794 -0.7000438 0.38754913 -0.61365044 0.28885108 0.52416885 -0.016136887 0.6279946 -0.11020383
python 0.41373506 -0.18833393 -0.7210516 -0.33784527 0.49828535 0.32546508 -0.61464375 0.37717813 0.41778702 0.2727581 0.5489549 0.5232475 -0.39285102 0.3426436 -0.5599907 0.16774368 0.10182485 -0.28655857 0.062384695 0.83895624 -0.40825263 -0.46797508 0.4069921 0.50396246 -0.5137386 0.40563735 -0.3039256 -0.034839507 0.22265759 -0.3965436 0.15651372 -0.26696348 -0.20846413 0.44195795 0.022940394
knowledge -0.10524052 0.018964943 0.10244112 0.1713965 -0.14058186 -0.07656932 0.32291216 -0.23368558 0.32767642 -0.24934033 -0.011846836 -0.10552347 0.26714507 -0.10789611 0.20045112 0.45729822 -0.1392641 0.22869897 0.46938297 -0.052782025 0.07974413 -0.37903193 0.29723144 -0.22807625 0.22432603 -0.22920696 -0.34474137 -0.011700292 -0.33137968 0.2664251 0.42005295 -0.18402326 -0.12345705 -0.21869564 0.24209797
arts 0.6938092 -0.3654954 -0.5199182 -0.58138144 0.6525432 0.46630704 -0.093971916 0.3710151 0.42296657 0.26007214 0.6684487 0.6426122 -0.4077299 0.47571525 -0.50381845 0.5962581 0.16933535 -0.3426507 0.37569526 0.7982584 -0.39781955 -0.494349 0.24168639 0.53341794 -0.59870523 0.14275856 -0.038686775 0.103344 -0.15205437 -0.2594483 0.6559152 0.04139046 -0.65077144 0.36630532 0.1278894
mechanical -0.014896883 -0.07591198 0.05003254 -0.15857254 0.015595199 0.12024693 0.08039778 -0.12224525 0.095302925 -0.13752817 0.15566452 0.040180933 -0.036419753 0.08479972 -0.10805709 -0.06183034 0.09718673 -0.060521685 0.08015239 0.030820014 -0.039363835 0.10315404 0.07666761 -0.06264773 0.1106625 -0.06271447 0.06026677 0.16477607 -0.09119008 -0.048000567 -0.011173377 -0.050922714 -0.026041275 -0.0033920829 -0.071672894
engineering -0.4745155 0.29638648 0.5007798 0.47370553 -0.5669652 -0.420019 0.5574427 -0.6345162 0.44218397 -0.51596767 -0.497449 -0.5833697 0.5300351 -0.5398211 0.015207003 -0.018940795 -0.53392345 0.538925 0.37716544 -0.5114492 0.29472476 -0.45703104 0.49866018 -0.54444814 0.5486242 -0.3758184 -0.5206481 0.19310503 -0.35320035 0.623694 -0.1599389 -0.5335219 -0.5811931 -0.5340469 0.5830607
airborne -0.12172701 -0.049102943 -0.32144713 0.06926462 0.22778542 0.07358648 -0.20221753 0.19133382 0.16277249 -0.09269998 0.26139393 0.04080131 -0.08177776 -0.05389389 -0.30214417 -0.24724941 0.20057157 -0.17309558 -0.21818046 0.18824202 -0.22887008 0.02607197 -0.029239906 0.22386566 0.045342907 0.18385996 0.22303647 -0.1820285 0.09185204 -0.18014601 -0.18819991 -0.25434974 0.11594505 0.1773035 -0.22254767
nanoparticle 0.66430235 -0.17001237 -0.68428653 -0.58332497 0.6382444 0.47631177 -0.8800047 0.62401056 0.5204063 0.38212356 0.6792282 0.69213223 -0.59185445 0.48896942 -0.61857295 0.49803653 -0.077090956 -0.45338482 0.38248757 0.91101664 -0.59667706 -0.68814546 0.5071968 0.76184195 -0.72459716 0.26572722 -0.42569515 0.11176095 -0.17460723 -0.5229921 0.46017185 -0.5551009 -0.48552874 0.59950715 0.30137324
anical -0.7778874 0.4922519 0.66118747 0.7763281 -0.71385014 -0.8003797 0.719308 -0.77317196 0.7514829 -0.736666 -0.38882557 -0.77899814 0.8449576 -0.7880086 0.6394275 0.52103174 -0.8215935 0.7159401 0.47736427 -0.68841636 0.5098806 -0.75694907 0.6814299 -0.8336437 0.7476219 -0.6811013 -0.77682656 0.5179006 -0.68517905 0.7661482 0.5670649 -0.8688349 -0.45587733 -0.7344157 0.7082719
michael 0.07895391 -0.088557675 -0.38705495 -0.09546099 0.4440217 0.12045022 -0.4879571 0.34104535 -0.07571279 -0.0076738964 0.26486403 0.2521722 -0.26637295 0.24006818 -0.53334177 -0.4640735 0.35878837 -0.4952626 -0.28811228 0.3173758 -0.46046743 0.54516435 -0.4440893 0.31227702 -0.1399565 0.38916102 0.58197916 -0.4380563 0.20583008 -0.50182647 -0.55337316 -0.1350721 0.58020794 0.22810265 -0.5781574
john -0.24427466 0.1439274 0.20491588 0.24979034 -0.24888696 -0.19139789 0.309728 -0.2541669 0.34541667 -0.19920892 -0.22208826 -0.20414054 0.3335688 -0.2278964 0.2042514 0.10799322 -0.2401979 0.3001141 0.21716572 -0.23623103 0.11254663 -0.26527765 0.2803446 -0.31398144 0.2744987 -0.22214241 -0.3373234 0.006914113 -0.24322127 0.2663939 0.27862883 -0.27351794 -0.19969429 -0.27124652 0.22432439
author 0.49491194 -0.9371763 -0.7799977 -0.32451865 0.9474157 0.91707206 -0.40269315 0.9561757 1.0132736 0.34047285 1.0304753 0.73785603 -0.6987317 -0.104715504 -1.035583 -0.31791678 0.26586255 -0.44303274 -0.6704645 1.0885559 -0.39565882 -1.0323247 0.17747697 1.0294255 -0.6021503 0.94519246 -0.63476783 0.1916461 0.044650786 -0.47722358 0.29923755 -0.5463651 0.31810203 0.92021245 -0.3001003
anne -0.05990129 -0.0333059 0.24226728 0.043419305 -0.2540417 -0.23958947 0.28219575 -0.32729378 -0.024678782 -0.14126302 -0.35319948 -0.19089174 0.21052302 -0.08673997 0.26396567 0.2371288 -0.2467722 0.23755662 0.20928414 -0.28738052 0.1874853 -0.095701605 0.13892391 -0.20129274 0.13773099 -0.16710193 -0.16274497 0.09718765 -0.22588424 0.3141339 0.15831783 0.15090716 -0.31354284 -0.34117433 0.272139
gineer -0.23146038 0.016294736 0.06176436 0.03573995 -0.19221005 -0.19085805 0.12408891 -0.1407011 -0.27249214 -0.09203105 0.040373586 -0.15295969 0.19125211 0.15402041 -0.014236622 -0.14350209 0.13964078 -0.194693 0.0017265673 -0.24736585 -0.25336498 0.2897485 -0.22056656 -0.0049074166 0.25368476 -0.09374274 0.074655116 -0.09920734 0.080340624 -0.17893584 -0.25372607 0.1949797 0.3247411 -0.27257714 -0.2433107
journal 0.68990016 -0.55833447 -0.8992062 -0.5612258 0.8987324 0.59177846 -0.19347978 0.5596827 0.7764142 0.5150449 1.005336 0.9099463 -0.73374146 0.7489659 -0.79646087 0.07133436 0.29513317 -0.2440669 -0.324331 1.1732389 -0.26046565 -0.8270776 0.51488113 0.9220935 -1.0294056 0.62700516 -0.55719244 -0.19820337 0.39691046 -0.5054579 0.111796774 -0.83748657 0.24357451 0.76355326 -0.09324141
article -0.31308237 0.32748377 0.2629932 0.38589564 -0.351898 -0.33108154 0.28412852 -0.30970675 0.42555174 -0.36933103 -0.23638317 -0.30280873 0.39441055 -0.3585553 0.2731319 0.09043166 -0.30730549 0.31198633 -0.017826956 -0.21206674 0.2773857 -0.3693624 0.35026884 -0.28587475 0.32449192 -0.20598868 -0.42862928 0.4965063 -0.29032922 0.2819643 0.20646535 -0.4004587 -0.095291615 -0.27958548 0.27871257
title 0.41067898 -0.62523264 -0.20956497 -0.49272412 0.89365786 0.5522994 -0.3964673 0.7268153 0.6672406 -0.15778783 0.8727005 0.71061134 -0.6803695 0.07465596 -0.72454166 0.05838021 0.1119195 -0.5635328 -0.37568516 0.6953547 -0.14481565 -0.12354153 0.06525147 0.7867186 -0.5152189 0.36048 -0.29483145 0.30018067 0.20532005 -0.5661129 0.46019912 -0.75604486 0.15289706 0.5490721 -0.39455655
international 0.82081306 0.09954238 -0.5052403 -0.3724362 0.52327746 0.5529973 -0.43973234 0.66334057 0.33094877 0.043875825 0.6091165 0.8060321 -0.24286461 0.21015875 -0.57942605 0.3292444 0.043284602 -0.4689324 0.33796862 0.9610196 -0.5338057 -0.549405 0.22167723 0.71498287 -0.86118585 0.09330237 -0.06305541 -0.1095675 -0.25879526 -0.30459237 0.24343349 -0.16690825 -0.26555893 0.6287189 0.08778297
journal 0.68990016 -0.55833447 -0.8992062 -0.5612258 0.8987324 0.59177846 -0.19347978 0.5596827 0.7764142 0.5150449 1.005336 0.9099463 -0.73374146 0.7489659 -0.79646087 0.07133436 0.29513317 -0.2440669 -0.324331 1.1732389 -0.26046565 -0.8270776 0.51488113 0.9220935 -1.0294056 0.62700516 -0.55719244 -0.19820337 0.39691046 -0.5054579 0.111796774 -0.83748657 0.24357451 0.76355326 -0.09324141
mechanical -0.014896883 -0.07591198 0.05003254 -0.15857254 0.015595199 0.12024693 0.08039778 -0.12224525 0.095302925 -0.13752817 0.15566452 0.040180933 -0.036419753 0.08479972 -0.10805709 -0.06183034 0.09718673 -0.060521685 0.08015239 0.030820014 -0.039363835 0.10315404 0.07666761 -0.06264773 0.1106625 -0.06271447 0.06026677 0.16477607 -0.09119008 -0.048000567 -0.011173377 -0.050922714 -0.026041275 -0.0033920829 -0.071672894
engineers 0.30385926 -0.4921901 -0.11814675 -0.23545685 0.35963187 0.28718376 -0.13419704 0.25477326 0.14182337 0.06120872 0.48989397 0.30014712 -0.10209058 0.0717329 -0.3142036 0.48607942 0.058335885 -0.11415397 0.3810497 0.44885206 -0.28292364 -0.60052603 0.087426044 0.22194636 -0.19187464 0.10051328 -0.075456 -0.032752585 0.04593239 -0.10776448 0.7254907 -0.061630346 -0.535783 0.108458206 -0.09331265
cv -0.61889315 0.02818699 0.40827036 0.46085727 -0.17317533 0.031608973 0.15704802 -0.12803522 -0.45546198 -0.36122224 -0.12600777 -0.37872317 0.2248175 -0.39554262 -0.0012577889 -0.8546287 0.019083831 0.24513067 -0.36213204 -0.25352743 -0.0051186793 0.42735645 0.12775502 -0.24530871 0.5026064 -0.20273851 -0.1222367 -0.43360737 0.0092436075 0.088146456 -0.59428346 -0.005067414 0.30913323 -0.11877513 0.0563698
writing 0.527517 -0.14464976 -0.8887142 -0.44092306 0.43895608 0.29246742 -0.56976146 0.51030695 0.71153533 0.39794675 0.45712364 0.5370819 -0.5212564 0.3666149 -0.5695315 0.32922336 0.21624283 -0.39343047 0.17630967 0.92970353 -0.48855382 -0.45354092 0.29353267 0.6447742 -0.60101885 0.41611367 -0.08629774 0.043929256 -0.11127876 -0.4276529 0.27804908 -0.087481625 -0.32048687 0.40090987 0.08990267
java 0.16238895 -0.35794488 -0.56075186 -0.097241476 0.5549073 0.37202686 -0.50381243 0.49735975 -0.32896605 0.039413072 0.24397032 0.32898453 -0.4501447 0.041567147 -0.18149616 0.1295557 0.7791053 -0.3050043 0.03209357 0.39465588 -0.32077533 0.044305414 -0.19299531 0.44775656 -0.37132773 0.11750851 0.25321794 -0.7000438 0.38754913 -0.61365044 0.28885108 0.52416885 -0.016136887 0.6279946 -0.11020383
python 0.41373506 -0.18833393 -0.7210516 -0.33784527 0.49828535 0.32546508 -0.61464375 0.37717813 0.41778702 0.2727581 0.5489549 0.5232475 -0.39285102 0.3426436 -0.5599907 0.16774368 0.10182485 -0.28655857 0.062384695 0.83895624 -0.40825263 -0.46797508 0.4069921 0.50396246 -0.5137386 0.40563735 -0.3039256 -0.034839507 0.22265759 -0.3965436 0.15651372 -0.26696348 -0.20846413 0.44195795 0.022940394
conduct -0.028331244 0.15180618 0.05802369 -0.021650065 -0.13130273 -0.13322113 0.05311126 -0.13331315 0.123511404 -0.015267411 -0.10322146 -0.06570029 0.105955444 0.03731219 0.17511702 0.12235042 -0.13251188 0.10430013 0.030456025 -0.015366347 0.08433107 -0.17395613 0.097777866 -0.0646415 0.06459269 -0.019752339 -0.094660476 0.34739003 -0.14950255 0.17356458 0.1583241 -0.1926331 -0.084883 -0.08762567 0.02509761
numerical 0.4111842 -0.015447836 -0.37511423 -0.36472163 0.3592313 0.22073282 -0.02226793 0.23316069 0.29650527 0.087063424 0.39821276 0.5056797 -0.2985732 0.26474035 -0.2725264 0.1885513 0.07548306 -0.1597878 0.09805084 0.61214757 -0.17314051 -0.3793257 0.21999817 0.4291555 -0.42699078 0.123084374 -0.23984876 0.009642494 -0.11254246 -0.14712101 0.24808164 -0.29240805 -0.23874111 0.2569456 0.13417494
study -0.13614786 0.024203656 -0.04175593 0.25711924 -0.018023528 -0.10787129 -0.32596672 0.026429838 -0.31058735 -0.2170582 0.03931384 -0.06822028 -0.0007103145 -0.31481618 0.010729387 -0.043255914 -0.120375656 0.18091245 -0.15147503 -0.027884224 0.21771 0.0956939 0.056020793 0.023796258 -0.04331395 -0.039129246 -0.0025109835 -0.43362296 0.31943804 0.04233168 -0.06778937 -0.09899785 0.2695355 0.011887332 -0.048400246
managing 0.13763747 -0.28866324 -0.6127626 -0.22227079 0.6693111 0.27242887 -0.14632554 0.20572332 0.5108766 0.39686644 0.5097197 0.61406225 -0.5991456 0.23725688 -0.11689848 -0.13771485 0.14511271 -0.065897085 -0.2618865 0.46435216 0.061116144 -0.6504894 0.24286632 0.5034295 -0.58920515 0.33624604 -0.6111995 0.0093328655 0.23234798 -0.18218774 0.48312944 -0.39281735 -0.15229113 0.27790105 0.05768165
conflict 0.43764085 -0.38320717 -0.32020277 0.009738489 0.40577927 0.30008718 -0.27974764 0.30551592 -0.44116345 0.11585695 0.21090926 0.3932628 -0.314669 -0.112841606 -0.33195788 -0.3221898 0.2059913 -0.31131694 -0.16548531 0.29056737 -0.5399429 0.19828115 -0.15134358 0.39006707 -0.18582173 0.29063198 0.21424475 -0.58331144 0.24929318 -0.15737599 -0.46700248 0.3223475 -0.13030022 0.14819907 -0.14291546
meeting -0.22619964 -0.13345383 0.016507985 0.23851296 -0.0056494973 0.025954025 -0.03511911 0.053107914 0.20499389 -0.10243896 0.067904636 -0.12407568 0.08526996 -0.2698615 -0.13785714 -0.2612975 0.034372274 0.03308941 -0.11620564 0.1048561 -0.08972875 -0.07235578 -0.10134214 -0.008480787 0.12607549 0.005657632 -0.03137684 0.03650811 0.071211964 -0.039769795 -0.18986152 -0.09788187 0.20722303 -0.0035713005 -0.07926893
goals -0.13702202 0.19154896 0.24272029 -0.0340915 -0.19303611 -0.10127004 0.10517176 -0.24184942 0.035548337 -0.31336075 -0.20966691 -0.024409186 0.10948756 -0.2608667 0.04665219 0.19427119 -0.24646553 0.13028803 0.22310925 -0.2691681 0.15438893 -0.21503852 0.07748172 -0.22111678 0.27573484 -0.26358896 -0.051785942 0.28035685 -0.28931457 0.11929519 0.0069760345 -0.17257929 -0.09120412 -0.24158373 0.2180094
additional 0.26352528 -0.15726785 -0.30749777 -0.22058116 0.27972758 0.13238308 -0.17195585 0.3591162 0.3707274 -0.064074144 0.42801592 0.35441366 -0.32511628 0.014136696 -0.29609272 0.13587837 0.22942945 -0.30003846 -0.04173651 0.41377395 -0.18800612 -0.3932456 0.093610756 0.37493455 -0.31075564 0.3437482 -0.0916999 -0.023970958 0.018014356 -0.330848 0.35892174 -0.17121662 -0.3372677 0.4053905 -0.045702126
skills -0.001790547 -0.18435554 -0.27699745 -0.48573115 0.32700363 0.29547435 0.07856236 0.072813176 0.33454332 0.3981101 0.300107 0.38778448 -0.36329034 0.80304325 -0.22517896 0.3322554 0.19359264 0.09884542 -0.13865833 0.42286482 0.31028453 -0.21310493 0.23707095 0.33171195 -0.45747253 0.13604113 -0.07218367 0.20803148 0.16451754 -0.20543325 0.55399597 -0.21096478 0.048324794 0.3002195 0.13446032
coaching 0.5219553 -0.46192864 -0.31415334 -0.4339532 0.5481966 0.51676106 -0.20500454 0.4161783 0.2754181 0.040650614 0.6423544 0.5816568 -0.5949549 0.36784583 -0.49604613 0.30084002 0.3627455 -0.39370856 0.059334107 0.5292822 -0.23671252 -0.530636 0.3047028 0.5636304 -0.5941627 0.42940867 -0.3381617 -0.21365824 0.011098549 -0.4501999 0.23061368 -0.029136512 -0.12310692 0.5685989 -0.044319265
additional 0.26352528 -0.15726785 -0.30749777 -0.22058116 0.27972758 0.13238308 -0.17195585 0.3591162 0.3707274 -0.064074144 0.42801592 0.35441366 -0.32511628 0.014136696 -0.29609272 0.13587837 0.22942945 -0.30003846 -0.04173651 0.41377395 -0.18800612 -0.3932456 0.093610756 0.37493455 -0.31075564 0.3437482 -0.0916999 -0.023970958 0.018014356 -0.330848 0.35892174 -0.17121662 -0.3372677 0.4053905 -0.045702126
outside 0.12330559 -0.09548752 -0.34178996 -0.21477671 0.12626544 0.25126073 -0.076301105 0.12631267 0.098390654 0.12106018 0.23736857 0.27098292 -0.14514826 0.14188556 -0.08602316 0.09830044 0.110369496 -0.14078347 -0.18945743 0.35283008 -0.00482503 0.007902099 -0.09696942 0.213147 -0.1196018 0.099202976 0.069739394 0.07085009 0.07891141 -0.122350164 0.19941577 0.080869384 -0.13034247 0.09386837 -0.051488906
nursing 0.12808768 -0.000317192 -0.291452 -0.121324845 0.16566455 0.04148593 -0.24554002 0.29631197 0.22012888 -0.03837 0.14180024 0.2966615 -0.3540178 0.08424206 -0.17729571 -0.05662347 0.1452678 -0.41275063 -0.045575723 0.16741687 -0.10923927 0.5385021 -0.24914715 0.1420404 -0.080896124 0.21619192 0.3681715 0.044931326 0.09822144 -0.1418768 -0.0023085838 -0.078058794 0.14502847 0.2227435 -0.26102856
experience 0.022212747 -0.0045693405 -0.0002523288 -0.014152013 -0.047384966 0.039530937 -0.045702934 0.020656075 -0.022030747 -0.010176133 0.031232622 -0.0047122836 -0.023452295 -0.002027057 -0.024228275 -0.025993371 0.035223972 -0.011961363 0.017410431 0.02361459 0.025264923 0.0037368424 -0.019532014 0.04051454 0.032274317 -0.0010486357 -0.011299301 -4.2401254e-05 0.034271386 0.046576943 0.04127899 -0.015514351 0.0013193116 -0.02707888 0.029235851
java 0.16238895 -0.35794488 -0.56075186 -0.097241476 0.5549073 0.37202686 -0.50381243 0.49735975 -0.32896605 0.039413072 0.24397032 0.32898453 -0.4501447 0.041567147 -0.18149616 0.1295557 0.7791053 -0.3050043 0.03209357 0.39465588 -0.32077533 0.044305414 -0.19299531 0.44775656 -0.37132773 0.11750851 0.25321794 -0.7000438 0.38754913 -0.61365044 0.28885108 0.52416885 -0.016136887 0.6279946 -0.11020383
python 0.41373506 -0.18833393 -0.7210516 -0.33784527 0.49828535 0.32546508 -0.61464375 0.37717813 0.41778702 0.2727581 0.5489549 0.5232475 -0.39285102 0.3426436 -0.5599907 0.16774368 0.10182485 -0.28655857 0.062384695 0.83895624 -0.40825263 -0.46797508 0.4069921 0.50396246 -0.5137386 0.40563735 -0.3039256 -0.034839507 0.22265759 -0.3965436 0.15651372 -0.26696348 -0.20846413 0.44195795 0.022940394
work 0.5336928 -0.33625686 -0.23888049 -0.39572892 0.6305005 0.39093626 -0.4788285 0.4554407 -0.021898137 0.17868443 0.4342693 0.47534898 -0.30436388 0.008521217 -0.5102779 0.10643932 0.22533555 -0.38393998 -0.068910144 0.4962022 -0.30774528 -0.34339765 -0.34903592 0.53030616 -0.5660107 0.4130067 0.13680755 -0.12500143 0.4529675 -0.48182222 0.50498587 0.035508875 -0.17834917 0.47588354 -0.33892643
satisfaction 0.42313495 -0.1926663 -0.45102143 -0.27634153 0.50423956 0.30283427 -0.58061177 0.44645178 0.3800625 0.20986016 0.53855133 0.5315732 -0.36152515 0.2060907 -0.38559377 0.44305956 0.15625554 -0.33868578 0.28733057 0.58270556 -0.5775914 -0.38701326 0.31822813 0.5041748 -0.48415148 0.27835625 -0.19125414 0.024912734 -0.10889811 -0.3576615 0.34282765 0.0003959452 -0.39108944 0.4193746 0.2860363
thermalfluid -0.19089906 0.14448498 0.15568046 0.27902606 -0.094826005 -0.20425196 -0.29396433 -0.1991616 -0.16757509 -0.24577446 -0.18935958 -0.16817701 0.062246747 -0.07766185 -0.41172117 -0.5546001 0.5061082 -0.25760597 0.18407978 -0.09242599 -0.5061756 0.36881968 -0.15587428 -0.19741869 0.18713279 -0.22727565 0.3404532 -0.44858202 -0.19937432 -0.37871477 -0.47707835 0.19124211 0.57229805 -0.19788852 -0.46183935
problems 0.20246626 0.14263947 0.10415875 -0.29277545 -0.20292974 -0.14612189 0.15071015 -0.26304314 -0.15926635 0.32949835 -0.31086415 -0.0048561315 -0.042025402 0.3915331 0.33253974 0.18242247 -0.14664023 -0.09355696 0.05392975 -0.16776076 0.121387124 0.10197399 0.13435681 -0.13081959 -0.072373375 -0.07753196 -0.015296581 0.13801953 -0.16081482 0.15080787 0.14725243 0.17341757 -0.2180388 -0.23603857 0.19111931
industry -0.011285512 -0.31781435 -0.37375647 0.0438304 0.2832371 0.27094945 -0.19030485 0.26180896 0.37896082 -0.05023739 0.26936367 0.18048233 -0.26841173 -0.18755703 -0.2925965 -0.05365245 0.08888987 -0.24754252 -0.044283506 0.31234 -0.3040257 -0.45042586 -0.049287703 0.35936394 -0.059245564 0.21046999 -0.005201012 -0.09277027 0.0740217 -0.2012703 -0.06820288 -0.1988618 0.10564595 0.22631401 -0.17951612
experience 0.022212747 -0.0045693405 -0.0002523288 -0.014152013 -0.047384966 0.039530937 -0.045702934 0.020656075 -0.022030747 -0.010176133 0.031232622 -0.0047122836 -0.023452295 -0.002027057 -0.024228275 -0.025993371 0.035223972 -0.011961363 0.017410431 0.02361459 0.025264923 0.0037368424 -0.019532014 0.04051454 0.032274317 -0.0010486357 -0.011299301 -4.2401254e-05 0.034271386 0.046576943 0.04127899 -0.015514351 0.0013193116 -0.02707888 0.029235851
high 0.41951486 -0.114381135 -0.65460545 -0.2913601 0.42212987 0.30562678 -0.63350195 0.44554916 0.5217373 0.26880983 0.41498107 0.45788938 -0.3898002 0.14969708 -0.42765462 0.3829684 0.25559932 -0.38411063 0.24084446 0.8065402 -0.51257443 -0.37323862 0.2835757 0.5347634 -0.51166415 0.20268573 -0.05576525 0.06380419 0.030216536 -0.304952 0.32147378 -0.019401181 -0.41184393 0.404457 0.19870761
quality -0.31464943 -0.08767139 -0.6448149 0.29225528 0.30364946 0.26185757 -0.06962021 0.17772004 0.16171119 -0.04434649 0.24035056 -0.0018508566 -0.17795973 -0.00817689 -0.30364335 -0.3049566 0.30218977 -0.0071240603 -0.20133293 0.38438085 -0.3710439 0.22615683 -0.08825231 0.3559231 0.061618786 0.15730824 0.029923916 -0.42497456 0.23249753 -0.16674009 -0.4275941 -0.431096 0.44950265 0.09306326 -0.21867734
resume 0.30593216 0.0050304746 -0.25269207 -0.21636231 0.1418164 0.13397603 -0.061697066 -5.8517353e-06 -0.17198296 0.19543107 0.22202258 0.14218988 -0.18855335 0.21772043 -0.17824274 0.028848788 0.25828257 -0.06562611 0.068098344 0.21955544 -0.22335462 0.1864344 -0.0791636 0.1228196 -0.18762468 -0.0261846 0.20897807 -0.2495274 0.11285468 -0.18798466 -0.01881089 0.2730757 -0.0978678 0.047924984 0.032186385
paper 0.4988223 -0.16305049 -0.62175614 -0.36189404 0.6538345 0.29522988 -0.85871124 0.6914523 0.4627305 0.23057695 0.6450975 0.5466975 -0.5634742 0.29895175 -0.5858762 0.4499273 0.5416499 -0.6413431 0.15982386 0.60470444 -0.34806696 -0.36368558 0.14866851 0.62759554 -0.59128344 0.6212289 0.0023460474 0.16136765 -0.03216355 -0.9215468 0.42164263 -0.04052121 -0.48087195 0.54152423 0.051790066
research 0.88875395 -0.36754763 -0.44155702 -0.18959336 0.51904434 0.04438862 -0.010399041 0.59883267 0.1519224 0.22467445 0.4652619 0.6775235 -0.46582007 0.33067715 -0.11411456 0.446652 -0.085557826 -0.20814125 -0.11907593 0.6613528 0.14181513 -0.3820196 0.19706659 0.6326897 -0.49041885 0.061060257 -0.48099786 0.09821099 -0.17268984 0.06517841 0.48633572 -0.015539787 -0.5154893 0.34860566 0.25686786
faculty -0.3883262 0.4060005 0.42077103 0.386939 -0.52018964 -0.3192929 0.39923152 -0.46154445 0.4906787 -0.3214229 -0.4051798 -0.42789373 0.5010627 -0.4032619 0.40729174 0.23655035 -0.36691192 0.4436652 0.17070504 -0.36993748 0.30603448 -0.4448938 0.43628195 -0.44424424 0.49042878 -0.34735718 -0.43965542 0.35500607 -0.37348217 0.43480948 0.40866923 -0.43995094 -0.3048369 -0.4847116 0.33188117
contributing 0.3566661 -0.19615832 -0.25521454 -0.28285435 0.4134297 0.2645314 -0.063792214 0.2568786 0.33295482 0.3156692 0.3515679 0.4631803 -0.37980214 0.20483166 -0.3016916 0.035490163 0.025337351 0.082232885 -0.10641399 0.50990474 0.011519306 -0.50545174 0.15854919 0.45612782 -0.46265912 0.19784424 -0.2682215 0.20499118 0.18013145 -0.07427742 0.35014588 -0.35038978 -0.24464534 0.25073522 0.042503238
ability 0.37770092 -0.49277404 0.18638526 -0.3836967 0.45065108 0.5067617 -0.44255853 0.55837756 0.4463502 0.44424668 0.57921135 0.5530782 -0.6300556 0.39750108 -0.4437754 0.2844016 -0.41155422 -0.43456632 -0.46007803 0.5348508 0.3710281 -0.4644407 0.09957092 0.6245555 -0.4878273 0.48130387 -0.42578962 0.37516573 -0.35088286 0.2648271 0.31679466 -0.4485048 -0.32745543 0.55997384 -0.40123776
c++ 0.24121064 -0.0034453752 0.28774494 -0.12856051 -0.040945157 -0.05125809 -0.025498 -0.19397874 -0.16623288 -0.034172066 -0.074711025 0.034969997 0.17435922 0.29668707 0.2249278 0.21005206 -0.16155446 0.012960714 0.08552894 -0.07958641 -0.11977563 -0.014006859 -0.036984622 0.017247925 -0.24178421 -0.056178357 0.08383413 0.42537245 -0.040039502 0.24338457 0.03425082 0.14229678 -0.089637615 0.0015452944 -0.12469387
general 0.348664 -0.46784768 -0.5523569 -0.28766483 0.74971783 0.51845217 -0.048505094 0.41864073 0.31253025 0.25923437 0.71072125 0.69454855 -0.6904128 0.5407156 -0.6579809 0.022620775 0.23797382 -0.06215752 -0.12949541 0.7742745 -0.16741711 -0.6947014 0.47919536 0.6414479 -0.6674532 0.55148804 -0.40422723 -0.21803972 0.16888435 -0.43200448 -0.09572538 -0.39771292 0.14825107 0.5536072 -0.16678563
academic 0.02378075 -0.002525906 0.065038286 -0.024334231 -0.056053087 -0.2286598 0.20966382 -0.21034054 0.100903414 -0.14202014 -0.13931608 0.0067086997 0.107314385 -0.061138242 0.15224917 0.39137992 -0.10919781 0.09001369 0.11892633 -0.036593966 0.063244075 -0.08454694 0.14209017 -0.13770671 0.016204864 -0.15613842 -0.1642938 0.32368702 -0.27154812 0.1955254 0.08420715 -0.21676815 -0.1321185 -0.27920023 0.11857678
counseling 0.50169194 -0.050610803 -0.4063842 -0.36661705 0.365525 0.22118083 0.0653007 0.35741726 0.27278614 0.25805885 0.30638728 0.52224386 -0.37601227 0.20826496 -0.31243116 0.35378805 0.16615263 -0.43947342 0.21218789 0.6014346 -0.2701753 -0.36484754 0.3027759 0.49524525 -0.5227129 0.09036514 -0.044847954 -0.11766582 -0.19222562 -0.2593178 0.27504423 -0.13513447 -0.5012023 0.41703752 0.25586528
numerical 0.4111842 -0.015447836 -0.37511423 -0.36472163 0.3592313 0.22073282 -0.02226793 0.23316069 0.29650527 0.087063424 0.39821276 0.5056797 -0.2985732 0.26474035 -0.2725264 0.1885513 0.07548306 -0.1597878 0.09805084 0.61214757 -0.17314051 -0.3793257 0.21999817 0.4291555 -0.42699078 0.123084374 -0.23984876 0.009642494 -0.11254246 -0.14712101 0.24808164 -0.29240805 -0.23874111 0.2569456 0.13417494
study -0.13614786 0.024203656 -0.04175593 0.25711924 -0.018023528 -0.10787129 -0.32596672 0.026429838 -0.31058735 -0.2170582 0.03931384 -0.06822028 -0.0007103145 -0.31481618 0.010729387 -0.043255914 -0.120375656 0.18091245 -0.15147503 -0.027884224 0.21771 0.0956939 0.056020793 0.023796258 -0.04331395 -0.039129246 -0.0025109835 -0.43362296 0.31943804 0.04233168 -0.06778937 -0.09899785 0.2695355 0.011887332 -0.048400246
experience 0.022212747 -0.0045693405 -0.0002523288 -0.014152013 -0.047384966 0.039530937 -0.045702934 0.020656075 -0.022030747 -0.010176133 0.031232622 -0.0047122836 -0.023452295 -0.002027057 -0.024228275 -0.025993371 0.035223972 -0.011961363 0.017410431 0.02361459 0.025264923 0.0037368424 -0.019532014 0.04051454 0.032274317 -0.0010486357 -0.011299301 -4.2401254e-05 0.034271386 0.046576943 0.04127899 -0.015514351 0.0013193116 -0.02707888 0.029235851
meetings 0.56159526 -0.40144074 -0.37237754 -0.5227173 0.4432422 0.5372595 -0.11084624 0.27213985 0.29508144 0.21170431 0.61228675 0.5179033 -0.54409933 0.40959284 -0.3731319 0.47425824 0.19554639 -0.24335386 0.14347467 0.5499869 -0.1428405 -0.630281 0.3440852 0.47505116 -0.5721263 0.32340226 -0.26055694 -0.04099631 -0.04268523 -0.22223742 0.37893993 -0.12973 -0.3053762 0.54159695 0.13129416
diesel 0.308133 -0.25282502 -0.44279462 -0.36987537 0.4795707 0.2954042 -0.083183646 0.28260264 0.27232346 0.25513375 0.507019 0.58228403 -0.46044627 0.33750147 -0.2532326 0.04956676 0.08392028 -0.10650515 -0.10883416 0.56108755 -0.022368252 -0.4453601 0.28633898 0.52859825 -0.47440004 0.3456465 -0.3196708 0.16850255 -0.015198119 -0.15193956 0.20647332 -0.31852415 0.013074352 0.20053063 0.032994974
engine 0.8327739 -0.13352568 -0.9485636 -0.4135844 0.4891437 0.46029776 -0.11084087 0.37326363 0.31182626 0.10064644 0.5510561 0.56844914 -0.30595505 0.3021809 -0.5708708 0.39839733 0.14628053 -0.3356935 0.13466822 0.82632995 -0.19587311 -0.3096652 0.19460249 0.52616364 -0.49021178 0.16913293 -0.079027705 0.05643284 -0.3757122 -0.17669193 0.28083092 -0.07620606 -0.3714918 0.34116542 0.12680355
emissions -0.45165157 0.40853006 0.39953056 0.5656741 -0.53677344 -0.4830988 0.48904762 -0.51323354 0.562709 -0.3824182 -0.45455667 -0.5178809 0.5001355 -0.45652768 0.45532575 0.3412935 -0.5443849 0.4668928 0.2358534 -0.553777 0.3514374 -0.48966753 0.49269268 -0.46866626 0.5074669 -0.33474863 -0.48173296 0.41565922 -0.35281268 0.50974834 0.40143898 -0.5086216 -0.38810903 -0.48811942 0.4704018
transferable -0.08713133 0.12223231 0.08416615 0.05769165 -0.12313338 -0.08014997 0.13699012 -0.17707905 0.20306058 -0.11648296 -0.20324475 -0.13200921 0.14238362 -0.12264387 0.17484902 -0.0996832 -0.11247972 0.14667971 0.0063914433 -0.13831463 0.11796079 -0.20254464 0.15142016 -0.20573293 0.1117519 -0.07173227 -0.15123539 0.45574224 -0.08962007 0.1551509 0.12201188 -0.17668487 0.08957701 -0.1472136 0.104985826
soft -0.4622721 0.23909688 -0.23365587 0.47618425 -0.26618809 -0.25712585 0.24520873 -0.2908513 -0.4724473 -0.16648844 -0.32640684 -0.382487 0.36208478 -0.60007936 0.27651742 -0.047710568 0.29368988 0.35068437 0.32955822 -0.26071107 0.042029094 0.26482907 0.21769579 -0.35073584 0.40167376 -0.396999 0.1790315 -0.5074359 -0.06850461 0.18299468 -0.3403094 0.3484111 -0.16134368 -0.25446516 0.36079848
skills -0.001790547 -0.18435554 -0.27699745 -0.48573115 0.32700363 0.29547435 0.07856236 0.072813176 0.33454332 0.3981101 0.300107 0.38778448 -0.36329034 0.80304325 -0.22517896 0.3322554 0.19359264 0.09884542 -0.13865833 0.42286482 0.31028453 -0.21310493 0.23707095 0.33171195 -0.45747253 0.13604113 -0.07218367 0.20803148 0.16451754 -0.20543325 0.55399597 -0.21096478 0.048324794 0.3002195 0.13446032
certificate 0.108007744 -0.25441453 -0.21721452 0.0050959485 0.2723048 0.30156457 -0.120886296 0.28757557 0.38396418 -0.15381089 0.31336483 0.12510419 -0.27931598 -0.047841728 -0.33969718 0.019392734 0.2541512 -0.1629528 -0.061858393 0.45522842 -0.14035726 -0.34208563 0.03231237 0.3364734 -0.18515676 0.18251298 -0.2584966 -0.31342316 0.07582802 -0.21227139 0.08151648 -0.2820669 -0.07533544 0.35494053 0.00083930464
accomplishments 0.24141476 -0.15593883 -0.31986097 -0.21306637 0.30930182 0.1995362 -0.11169677 0.20016426 0.22093494 0.1985503 0.21678422 0.3606963 -0.2429084 0.15265931 -0.17972204 -0.18113399 0.19951177 -0.083478175 -0.17298207 0.26537737 0.06694348 -0.13963461 0.008857868 0.20646751 -0.4859679 0.13082242 -0.22450493 -0.1950808 0.1340872 -0.23709339 -0.0223688 -0.22230883 0.09575996 0.154052 -0.12889604
basic 0.3717177 -0.3322533 -0.3500731 -0.19740689 0.3694022 0.18237042 0.17457642 0.40310398 -0.114320174 0.28535154 0.4351265 0.35564086 -0.3021908 0.20384696 0.12957035 0.18870316 0.23476921 -0.35192442 -0.34508714 0.46412092 0.099546015 -0.37890145 -0.24535593 0.40648845 -0.28351945 0.44337252 -0.4110611 -0.23112364 0.261414 -0.2265376 0.20664647 0.21224393 -0.27212793 0.253343 0.15223677
understanding 0.43070808 -0.38031492 -0.33600813 -0.27569938 0.46294528 0.25296992 -0.13848688 0.367222 0.36617833 0.11285529 0.40348217 0.41254124 -0.34748864 0.11771884 -0.33817285 0.39386654 0.3268339 -0.36696503 0.4676708 0.47536597 -0.41573557 -0.3718293 0.43878502 0.41937363 -0.4566051 0.15021318 -0.5338032 0.10822062 -0.34805948 -0.3149639 0.42807844 0.22483222 -0.46120948 0.39180914 0.43257093
qualities 0.10099793 -0.00992245 -0.28802136 -0.093437694 0.24460024 -0.03269564 -0.13021539 0.2751027 0.1899969 0.041659776 0.12843376 0.18738118 -0.1306944 -0.01427195 -0.06200914 0.20364726 0.17885233 -0.25993502 -0.09206254 0.25254977 -0.037149146 0.008541163 0.024838375 0.1611397 -0.17509939 0.1652819 0.040715627 0.07597055 0.022490023 -0.2926764 0.2145923 -0.08967971 -0.16749251 0.22667137 -0.07335169
realtime -0.024114778 0.048274633 0.11630868 0.05617895 -0.16521583 -0.035005797 0.17645963 -0.14270899 0.19902053 -0.1573919 -0.00085780874 -0.025561893 0.18830898 -0.08530179 0.1091739 0.28168613 -0.099094726 0.13713986 0.17570207 0.009311988 0.09670348 -0.2110308 0.17349865 -0.083055675 0.16433671 -0.14593257 -0.16018674 0.23839694 -0.08151132 0.16817099 0.331012 -0.12547323 -0.29017022 -0.16175693 0.16311483
structure 0.48759025 -0.33621743 -0.5949234 -0.52029455 0.44240183 0.32615986 -0.21375436 0.4580932 0.1430533 0.17686477 0.38730165 0.5219231 -0.52776694 0.27837902 -0.31573093 0.3433022 0.42243457 -0.47543633 0.13090378 0.5070404 -0.2910386 -0.20617542 0.08642366 0.39670306 -0.5325822 0.19959925 -0.06526187 -0.15166935 -0.08683911 -0.50233626 0.3480942 -0.0435004 -0.16810277 0.35460606 -0.016995827
nursing 0.12808768 -0.000317192 -0.291452 -0.121324845 0.16566455 0.04148593 -0.24554002 0.29631197 0.22012888 -0.03837 0.14180024 0.2966615 -0.3540178 0.08424206 -0.17729571 -0.05662347 0.1452678 -0.41275063 -0.045575723 0.16741687 -0.10923927 0.5385021 -0.24914715 0.1420404 -0.080896124 0.21619192 0.3681715 0.044931326 0.09822144 -0.1418768 -0.0023085838 -0.078058794 0.14502847 0.2227435 -0.26102856
transport 0.51393396 -0.07680604 -0.4503097 -0.43530372 0.3563967 0.27718323 0.060164716 0.35971698 0.3623762 0.20223205 0.39673147 0.55464685 -0.35760316 0.29471868 -0.26308978 0.38617927 0.062545866 -0.31498942 0.29386085 0.7236921 -0.15281826 -0.43220457 0.29021212 0.49670693 -0.5630943 0.00631716 -0.23424372 0.102763556 -0.24679187 -0.1648174 0.4296779 -0.08317035 -0.46937472 0.30643964 0.26062408
electron 0.37326542 -0.5882054 -0.39844707 -0.45882064 0.63044965 0.6063134 -0.08809437 0.30321804 0.4527028 0.058780022 0.7724084 0.6532947 -0.6034505 0.48506695 -0.5089386 0.22137748 0.34104368 -0.17160292 -0.21008928 0.723621 -0.1609246 -0.7610363 0.47581568 0.55735546 -0.7317981 0.42655763 -0.43037826 -0.4216222 0.31271225 -0.39726496 0.09383318 -0.38816467 0.07248189 0.6638414 0.019338029
atomic -0.19741355 0.17744511 0.21954176 0.18300156 -0.254597 -0.23374371 0.29223967 -0.22486131 0.17747465 -0.23686786 -0.2709376 -0.20184383 0.27542186 -0.23777756 0.19039877 0.16053917 -0.24336646 0.21035394 0.22389777 -0.2276182 0.14697905 -0.22306705 0.2314283 -0.2595066 0.24996132 -0.18673483 -0.20028585 0.15375526 -0.20883957 0.28529942 0.21553273 -0.24276613 -0.16507843 -0.2675259 0.2634301
force -0.44612935 0.37022093 0.47002324 0.51237226 -0.4826955 -0.52625525 0.56399745 -0.478918 0.4613911 -0.29633215 -0.47405863 -0.51789427 0.56639516 -0.4841296 -0.041460577 -0.13413155 -0.5539 -0.040855665 -0.06728448 -0.0013262193 0.45505068 -0.4188369 0.4523256 -0.42845708 0.49091843 0.029230649 -0.47828636 0.3511732 -0.019746931 0.3936339 -0.13723522 -0.49360654 -0.36426696 -0.5330154 0.4462884
microscopes -0.016538618 0.056565527 0.1807527 -0.024676902 -0.20405753 -0.15792488 0.16405721 -0.18380703 0.12344684 -0.13709655 -0.15002224 -0.11894384 0.18176027 -0.01922206 0.2363461 0.19987968 -0.15859139 0.14269377 0.19160472 -0.14300893 0.08509666 -0.14338827 0.15320884 -0.15269691 0.06346017 -0.18893488 -0.08266992 0.14086841 -0.11891075 0.14573018 0.19290355 -0.11176418 -0.18617085 -0.16276507 0.17039563
subject -0.14747798 0.04716548 0.09854029 0.016510677 -0.094373435 -0.06463639 0.048738435 -0.09842532 -0.1790706 -0.13276614 -0.089887604 -0.056846634 -0.017204747 0.0017816093 -0.07391623 -0.07971083 0.17382044 0.1076444 0.11136827 -0.08769465 -0.13924097 0.1993478 -0.037879497 -0.110609025 0.16909556 -0.12211513 0.237231 -0.36354005 -0.035719845 -0.06206911 -0.25156507 0.23304625 0.19694665 -0.04934595 0.042578537
classifications -0.16800229 0.05292135 0.17316873 0.20909609 -0.21669118 -0.16062026 0.21206635 -0.20404238 0.19013949 -0.15819773 -0.21482006 -0.1738962 0.24062154 -0.20802118 0.19738065 0.1910429 -0.20923351 0.1754125 0.14855187 -0.24168754 0.104212835 -0.19478498 0.22853251 -0.19304833 0.17266339 -0.16055484 -0.21692416 0.08227327 -0.15037885 0.2315871 0.1259408 -0.20224658 -0.1235942 -0.20376985 0.24527737
research 0.88875395 -0.36754763 -0.44155702 -0.18959336 0.51904434 0.04438862 -0.010399041 0.59883267 0.1519224 0.22467445 0.4652619 0.6775235 -0.46582007 0.33067715 -0.11411456 0.446652 -0.085557826 -0.20814125 -0.11907593 0.6613528 0.14181513 -0.3820196 0.19706659 0.6326897 -0.49041885 0.061060257 -0.48099786 0.09821099 -0.17268984 0.06517841 0.48633572 -0.015539787 -0.5154893 0.34860566 0.25686786
technologies 0.167697 -0.1878515 -0.14739121 -0.1177011 0.2991551 0.21397664 -0.41385657 0.18107578 0.10088966 -0.118378 0.24150793 0.23957305 -0.18763499 -0.09108531 -0.25970954 0.19483355 0.17540227 -0.13467468 -0.1349926 0.2363974 -0.27677456 -0.16045052 -0.17616126 0.25211588 -0.19511236 0.13206111 0.32312176 -0.4023773 0.29937226 -0.22552419 0.16909258 0.10634721 -0.16904101 0.26454735 -0.2698812
professional -0.54000497 -0.06274595 0.11412795 0.1919147 -0.32681286 -0.29400718 0.4715691 -0.28583464 0.45041162 0.0783826 -0.19457099 -0.27816695 -0.065240175 0.092303075 0.62019825 0.13507222 0.004008347 0.66551805 -0.36055368 -0.11471093 0.3428608 -0.42048746 0.42055923 -0.08246478 0.030430507 0.01627766 -0.5347305 0.40729526 0.1858809 0.29157865 0.5775892 -0.2803955 -0.29420128 -0.11337059 0.55689275
engineers 0.30385926 -0.4921901 -0.11814675 -0.23545685 0.35963187 0.28718376 -0.13419704 0.25477326 0.14182337 0.06120872 0.48989397 0.30014712 -0.10209058 0.0717329 -0.3142036 0.48607942 0.058335885 -0.11415397 0.3810497 0.44885206 -0.28292364 -0.60052603 0.087426044 0.22194636 -0.19187464 0.10051328 -0.075456 -0.032752585 0.04593239 -0.10776448 0.7254907 -0.061630346 -0.535783 0.108458206 -0.09331265
