1098 35
out_of_vocab 0.005436193 -0.036630284 0.027839113 -0.041535985 -0.0021284819 0.002751112 -0.0237625 -0.022611713 0.041981164 9.9658966e-05 0.013981584 0.014816035 -0.01584934 -0.0047843345 0.0050209053 -0.02846086 -0.013052214 -0.013957776 0.043862972 0.009420417 -0.005241908 -0.035489835 0.036680523 0.0009425506 -0.0052677877 0.004744254 0.028147388 -0.006127 -0.026760925 0.043564703 0.020803247 0.010835398 0.044395994 0.01891512 -0.034215882
experience -0.0070607453 0.13014027 0.043390736 0.10951151 0.020082282 0.04876164 0.14592446 -0.10615031 -0.04603431 -0.040426895 -0.05462846 0.06809744 0.012478864 -0.03081956 -0.09724544 0.10862493 0.05959658 -0.062226508 -0.025932826 -0.11712246 -0.09088039 0.036919285 -0.059278727 0.053969678 0.033072054 -0.11924076 -0.00972796 -0.038069025 -0.033474736 -0.07883909 -0.19267344 0.060212586 -0.046723768 0.05531452 -0.020563742
resume 0.10656082 0.096323535 0.08721778 0.2024008 -0.13639535 0.6125874 0.05410231 -0.19715013 0.04378511 0.27485377 0.05455089 -0.0392771 0.40982178 0.34053642 -0.4430227 0.28759003 -0.06363263 0.0141808605 -0.14926624 -0.20749968 0.32692137 -0.20786661 0.123317 0.15690762 -0.071268156 0.14632478 -0.2077429 0.42243186 0.41160366 -0.120892875 -0.27397585 0.016947452 0.095127545 0.23889208 0.06342415
skills 0.073403366 0.24543653 -0.5757242 0.5771542 -0.02706052 -0.008675952 -0.029100597 -0.25797975 0.55320174 -0.08269357 -0.44338784 0.31969127 0.06909287 -0.018204335 -0.08315903 0.0651217 -0.1396341 -0.30749163 -0.005455003 -0.01365803 0.24338406 0.5124913 0.032491233 0.12646537 0.41286805 0.12673718 -0.07426354 -0.24315912 -0.03532435 0.098860815 0.09704122 0.36288676 -0.0025997874 0.15899044 0.048675314
academic 0.13273329 0.26333725 -0.31797987 0.15410177 -0.037377216 0.15988651 -0.265032 -0.2836488 0.19540147 0.04776371 -0.15134232 0.30044854 0.16275924 0.1797525 0.03424302 0.022954887 -0.35339254 0.016616007 -0.10777953 -0.08849026 -0.031690344 0.11495917 0.16766621 -0.033504553 0.39127082 0.023017025 -0.16544816 0.0362378 0.050331973 -0.001209636 0.1275187 0.18495817 0.026701463 0.18669632 0.13788496
research 0.18033524 -0.0051477836 0.11753473 -0.027166335 -0.24289738 0.22086574 0.009164612 -0.09812915 0.18215255 0.028848486 0.21186677 0.06567207 0.15168989 0.21496512 -0.20243537 0.22142887 -0.11850152 -0.011868795 -0.1992598 -0.12622698 0.060593862 -0.10043493 0.17978655 0.13901433 -0.029626464 -0.043263145 -0.1578733 0.1706881 0.09702547 -0.2962765 -0.12342883 0.13622731 0.21825187 0.10159795 0.11160879
college 0.048329774 -0.17988493 2.5133952e-05 -0.09860414 -0.06725039 0.15714118 -0.025263458 -0.1166369 -0.10194429 0.10180199 0.21684892 0.12789072 0.052593157 0.2504113 -0.12697649 0.04281439 -0.22623241 0.07894505 -0.04553547 -0.016848126 -0.026068347 -0.050153866 0.0950919 0.09331355 -0.14287639 0.11069103 -0.029879017 0.07255526 0.23090015 -0.13157777 -0.21493863 0.18000107 0.19129728 0.20643993 0.061237406
title 0.2669486 0.013485222 -0.15652782 -0.1869673 -0.29994068 0.23809174 -0.015526735 -0.24030805 0.0896882 0.15809178 0.23963171 0.40868303 0.17853625 0.39941043 -0.1093487 0.08867472 -0.5042644 0.10208489 -0.24802515 -0.154509 -0.05269397 -0.09590508 0.321669 0.15362482 0.046953112 -0.09144975 -0.29241276 0.124915525 0.21914831 -0.22066003 -0.17618181 0.25963545 0.26389402 0.5129115 0.2239407
professional 0.055016674 -0.07525023 0.06727387 0.15723075 -0.053520847 -0.030688599 0.15987046 0.019682279 0.027099617 0.11911211 -0.05746024 0.019456917 -0.009699162 -0.07059587 -0.076135375 0.21854672 0.060958 -0.06634656 -0.05206304 -0.14243191 0.12043406 0.011475501 0.09952924 0.13531546 -0.028332306 -0.023340553 -0.05586743 0.03136051 0.056737106 0.080033235 -0.22540249 -0.08773274 0.016625043 0.011265534 0.05568955
career 0.12360128 -0.049217615 0.011160988 -0.03182801 -0.12087988 0.1934415 0.12785526 -0.081512734 -0.0642976 -0.07928588 0.10745759 0.115538925 0.097314015 0.14839804 -0.20788975 0.10827031 -0.19304082 -0.06103081 -0.039486583 -0.048986122 0.09653158 -0.16973908 0.068195865 0.16221105 -0.10107897 -0.0060255663 -0.08071484 0.15614606 0.20794347 -0.017132211 -0.29585728 0.10475368 0.20110932 0.11745869 0.038733456
university 0.11865912 0.008130588 0.006284396 0.25496978 0.008803796 0.15357792 0.076785624 -0.2243896 0.12421497 0.017729824 -0.11170684 0.04609672 0.1618837 0.044343077 -0.13433671 0.07428324 -0.07296538 0.0028467504 -0.024753856 -0.1531026 0.15319839 0.17172197 0.07608216 -0.0074009737 0.15780458 0.096107274 0.007657158 0.09201874 0.12319581 0.023858845 -0.108062044 0.071926944 -0.03372228 0.11103259 0.12372247
page 0.2755002 -0.047375496 -0.57560104 -0.16588877 -0.20285025 0.43249482 -0.046154156 -0.13574499 -0.117444634 0.21238478 0.18529643 0.19587766 0.16710743 0.5803832 -0.043805998 -0.07217391 -0.20047797 0.13956438 -0.22932675 -0.07123126 -0.018820152 -0.44327822 0.6702561 0.114530355 0.13004667 0.22048604 -0.83630973 0.05026881 0.23419149 -0.30778432 0.17861022 0.26763704 0.23347531 0.49980178 0.13250224
the 0.021521159 0.06610346 -0.1063091 0.019054206 -0.0011170303 -0.028338356 0.07407498 -0.045189653 0.028208183 -0.061517235 -0.0027147792 -0.023875823 0.013967719 0.003721681 0.018548062 0.015350698 -0.05449838 0.00041512214 0.037789162 -7.220963e-05 -0.030658396 -0.04288886 -0.00062317564 -0.035856687 0.14740786 -0.027448457 -0.00658286 0.041378092 -0.013891982 0.06719557 0.0396526 -0.054754358 -0.09383106 -0.025843887 -0.015390709
sections 0.46554756 -0.103297755 0.11255628 -0.25068018 -0.3387036 0.4205972 -0.108360805 -0.54756856 -0.07365718 0.32296616 0.22479126 0.20085159 0.17068367 0.42377207 -0.03394705 0.19387278 -0.40240455 0.25781608 -0.44453952 -0.22414924 0.089217216 -0.43939915 0.4532939 0.32853118 -0.0568571 0.122172825 -0.505735 0.29129907 0.23501533 -0.39333814 -0.24104981 0.30822167 0.3809442 0.39724824 0.41675252
graduate 0.050320797 0.08255812 0.15360145 -0.2469045 -0.043882366 0.19871423 -0.15396413 -0.1402967 -0.16468476 0.1731113 0.20547524 0.16547127 0.112092674 0.2163972 -0.06486567 0.16324139 -0.2954861 0.18692593 -0.17420514 -0.15597473 -0.17127305 0.03589371 0.20797093 -0.00715314 -0.13089782 0.006978355 -0.04745876 0.21638496 0.21138276 -0.13681743 -0.16017161 0.26040092 0.23385863 0.3007222 0.04906311
students 0.108999506 0.0054573263 0.040825088 0.034319114 -0.058890715 0.016591791 0.06543121 -0.15906581 0.044226706 0.006410136 -0.045804713 0.031100458 0.08763705 0.025076052 -0.02348544 0.08475997 -0.08161469 -0.0015834799 -0.037900772 -0.11493009 0.071865864 -0.011170669 0.050000176 0.043200247 0.08814701 -0.0509469 -0.051293094 0.028427457 0.040003058 -0.1520643 -0.031596106 0.19115056 0.033707514 0.015991408 0.08058215
information 0.25161287 0.0018637803 0.08554569 -0.059086364 -0.2978155 0.26669705 -0.19018663 -0.23087117 -0.062496305 0.26401308 0.21142252 0.14584063 0.28073138 0.25651968 -0.17396356 0.2647587 -0.28337488 0.15170158 -0.22392593 -0.28325757 0.07278528 -0.28192854 0.34193432 0.23354293 0.15145494 0.088186264 -0.30494985 0.26398423 0.23667784 -0.11418539 -0.13246666 0.21853995 0.2622544 0.24372947 0.22654496
oh 0.041007932 0.040488224 -0.02035849 -0.23515333 -0.15358211 0.20490858 -0.07428398 -0.14171539 -0.2370669 0.034224566 0.19503051 0.25539374 0.00080979033 -0.012745859 0.014300855 0.016880825 -0.27147233 -0.07273564 0.022697497 0.07150596 -0.13064419 -0.041827764 0.24288742 0.0008847167 0.050164804 0.03228308 0.023932654 0.05507146 0.25874072 -0.21694653 -0.09588688 0.29579887 0.2186591 0.22892171 -0.026549393
cv 0.11845781 0.00811703 -0.016477134 0.11269843 -0.13917845 0.18902315 0.1990967 -0.19479048 0.28282923 0.20717683 0.11474477 0.13221909 0.13760565 0.16506255 -0.099429525 0.20808706 -0.10186109 0.12229733 -0.16879354 -0.17035651 0.16951804 0.17435384 0.18151857 0.21083194 0.13283923 -0.039837483 -0.15264155 0.1828711 0.136833 -0.21208431 -0.18275355 0.12827066 0.18584107 0.1351359 0.20273489
experiences 0.12623888 -0.0038155853 -0.18537067 0.17417301 -0.013493485 0.02880691 -0.102037385 -0.3804101 0.12216016 -0.07781655 -0.04759342 0.3823475 0.08737891 0.065057084 0.052332144 0.009722018 -0.07022397 0.0071631693 -0.09523071 -0.08035592 0.13751835 0.06348538 0.032308195 0.048043273 0.31070927 0.083578736 -0.07422666 -0.11574936 -0.02775674 -0.08443505 0.11496751 0.31969035 0.0035523234 0.036132302 0.06442646
particle -0.034914326 0.105034724 -0.17172353 0.13715531 0.073332526 0.04582259 -0.014712603 -0.16234602 0.06346225 -0.061457824 -0.16649796 -0.014515171 -0.04962065 -0.031242674 0.0013459935 -0.08051989 -0.17184937 -0.19581957 0.0795836 0.0113340765 0.11176852 0.08602912 -0.039671954 -0.092946604 0.18957119 0.09043062 0.15467566 -0.04482444 0.10278149 0.061206583 -0.06743848 0.1549839 -0.042026307 0.07349441 -0.005067976
mn 0.11965667 -0.08778504 -0.05107645 -0.12293964 -0.20602134 0.17391519 -0.18074042 0.076734565 -0.16695337 0.05147981 -0.06301963 0.21105155 -0.07839452 0.15884514 -0.08534052 -0.101538405 -0.29544073 -0.05894225 -0.0934687 -0.034477197 -0.18845864 0.06931852 0.037959065 -0.039381687 0.12530315 0.1096107 0.0005378601 -0.1908705 0.079367146 -0.1916764 -0.052680813 0.29724798 0.2781225 0.41736713 0.045965027
conference -0.045611728 0.14681593 -0.19888875 -0.049762275 -0.015015013 0.030578157 -0.0036652752 -0.047144923 -0.016100844 -0.06942752 0.07694955 0.3392583 -0.009497699 0.019834777 0.1695961 -0.101059966 -0.16526426 -0.15639535 0.048990738 0.16523969 -0.12196635 -0.05277263 0.04753894 0.036567025 0.1289043 -0.09574142 -0.06190987 0.021473406 0.04697806 -0.0066203037 0.06330807 0.2119085 0.12243199 0.05734464 0.07564762
engineering -0.14529331 0.011606313 -0.1911736 0.122262575 0.14998044 -0.11302083 -0.23254558 0.020401375 0.022778723 -0.21047504 -0.139634 -0.0916468 -0.09907743 -0.22134732 0.14751975 -0.10143529 0.017542321 -0.22623967 0.15539409 0.10009631 0.056207296 0.061559707 -0.2509274 -0.17848946 0.17038429 0.02708999 0.21470179 0.007061326 -0.14478312 0.07731568 0.11815768 -0.014555705 -0.16201396 -0.13122499 -0.15899265
nursing -0.10821927 0.17273885 -0.24560288 0.10795303 -0.01979592 0.33498874 -0.1581172 -0.2896583 0.014555263 -0.08981717 -0.17430785 0.010675383 0.21079446 0.19448659 -0.05562941 -0.035973415 -0.10102887 -0.20548889 -6.2734354e-05 0.035145942 0.29231128 0.22716203 -0.009084602 -0.039752517 0.21981905 0.092211425 0.08117692 0.07293998 0.06751262 -0.0965051 -0.069687665 0.16945326 0.041678935 0.04165424 -0.029807318
engineers -0.14344148 -0.041955262 0.05092884 -0.038096525 0.1554385 -0.07614723 -0.035232827 0.12897141 -0.08540733 -0.07217463 0.052813955 -0.11317933 -0.1059942 -0.16673502 0.15395561 -0.11328213 -0.08967075 0.025834117 0.14953269 0.12631778 -0.12275235 -0.03398486 -0.07739145 -0.10097333 -0.12083237 -0.073702075 0.1580519 -0.043608785 -0.06799011 0.14748982 0.006382961 -0.12414594 -0.075979665 -0.008842474 -0.07627545
center 0.3921872 -0.12642352 -0.038940787 0.010758855 -0.33484355 0.4020816 -0.15802395 -0.44916868 0.028399993 0.24560551 0.45521674 0.2689014 0.22343886 0.44473484 -0.14733759 0.2234106 -0.3343194 0.12668848 -0.29049847 -0.28676963 0.11583549 -0.4285215 0.47106424 0.2950046 0.16950269 0.08651982 -0.40376145 0.5376192 0.46710375 -0.33296725 -0.22668785 0.55555195 0.4320819 0.4810725 0.34414217
education 0.13039255 0.07904354 0.0048916265 0.01633333 0.002773969 -0.0953733 0.29029173 0.1255745 -0.18040216 -0.03169691 -0.11603384 0.16301754 0.4110374 0.05724584 0.016974488 0.059580628 0.024494577 0.21909054 -0.044240918 -0.08084539 -0.1999151 0.111495145 0.07652214 0.015682895 0.040955815 -0.35322216 -0.41236177 -0.13515204 -0.12166995 0.072398685 0.17081968 -0.120363906 -0.122837745 -0.02320099 0.0809835
journal 0.20209154 -0.0050302707 -0.07629579 -0.017371468 -0.096654706 0.25926292 -0.017482903 -0.14676611 -0.19897626 0.021639232 0.045830775 0.16429512 0.049842503 0.18695927 -0.10447781 0.18809874 -0.21811943 -0.033140726 -0.09627843 -0.23756668 0.013211177 -0.06382613 0.16290425 0.13542083 0.116025984 0.113644734 -0.1290309 0.11162766 0.19462682 -0.17509294 -0.14090651 0.2158972 0.21355109 0.20464401 0.05773044
books 0.08939235 0.11002074 0.001987174 0.09630914 -0.061742786 0.15056743 -0.069546245 -0.34409788 0.11933048 -0.0046371776 0.12531964 0.13212931 0.07609037 0.08394126 -0.021863023 0.043217547 -0.39679033 0.013348663 -0.07211339 -0.0389655 0.22086972 -0.08612809 0.16878444 0.0024118219 0.08750559 0.14144856 -0.11056909 0.13034819 0.12022164 -0.040803652 -0.057863686 0.40642107 0.10073765 0.14155732 0.0989808
name 0.1308168 0.02591049 -0.022352794 -0.09372361 -0.27432755 0.45210353 -0.10490973 -0.40679666 -0.04429606 0.24371569 0.5014773 0.31471494 0.28355554 0.42272118 -0.1693954 0.122090176 -0.3661961 0.21768151 -0.23063728 -0.15519601 0.008544804 -0.31003457 0.45023388 0.18981275 -0.01555941 0.12144817 -0.2961985 0.32742167 0.440496 -0.24905118 -0.15814364 0.46489915 0.50722426 0.49239254 0.1719177
aerosol -0.30783165 0.22084424 -0.14174905 -0.16253012 0.20598577 -0.22539005 -0.13060272 0.053487565 -0.19695602 -0.26976413 0.06878828 -0.2900738 -0.26885507 -0.21580446 0.21925572 -0.2667185 0.10158374 -0.15086412 0.2563312 0.27468756 -0.2015233 -0.30331182 -0.17854518 -0.2292539 0.115386575 -0.12831277 0.26066047 0.2369191 -0.21459574 0.2958621 0.25430247 -0.1770372 -0.2443765 -0.1586241 -0.22653267
mechanical -0.33235404 0.3404045 -0.08474403 -0.06794124 0.14262965 -0.22719347 -0.34606338 0.091096446 -0.09075362 -0.17850894 -0.15802105 -0.36646396 -0.091060966 -0.13938096 0.30454272 -0.27970836 0.19375876 -0.31507143 0.23461428 0.09575848 -0.019307088 0.16598545 -0.38788137 -0.31820753 0.34666505 0.06608941 0.3913361 -0.154299 -0.38123584 0.10499357 0.30276173 -0.28527233 -0.2786749 -0.3942731 -0.29269722
anical 0.19208145 0.07965654 0.029910773 -0.073418826 -0.08892747 0.14533658 -0.01141393 -0.08249522 -0.11267992 0.028856944 0.075239144 0.14549442 0.13020337 0.07971477 -0.15566407 0.14810063 -0.0697371 0.06197181 -0.15520921 -0.089928806 0.12762806 -0.11458512 0.06867343 0.15388365 -0.06956371 0.006377209 -0.07768457 0.100642234 0.07880025 -0.11082685 -0.05252673 0.11335175 0.038164366 0.09390786 0.06494778
michael 0.100137465 0.21464244 -0.09373816 0.15249257 -0.0635133 0.13309468 0.03896612 -0.15689114 0.11155202 -0.0029853147 0.08374771 -0.010716858 0.17091079 0.075171724 -0.046530288 0.052581344 -0.074232385 -0.031729702 -0.028854987 -0.10661099 0.1541747 -0.0041261683 0.13363492 -0.0022118753 0.15840988 -0.035124056 -0.06226794 0.10482472 0.08446034 0.016822733 -0.19526502 0.014777005 0.076603696 0.037142195 0.059567675
list 0.23467736 0.16718978 -0.6864669 -0.059786808 -0.046521828 0.45893666 -0.24994749 -0.38965848 -0.2798266 0.037731007 0.18142563 0.4326441 0.19786136 0.25029087 -0.050943363 -0.007898482 -0.8716411 0.36837113 -0.08996282 -0.057552982 0.16084872 -0.05253749 0.43232036 0.054074664 0.47204024 0.0023023586 -0.19375774 0.3866292 0.3897192 -0.11573471 0.45596778 0.55217505 0.17512663 0.64634 0.08124595
library -0.0827119 -0.2588774 0.27230394 -0.108924165 0.033816483 -0.18184723 -0.03424957 0.13471064 -0.1880212 0.20745863 0.1325175 -0.10510457 -0.19713646 -0.105449215 -0.24131046 -0.036772214 0.15443519 0.122894935 0.09215512 0.05900391 -0.043103233 0.1776317 -0.1848065 0.058204547 -0.31607872 0.321462 0.10117336 0.18484792 -0.13314064 -0.23502263 -0.016605513 -0.072432116 -0.006944348 -0.097476326 -0.10929401
document 0.44035974 0.23263834 -0.11879115 -0.22549225 -0.4066009 0.37002516 -0.19311328 -0.38295707 -0.14091288 0.29903954 0.4488145 0.28120446 0.36895332 0.40256622 -0.25825164 0.15322067 -0.38186085 0.50828034 -0.32176074 -0.35524932 0.12180484 -0.48896357 0.45393986 0.2717093 0.2823003 -0.02492746 -0.46957624 0.37713015 0.3964227 -0.38639566 0.021132626 0.46221113 0.38150615 0.4601449 0.44664732
american 0.28473553 0.07312213 -0.12373032 0.044691123 -0.093690105 0.21544579 -0.10569339 -0.31349453 0.046028998 0.17620435 0.12130832 0.24635561 0.21109225 0.31187147 -0.10734926 0.14942645 -0.16482858 0.26592106 -0.19575998 -0.18038566 0.09331281 -0.16976385 0.31738454 0.05619179 0.1004621 -0.017043347 -0.22874616 0.2164851 0.23353304 -0.16986918 -0.026398314 0.26903993 0.17566615 0.2407756 0.23855291
society 0.15015301 -0.010667574 0.18346506 -0.2106669 -0.1803917 0.24395941 -0.009207261 -0.24167903 -0.1090903 0.16499507 0.37764058 0.26192197 -0.04420592 0.20754825 0.0030926273 0.12851952 -0.26517442 0.13185062 -0.14338328 -0.0006390714 -0.094613336 -0.30337277 0.09878049 0.10511875 -0.34119332 0.10557075 -0.07672834 0.2102909 0.17934297 -0.31266078 -0.3180494 0.32436585 0.30862936 0.33051354 0.069070585
student 0.0922081 0.0771295 0.071067534 -0.2681704 -0.123543 0.08979387 -0.042247813 -0.08305684 -0.16150543 0.10497178 0.18100388 0.21507135 -0.05279649 0.090055965 0.03335897 0.011327213 -0.30847198 0.15122944 -0.10640517 -0.0052157296 -0.1750242 -0.1854702 0.12944618 0.061947413 -0.095405266 -0.055972222 -0.07508096 0.044840693 0.14518392 -0.33328253 -0.10862803 0.31812358 0.1871113 0.14695361 0.053483382
minnesota 0.30892688 -0.38294706 0.10325621 -0.1963955 -0.31301382 0.62244475 -0.24647307 -0.011344014 -0.17042603 0.18001294 0.22433148 0.28582904 -0.027522216 0.36974937 0.03494678 -0.10549357 -0.23172018 0.2742464 -0.28604534 -0.06509255 -0.15485907 -0.43148476 0.48799658 0.1486064 -0.16049631 0.052061886 -0.554382 0.14256983 0.43893534 -0.2955776 0.1814962 0.3299515 0.258316 0.304918 0.07654855
work 0.07745039 0.02780897 -0.009972401 0.024749806 -0.10858892 0.18175511 0.052287515 -0.118980534 -0.06462209 -0.029625367 0.39488247 0.17802306 0.059850905 0.13612622 0.05993678 0.03312278 -0.1803222 0.02019242 -0.15198207 -0.14311922 0.080606535 -0.21491225 0.19504446 0.09136267 -0.008500373 -0.10272883 -0.16614415 0.26522782 0.181002 0.052382857 0.039106153 0.1402959 0.23138075 0.16375612 0.11967113
advisor 0.059908822 0.11821879 -0.09275501 -0.12691203 -0.16307957 0.101830155 -0.038023658 -0.058525164 -0.06763069 0.05436205 0.158631 0.2100033 0.038633063 0.2056556 0.044401526 -0.0031661522 -0.26354817 0.047432374 -0.09077522 -0.040950246 -0.14653808 -0.054732963 0.19150144 0.12434595 -0.022311632 0.02997143 -0.13149884 0.07702507 0.02448417 -0.08084024 0.06660386 0.16291068 0.2868716 0.15747786 0.042205516
article 0.027501484 0.07158747 0.01596452 0.01467979 -0.02606456 -0.027952999 0.0036053404 -0.22754242 0.027687296 -0.04456791 -0.049408562 -0.04991421 -0.03728249 -0.09974601 -0.10892294 0.09498621 0.07864599 0.019925833 -0.013146913 -0.032204933 0.045547727 -0.049942475 0.0049917507 0.06144128 0.10727679 -0.017174343 -0.043789364 -0.04733739 -0.045584798 0.12443917 0.009247941 -0.06335354 -0.0044638524 0.04337583 0.043965634
publications 0.15620095 0.117327265 -0.06748415 -0.036554743 -0.06716382 0.046676803 0.22243895 -0.0070783463 0.019325359 0.06262524 0.01821364 0.06162547 0.16895859 0.15535605 -0.08082551 0.08493058 -0.025571758 0.013969098 -0.08331348 -0.05110578 0.036471426 -0.08609773 0.15830508 0.116314575 0.20525374 0.0439002 -0.16478978 -0.014491796 -0.008457587 -0.017364882 0.05688282 0.0377643 0.09798284 0.019262305 0.12764002
plasma 0.045460254 0.2052036 -0.0074354587 0.23642534 0.100627504 0.42968625 0.032432497 -0.46301505 0.12608294 -0.047908567 -0.1493425 0.023183636 0.3139758 0.107156835 -0.21819606 0.25836655 0.015207881 -0.120137185 0.030535975 -0.2298702 0.27755994 0.072796136 0.0043710642 -0.034696285 0.10549405 0.21726117 0.025127716 0.24457173 0.25456205 0.084813036 -0.24549492 0.04947737 -0.1384931 0.32328418 0.11457126
nanoparticle -0.048614707 -0.12193443 0.06481818 -0.05373637 0.06586009 -0.005528498 -0.13295613 0.09034072 -0.21598332 -0.06882763 0.14750637 -0.04614719 -0.19684504 0.0410059 0.039925907 -0.018473463 -0.06405074 -0.04538265 0.111157015 0.07213189 0.18161765 -0.17179762 -0.048454348 -0.01789891 -0.29169306 0.06776259 0.122040674 0.13543367 0.100607105 -0.021500522 -0.024180146 0.009733463 0.122446306 0.03954335 -0.12686379
problems 0.07339508 -0.18375818 -0.18781461 0.27333868 -0.13992767 0.14952531 -0.01969873 -0.20096692 0.24382202 0.1017316 -0.014761345 0.12781894 0.08560927 0.043336615 -0.14330342 0.15465485 -0.051557362 -0.1347111 -0.06596719 -0.06454679 0.2219458 0.14683132 0.072818205 0.10993692 0.07512578 0.16092399 -0.051927254 -0.0077054338 0.097249396 -0.11250654 -0.12746587 0.12615745 0.13798444 0.1560387 0.13512239
search -0.00019138526 0.03457521 -0.2186535 0.26509255 0.090578035 -0.010420381 -0.07078279 -0.07970044 0.1257428 0.003893951 -0.13716581 0.10926431 0.1014741 0.0056085293 0.06586331 0.0348248 -0.04658885 -0.088924974 -0.042848222 -0.0060721873 0.13557784 0.16905749 0.017969234 -0.03931275 0.23399538 0.15655448 -0.04167027 -0.0036218346 -0.089963205 0.059536066 0.029680474 0.04819092 0.006387808 -0.022982655 0.03329514
qualifications 0.01628718 -0.108676694 0.07690472 0.040240224 -0.058189653 -0.016682783 0.1858796 -0.039129116 0.101776026 0.04767471 -0.1000542 -0.028723774 -0.006148766 0.011600397 -0.050576705 0.08256831 0.050667487 0.056000397 -0.03919513 -0.07203078 0.07544267 0.09806509 0.013598268 0.07367409 -0.015472509 0.13423042 -0.016167646 0.022201683 0.027478585 -0.075449996 -0.12430367 0.0026878612 0.110120505 0.024569152 0.10621742
nurse 0.09143524 0.10448771 -0.12647492 0.011593036 -0.10844876 0.056112196 0.12344025 -0.120086275 -0.19939895 -0.09099935 0.2245107 0.05060134 0.0790991 0.024934791 0.1540354 -0.033585913 -0.01615949 -0.084831156 -0.12658356 -0.024813574 0.002011627 -0.2281851 0.16268818 0.113053635 0.11667828 -0.20868438 -0.0752697 0.21624298 0.074006476 0.08630557 0.11430005 0.08760352 0.060610317 0.095045544 0.09808085
references 0.20935196 0.023348764 -0.30792528 -0.023332767 -0.20681223 0.36432508 0.082662046 -0.37162066 -0.16692339 0.12736559 0.31197882 0.4730842 0.35973054 0.2597934 -0.15150553 0.1781153 -0.3506131 0.30243763 -0.2695296 -0.21400091 0.043082386 -0.29642835 0.27410477 0.1688177 0.20041017 0.009178372 -0.28299052 0.30973637 0.23597494 -0.17293085 -0.094024226 0.22666991 0.32382983 0.38028663 0.2365228
filter 0.18408899 -0.0071005267 -0.28283656 -0.060173348 -0.12570341 0.30943972 -0.22001685 -0.25148314 -0.16684951 0.04264807 0.17512068 0.28656343 0.18850371 0.31220502 -0.12548171 0.03664806 -0.45447204 0.12751953 -0.09513654 -0.08741646 -0.0012598354 -0.023300447 0.31599116 0.18485986 0.2345726 0.014816259 -0.19407445 0.09438903 0.22938834 -0.10706673 0.41674465 0.42483366 0.16474861 0.4693981 0.15216525
relevant 0.6204515 0.1912427 -0.15594578 -0.011501892 -0.37946603 0.616516 -0.20641838 -0.6558411 0.086255856 0.23702693 0.62753636 0.4372902 0.4155798 0.402183 -0.25109977 0.17637245 -0.43648747 0.1595585 -0.43082765 -0.43914482 0.33849114 -0.63658243 0.6114556 0.24426934 0.2842267 0.018468004 -0.52161175 0.5863245 0.6950271 -0.6106403 -0.052966833 0.6274421 0.5003784 0.5939966 0.4915784
paper 0.054741766 0.33208105 0.018727303 0.049503192 -0.03040241 0.12771139 -0.13719305 -0.13343307 0.05239481 0.10658062 0.16116351 0.122322075 0.11785991 0.21700571 -0.049595147 0.107195556 -0.07122285 0.11328765 -0.15944786 -0.027423177 0.18281296 -0.12570807 0.01550249 0.068005554 -0.0014863336 0.17702472 -0.20395485 0.21780027 0.02374474 -0.2172864 -0.14363882 0.06566299 0.18623982 0.08047332 0.061693475
nanoparticles -0.08653385 0.026889943 -0.21788016 0.059995424 0.022606932 -0.038671814 -0.08366822 -0.054241017 0.0065378766 -0.19648193 -0.2598008 0.15664352 -0.120329075 -0.15555348 0.17387412 -0.08998746 -0.10362486 -0.3555848 0.16436087 0.12660557 -0.0080995755 0.2742835 -0.12511374 -0.066835105 0.029497035 -0.053026766 0.07918282 -0.31423497 -0.028332021 0.111014664 0.054674 0.04840025 -0.008593428 0.027719073 -0.041740112
minneapolis -0.09049099 0.18581031 0.15286078 0.05278706 0.0145502705 0.30518597 0.068266094 -0.32779992 0.04505849 0.21293537 0.103570186 -0.24504529 0.3126381 0.17408276 -0.28006572 0.32137048 0.056543868 -0.07035019 -0.08284967 -0.2979215 0.07744967 -0.04357891 -0.03731765 0.099229805 -0.15414828 0.029546129 0.014840823 0.21557224 0.25856024 -0.025280137 -0.32610518 -0.17627198 -0.006994521 0.079260275 0.12712796
new 0.1638759 0.12324926 0.025862448 0.08135103 -0.18052657 0.33904698 0.10735781 -0.15655479 0.029792469 0.2037167 0.10779242 0.2375499 0.20655009 0.19775823 -0.20809448 0.22313057 -0.2111619 0.079357386 -0.16109397 -0.19517593 0.0072427564 -0.076496534 0.18924621 -0.0019353643 0.1345065 -0.14725499 -0.20836319 0.20062788 0.26095197 -0.017823339 0.080781735 0.3023128 0.23723319 0.09660399 0.18070279
additional 0.06762386 -0.1421334 0.08492011 -0.0005850767 -0.022203924 0.09032637 0.016202405 -0.011951815 -0.12835433 -0.029457657 0.13815212 0.057199374 -0.07702231 0.011488712 0.02559561 0.129731 -0.14991133 0.15768917 -0.08118109 -0.062069744 0.12843418 -0.34031034 0.086449906 0.08607249 -0.2652616 -0.18715051 -0.15898107 -0.044404835 0.1683706 -0.049437266 -0.3356457 0.064129114 0.09066441 0.13858072 0.065603256
community 0.0011272123 0.10947645 0.025325065 0.19965295 0.05635388 0.53721446 0.26195252 -0.48284113 0.2117279 -0.015125573 -0.13243838 -0.095793724 0.40563455 0.04374921 -0.32474154 0.30469245 0.1316867 -0.17272796 -0.023691362 -0.282253 0.20006983 0.08743256 -0.08908137 0.010313101 0.1883394 0.06003163 0.06040596 0.2895201 0.40841046 0.09469103 -0.1131498 -0.10939095 -0.15262258 -0.002278727 0.10217047
mass 0.03725555 -0.058961194 -0.042256333 0.017319262 -0.06012837 -0.009422767 0.046943534 0.0084174825 0.024637315 0.028900357 0.008713993 -0.047591724 0.03812122 0.046144955 0.018767113 0.054464675 -0.004917961 0.086559795 -0.073476925 -0.090710156 0.06928994 -0.06885355 0.042434856 0.03296163 -0.05313551 0.020575913 -0.012474284 0.10948177 0.115942664 -0.03150344 -0.10102819 0.03718792 0.0383945 0.1237026 0.0644517
a 0.34312883 0.24729235 -0.23387398 0.030763842 -0.24509999 0.39121592 0.030440064 -0.2635954 -0.013874831 0.12013 0.13108788 0.40066114 0.2787742 0.35885483 -0.17633213 0.02572323 -0.33750257 0.017617328 -0.28025967 -0.3256068 -0.015663013 -0.3875516 0.36667526 0.15029965 0.20621234 -0.17963183 -0.3780131 0.22260581 0.58380544 -0.18526492 0.1826752 0.43649185 0.2697555 0.9778958 0.28284028
assistant -0.26649377 0.17914593 -0.043907575 -0.29205582 0.24345715 -0.16503431 -0.22312821 0.23519641 -0.24792193 -0.0923513 0.20377919 -0.3449813 -0.22664167 -0.07275483 0.10677051 -0.15868683 -0.0021730012 -0.118236385 0.21386874 0.1906488 -0.37379757 -0.275287 -0.1799111 -0.1394222 -0.10137681 -0.16102076 0.19093499 0.14929327 -0.12531859 0.21204647 -0.103880085 -0.22655126 -0.053148508 -0.13961768 -0.17666747
example 0.41378355 0.36448163 -0.14809796 -0.08855594 -0.25911742 0.44316596 0.31011593 -0.63395166 -0.12646776 0.016353136 -0.09956215 0.5100807 0.522198 0.49693388 -0.101038404 -0.02282727 -0.5557912 0.2076675 -0.2665759 -0.26959574 -0.046461437 -0.13704494 0.6127943 0.13754404 0.34980002 -0.065853685 -0.48775926 0.16151758 0.24004866 -0.14644843 0.6373754 0.35217056 0.22108561 0.38050377 0.28425333
specific 0.096465304 -0.12144774 -0.25910112 -0.09480229 -0.08670998 0.16223763 -0.536081 -0.008293405 -0.25950134 -0.031295773 0.22608314 0.09388213 0.12182448 0.1926993 -0.07372552 -0.03457911 -0.2894745 0.14655486 -0.06338916 -0.016602142 0.07483224 -0.21273199 0.093596235 0.049935702 -0.11313795 0.08855643 -0.068058066 -0.19041863 0.12301921 -0.10024817 0.052992694 0.20374802 0.16817683 0.1735129 0.05388769
your -0.022665558 0.11099006 -0.27721572 -0.07181706 0.046600815 0.041245364 -0.24117118 -0.13641883 -0.23713347 -0.08289359 0.33818686 0.013829444 0.06960282 0.21009174 0.012437806 -0.10548645 -0.3106595 0.0943896 0.023084398 0.06435056 -0.06356518 -0.2521372 0.011994529 -0.017463323 0.11860281 -0.021252338 0.010381371 0.17829281 0.009503165 0.08217548 0.16126594 0.13668482 0.084636874 0.114614055 -0.0032485013
statement 0.14111824 -0.08409111 0.15207042 0.09281574 -0.20240217 0.3266323 -0.14181978 -0.22619364 0.00022918016 0.090711236 0.27897495 0.086795375 0.2437905 0.20023564 -0.2959865 0.2595385 -0.21002266 0.13332342 -0.19807811 -0.17909236 0.3370324 -0.14606251 0.2646081 0.23932081 -0.10683589 0.05664716 -0.19258803 0.32491758 0.3161148 -0.21766023 -0.37164766 0.20288548 0.35465583 0.21564789 0.19826382
email 0.3001581 0.22021669 -0.2614961 0.07133307 -0.20773306 0.4625364 -0.32069007 -0.46233264 -0.054361805 0.16350743 0.25085962 0.3646064 0.35978034 0.38552204 -0.12876427 -0.0020863093 -0.40383637 0.239917 -0.27950382 -0.24154632 0.106999144 -0.26098448 0.47343144 0.077765815 0.31430447 -0.047479227 -0.348642 0.34313744 0.39325532 -0.162221 0.3715816 0.4479139 0.24026786 0.44130883 0.31428966
quality 0.13134755 0.15525691 -0.58196306 0.41578773 0.001261872 -0.18414758 -0.07795206 -0.22622451 0.42748097 -0.042140607 -0.47770953 0.40913886 0.3390011 0.061886452 0.19580972 -0.082426004 -0.044823583 -0.12928005 -0.029094128 -0.074511044 0.06239988 0.42094168 -0.012549397 0.07801212 0.50886333 -0.03182491 -0.12346453 -0.2887246 -0.16308382 0.11246816 0.37591702 0.3737628 -0.23382072 0.038970243 0.07700669
job 0.058687262 -0.14597368 -0.08035645 -0.06738925 -0.117735475 0.053554904 -0.0005641916 -0.021351995 -0.027508335 -0.013138016 -0.031197945 0.22064628 0.040677954 0.11939254 -0.030857349 0.06218817 -0.28603384 -0.09073904 -0.06836143 -0.057420567 0.002259227 -0.098061495 0.163327 0.087157615 0.17433399 0.14196938 -0.14757316 -0.010278869 0.10142644 -0.05176835 0.037019525 0.24093154 0.29934588 0.29128224 0.059937704
description 0.30300516 -0.28611588 0.29298833 0.02721472 -0.29980826 0.5342489 -0.038802017 -0.4648014 0.23950095 0.30426228 0.24351639 0.028039256 0.07639857 0.21704806 -0.19566318 0.447621 -0.27387008 -0.06127277 -0.41184786 -0.22230025 0.4675075 -0.5092297 0.36662483 0.26796395 -0.032219067 0.2609755 -0.19636814 0.35248855 0.4222535 -0.50686884 -0.60313106 0.35560194 0.43560964 0.39602497 0.2836611
filtration 0.25638244 0.025685921 -0.09587786 0.014660048 -0.21502718 0.19168669 -0.24952516 -0.053101387 -0.037775654 -0.001535542 0.081587076 0.22691067 0.17876914 0.20239079 -0.1641329 0.002867763 -0.13409139 0.017716052 -0.20358852 -0.22823802 -0.0054309964 -0.05304248 0.12876289 0.24644624 0.09933158 0.01023104 -0.26865274 -0.07098663 0.22521198 -0.19366209 0.095411085 0.16227357 0.1644089 0.20303008 0.1896794
verbs 0.10341565 -0.060515072 -0.02886305 0.12437074 -0.25237522 0.13411741 0.27609935 -0.09699086 0.25317842 0.18039203 -0.18512024 0.14213833 0.16763243 0.15321721 -0.18648371 0.20721889 -0.014710329 0.187713 -0.12627274 -0.18256496 0.18636629 0.1540012 0.11906753 0.24592376 -0.016314026 -0.009718562 -0.21151534 0.21719985 0.20012148 -0.26810703 -0.4004449 0.09329164 0.2778187 0.13219352 0.16303982
first 0.070323005 0.077963784 -0.04429286 0.09049343 -0.049618635 0.39075005 -0.15531819 -0.2645651 0.04105194 0.186853 0.12309297 0.13192962 0.31639776 0.21536449 -0.14733616 0.06993438 -0.28391197 0.23377824 -0.07638969 -0.13186595 0.11441317 -0.2952174 0.27539873 0.07471585 0.26855087 0.11263859 -0.14582756 0.73725367 0.20844202 -0.22255836 -0.04881222 0.26012254 0.15145087 0.13990931 0.07521611
teaching -0.063356444 -0.0055295606 -0.041299056 -0.070432134 0.06882477 -0.094222285 0.14642502 0.13570385 -0.015777124 -0.11311403 0.041879863 -0.13276437 -0.08697228 -0.06619329 0.073480174 0.0053088474 0.12473032 -0.130503 0.09307786 0.029072642 -0.13148896 -0.029582353 -0.10558291 -0.047371786 0.03469489 -0.062289238 0.07437005 -0.082500614 -0.09147822 0.028845225 0.080612004 -0.06828686 -0.10216078 -0.14607957 -0.08913174
present 0.14931406 0.02569824 -0.098441705 -0.03582968 -0.10701019 0.2718901 -0.0048080683 -0.34767917 0.0061161416 0.1007752 0.21508294 0.1688547 0.21106656 0.3903119 -0.037170343 0.031947162 -1.240158 0.068885975 -0.06777637 -0.10498948 -0.0021043597 -0.11663377 0.24913052 0.118142635 0.11560919 -0.03292685 -0.12515317 0.5151287 0.1912627 -0.05430124 0.020727945 0.3821465 0.22687706 0.30148825 0.17849244
st 0.2961969 -0.20681505 0.111793086 -0.20369993 -0.24857596 -0.09313435 -0.27768886 0.109041356 -0.26674035 0.23172268 0.1885308 0.27597773 -0.1836538 0.20940626 0.18125603 -0.2287698 -0.33562654 0.10166104 -0.18581013 0.14856161 -0.22753695 0.16066425 -0.06072449 -0.19835663 -0.083511814 0.20719373 0.12763439 -0.1623965 -0.035614282 -0.3490214 0.10324241 0.26691836 0.2901427 0.27227202 0.033976853
order 0.29900506 0.21918754 -0.17596534 -0.06886835 -0.20223977 0.47497633 0.025754659 -0.5739962 0.05528654 0.18815726 0.5348483 0.39215642 0.43336132 0.32464635 -0.14629239 0.09526345 -0.40390608 0.1953584 -0.22382677 -0.2452185 0.16212212 -0.22744039 0.2987634 0.10220933 0.17190282 0.0045634517 -0.3013576 0.4350425 0.38046494 -0.25396058 -0.01341867 0.4510991 0.36012033 0.4830495 0.29243296
study -0.07688958 -0.058125056 0.06111915 -0.08111372 0.020142894 -0.12484177 -0.037488308 0.11298184 -0.07898915 -0.035519283 -0.053103667 -0.09253453 -0.107076325 0.0010300431 0.08835184 -0.102963455 0.051866725 -0.010494325 0.025030669 0.023971977 -0.03746244 -0.10608542 -0.082274966 -0.06660401 -0.10551311 -0.15442018 0.11420278 -0.111549065 -0.13300447 0.067509 0.05936586 -0.07066919 -0.05115687 -0.15051024 -0.07259632
action 0.25157622 0.08196214 -0.022414135 0.06416201 -0.20949103 0.16138978 -0.01976655 -0.24788472 -0.042270534 0.17884447 0.10791281 0.2782539 0.2782171 0.23768575 -0.1522198 0.12531921 -0.17390515 0.29477906 -0.23253472 -0.22476268 0.11510715 -0.24368766 0.2235319 0.09059639 0.15865384 -0.044028196 -0.28306296 0.22150013 0.24492086 -0.2242157 0.08431756 0.19585276 0.24152206 0.24117179 0.22416143
columbus 0.15769754 -0.029480197 -0.074588954 -0.27652872 -0.13470107 0.20855848 -0.17825401 -0.14781463 -0.017814728 0.055347536 0.1358039 0.22575673 0.17574361 0.14956866 -0.13002855 0.13226451 -0.34215212 0.13827495 -0.09133122 -0.10803802 -0.009782028 0.009022107 0.2572462 0.046068333 0.104229964 0.15678099 -0.123717286 -0.0076087285 0.24719761 -0.08085658 0.30061644 0.2779767 0.16592988 0.3807826 0.101392396
ability -0.13100635 0.09851476 -0.09199898 -0.08474852 0.17905444 -0.13761553 -0.20171686 0.103651635 -0.08021984 -0.15555096 0.08257628 -0.07272498 -0.13815899 -0.16203432 0.14873219 -0.18864103 0.06453244 -0.18185149 0.18258739 0.09265224 -0.05263647 -0.050149716 -0.19458567 -0.06927928 0.03707948 -0.09565197 0.19723591 -0.18360351 -0.15047362 0.13706368 0.12596826 -0.0865945 -0.18304737 -0.11880021 -0.15589984
gopher 0.2616176 -0.11377931 0.20570995 -0.22970633 -0.22546035 0.36324129 0.16954593 -0.41863734 -0.041862637 0.3347577 0.33488765 0.0018447489 0.30920357 0.33083054 -0.2452662 0.24149556 -0.3001892 0.19004731 -0.2635209 -0.2884762 0.1494074 -0.18426667 0.3215798 0.23420699 -0.21924028 0.22734578 -0.24512033 0.29997566 0.32375702 -0.27457714 -0.25490507 0.43429708 0.35359305 0.27538568 0.23662311
right 0.06914607 -0.029814685 -0.12109463 -0.12330746 -0.11901204 0.13525069 -0.47827566 -0.059640184 -0.033369932 -0.0109879095 0.35535723 0.066187546 0.05317332 0.18959743 -0.049693897 -0.012604401 -0.2667455 0.069030605 -0.05992976 -0.03731944 0.014945339 -0.10887295 0.03087234 0.13301654 -0.06226335 0.06906884 -0.11675098 0.064095706 0.15375738 -0.05841968 0.3462607 0.11864493 0.07379949 0.18742278 0.019499801
pressure 0.082152374 0.12331153 -0.07224337 0.066784695 -0.011383412 0.14839868 0.066412464 -0.07167063 0.022916678 0.039715152 0.1193578 0.06874464 0.11412544 0.12581874 -0.07700164 0.07088912 -0.2319687 0.033760976 -0.027808957 -0.027588166 -0.05089563 0.09763312 0.07362959 0.043785755 0.06060129 -0.026530227 -0.026647959 0.09695769 0.09998243 -0.025606068 -0.10945209 0.00916705 0.014490819 0.11308161 0.06959836
point 0.28173992 0.08667886 -0.10995623 -0.14404422 -0.28992498 0.39215636 -0.15375715 -0.3893043 -0.16134407 0.22962902 0.35084206 0.29592448 0.4389323 0.3320719 -0.2604737 0.11098352 -0.35756707 0.21946229 -0.24823797 -0.30404577 0.10260108 -0.33081007 0.37288845 0.21204574 0.26606616 0.08187218 -0.4007408 0.26275495 0.36728713 -0.26163882 -0.07572629 0.27319145 0.30380765 0.3402086 0.2741623
loading 0.17483135 -0.11639081 0.47392353 -0.0019672615 -0.27818996 0.36524692 0.008430102 -0.57004225 0.42035487 0.53778017 0.5268123 -0.24648108 -0.13960735 -0.0014939168 -0.29326645 0.53227526 0.058476314 -0.06752892 -0.4434818 -0.24615234 0.46151227 -0.36305344 0.15842439 0.23754278 -0.35814533 0.29714617 -0.042356573 0.5756769 0.3934483 -0.4783367 -0.7304685 0.1166165 0.63329256 0.032366887 0.14018999
content 0.35068733 0.18401742 -0.23316047 0.0058941594 -0.20767196 0.413448 -0.39609912 -0.49251726 -0.067413665 0.113996275 0.2828611 0.35259724 0.36055148 0.39151224 -0.17347357 0.072359614 -0.70400095 0.19577539 -0.13766909 -0.173857 0.040215194 -0.11495313 0.45094192 0.08951076 0.29127312 0.102390796 -0.34481743 0.50287795 0.4022239 -0.13563393 0.26974404 0.39337617 0.21672225 0.43104598 0.23314543
section 0.45359847 0.17982692 -0.34698853 0.00865453 -0.34139547 0.6901259 -0.24502213 -0.70387423 0.072761096 0.22446641 0.29635292 0.40160453 0.57671416 0.45554224 -0.17521614 0.1028236 -0.5102075 0.23015909 -0.4105003 -0.2805226 0.26380712 -0.18867669 0.6450446 0.21943198 0.4063544 -0.0082219895 -0.40307721 0.35238463 0.68249446 -0.36955753 -0.025057957 0.37730756 0.27969208 0.6062388 0.34547135
level 0.012212934 -0.08046643 0.033148155 0.1890383 0.023038758 0.072869316 0.32786304 -0.010689599 0.15263689 -0.05516311 -0.17303544 -0.27824613 0.048586544 -0.07423319 -0.17236732 0.18711527 0.13054787 -0.2300765 0.009138376 -0.08122728 0.2990783 0.13705039 -0.009809064 0.041658204 -0.046455383 0.07746645 0.03414793 -0.02644119 0.093598805 0.018321633 -0.2559617 -0.15579017 -0.010990109 0.06058827 0.010108037
records 0.14282423 -0.18890022 -1.3276003e-06 -0.20452434 -0.25812662 0.32714885 -0.08868435 -0.19002894 -0.23291375 0.1006911 0.32153586 0.36805856 0.14645909 0.257409 -0.1896089 0.062436916 -0.34792694 0.09454831 -0.11070721 -0.061976828 0.21044222 -0.26874167 0.18164001 0.15907149 -0.12760715 0.23749872 -0.25170752 0.13829711 0.2631623 -0.25812957 -0.06816885 0.42767218 0.29684594 0.36367813 0.110344246
may 0.16948724 -0.07562115 0.135027 0.28145528 -0.06868224 0.08540739 -0.23312718 0.007637148 0.1264309 0.09177944 -0.089116015 0.14821118 -0.012257598 -0.00898922 -0.021505862 0.19115597 -0.12612148 0.230586 -0.10111092 -0.06306569 0.18548444 -0.026146205 0.05790933 0.12742524 -0.20516764 0.14309043 -0.12451357 0.1495486 0.18975548 -0.08901996 -0.24798372 0.07725802 0.1343035 0.33887863 0.032715097
2011 0.1052396 -0.45922777 0.5196839 -0.09014598 -0.27031055 0.4638799 -0.039321512 -0.35044828 0.81920713 0.6439446 0.9464574 -0.09499501 -0.122695684 0.047344152 -0.36545533 0.5284502 0.03414716 -0.065486945 -0.46261722 -0.1917994 0.8824362 -0.5808739 0.089127705 0.30055803 -0.17925434 0.4588704 -0.12062494 0.617771 0.46921828 -0.8285443 -1.0307046 0.19011 0.63606143 0.12414175 0.1394856
international 0.14559948 -0.107856765 0.027988829 0.09914994 -0.115088455 0.13434438 -0.018187642 0.044775363 0.10956439 0.12716682 0.42057 -0.06064757 -0.06048021 -0.039766923 -0.17534588 0.13252543 0.018268645 0.009151123 -0.10993313 -0.15856679 0.31536266 -0.23469086 0.0020992495 0.07199022 -0.1220443 0.21521695 -0.01942067 0.21536152 0.09605141 -0.3260788 -0.29118773 -0.025632603 0.061334066 -0.027654681 0.0063224514
advanced -0.24955563 0.1468319 -0.12673125 0.2134667 0.2658716 -0.23630667 -0.1135281 0.076800875 0.12271491 -0.1650681 -0.16602105 -0.08483594 -0.21646175 -0.19578321 0.13883899 -0.109925255 0.13013305 -0.19961238 0.2142279 0.20057338 0.03312208 0.11625873 -0.30956954 -0.20285086 0.12720881 0.056650314 0.25523528 -0.20016213 -0.19736126 0.37339017 0.16080922 -0.08146091 -0.2257826 -0.26553234 -0.22822367
people -0.0050637983 0.08498753 0.021610405 -0.050898544 -0.059412666 0.055295266 -0.045759905 -0.10992466 0.042675722 0.06800951 0.08988187 0.16260752 0.096480876 0.07456428 -0.046870142 0.07863431 -0.06558481 0.060871728 -0.07122977 -0.08177343 0.061728477 -0.007944188 0.026122384 0.08140553 -0.09159151 -0.048599627 -0.026391456 0.017719688 -0.0022633865 -0.14397621 -0.06026515 0.13851604 0.13547078 0.09530345 -0.009377359
entry 0.110967025 0.085702956 0.09104546 -0.07706372 -0.12660997 0.08775702 0.0823369 -0.20538606 -0.044656646 0.0948478 0.038732857 0.14836746 0.07296801 0.08433096 -0.018248506 0.015480502 -0.2565246 0.06948387 -0.15008923 -0.07198506 -0.08707222 -0.055839676 0.12004048 0.017206503 0.027102921 -0.063189894 -0.12653561 0.12065047 0.16067554 -0.08140772 -0.1306482 0.16425237 0.11869782 0.14644685 0.092471085
presentations 0.08236979 -0.01917053 0.0507927 0.15326276 -0.027946057 0.088625364 0.2488269 -0.13541895 -0.054527447 -0.08464725 -0.085906364 0.087824784 0.08389146 0.08672795 0.0397384 0.14163725 -0.014507439 -0.045668565 -0.08854556 -0.13395809 0.2213481 0.0141029805 0.055893276 0.062958874 -0.04512293 -0.00088925334 -0.0989813 0.015558413 0.1277452 0.026541106 -0.04620881 0.050644796 0.08636103 0.043781843 0.11823223
analyzer 0.18052626 -0.39284214 -0.10290548 0.087991334 -0.11971355 -0.25701264 -0.12000612 0.03858488 0.051209345 -0.112209685 -0.12621124 0.31235117 -0.2499215 -0.0761896 0.25781402 -0.17945264 -0.07073153 -0.142031 0.049749553 0.20067579 -0.07799357 0.13027608 0.0094826305 0.046293557 0.18942931 -0.05916697 -0.05397126 -0.30519277 -0.16225466 -0.07730936 0.14072369 0.3918099 0.040748872 -0.04628737 0.07726979
unpa 0.2806484 -0.2149717 -0.24240467 -0.16576648 -0.33354205 -0.112883046 -0.13819276 -0.22332379 -0.12853692 0.11473728 0.3142263 0.28385094 -0.24852489 0.279477 0.21726869 -0.129444 -0.29995817 0.005023887 -0.27921396 0.1777055 -0.19322592 -0.15188059 0.30758396 0.14751488 0.24577487 -0.0032548285 -0.31130132 -0.1014559 -0.02043171 -0.118208416 0.10075929 0.29327273 0.32256427 0.38921186 0.2047167
manufacturing -0.13653502 0.00096781354 0.01705078 -0.046996173 0.15057477 -0.14856805 -0.071532406 0.16198418 -0.09182235 -0.15372406 -0.061708957 -0.16224058 -0.18097457 -0.16075249 0.06413942 -0.11015039 0.007932166 -0.06381452 0.18753338 0.1207892 -0.11323865 -0.06656691 -0.13511308 -0.06887432 0.04574612 0.04859441 0.123587556 -0.05673103 -0.18203947 0.06314355 0.08366018 0.026283225 -0.10749513 -0.1314145 -0.1333086
address 0.11977249 -0.28586996 0.057519194 -0.009419895 -0.22409005 0.13300753 0.08814052 -0.1152293 0.440492 0.36267743 0.47645628 0.1238611 -0.09703294 0.09163659 -0.12572709 0.24819314 -0.13056226 -0.10109659 -0.25916383 -0.17498076 0.20029455 -0.3375921 0.14842796 0.20627105 0.06351809 0.04532234 -0.138426 0.3492322 0.31828386 -0.4912209 -0.68309516 0.22403589 0.43059078 0.1552713 0.18225314
software 0.067643546 -0.06118176 0.08656086 0.121378034 0.01157468 -0.049582567 -0.21440797 0.0039978265 0.16292468 0.07841727 0.06744052 -0.011955094 0.054145586 0.086060226 -0.04711059 0.020961672 0.0203913 0.011684511 -0.07806144 -0.0025158755 0.08485044 0.0205774 0.06426595 0.03867567 -0.058984008 -0.048042588 -0.011313856 0.02214591 -0.03992542 -0.12548766 -0.0034672532 -0.016279552 -0.03771121 -0.02264361 0.06785295
control 0.2858024 0.035916217 0.054160494 0.19047582 -0.10151232 0.13259013 0.12558016 -0.112737514 0.031952795 0.05681687 -0.1587131 0.2947267 0.22979766 0.06107245 -0.028255556 0.056348428 -0.05441371 0.060970813 -0.1267054 -0.155022 0.1966878 0.027187135 0.1573223 0.1412182 -0.020262888 0.08305625 -0.18065195 -0.06448645 0.10508054 -0.1775255 0.015511991 0.14922898 0.11889129 0.08967921 0.13263242
science 0.23184572 -0.021779338 0.013410423 0.0021782997 0.033988222 -0.083938204 0.27509543 0.1128609 -0.25201562 -0.21636236 -0.5065446 0.1943109 -0.056476858 -0.11041937 0.11010618 -0.16900678 0.0945328 0.09144247 -0.05620601 -0.004334888 -0.17607233 -0.082258046 -0.03660097 0.24881718 -0.025390709 -0.16733214 -0.20420247 -0.2088128 -0.05419556 0.141181 0.26165298 -0.08936493 -0.056859337 -0.06129052 0.04134818
number 0.48678294 0.34321487 -0.25731528 0.008665714 -0.30147755 0.9162282 -0.18185854 -0.8113386 0.0040612305 0.1590538 0.6355772 0.616548 0.7977932 1.1463068 -0.12599209 0.12754387 -0.87029064 0.2844472 -0.3339459 -0.3564788 0.19436423 -0.3896298 0.69194466 0.17784141 0.38673002 -0.008859217 -0.6972153 0.8371581 0.6870652 -0.3311442 0.08457869 0.7116717 0.41129768 0.8840433 0.54999626
3 0.16625929 -0.12177027 0.1776629 0.018034417 -0.20183331 0.21675566 -0.064838044 -0.21616076 0.046019163 0.20063564 0.019243706 0.032100923 0.26209065 0.20692709 -0.19516706 0.16696376 -0.08347299 0.1449041 -0.20033503 -0.15628076 0.2673391 0.0028577554 0.20464408 0.1377209 -0.17664225 0.06296663 -0.17517324 0.104019724 0.19545616 -0.2235022 -0.11521206 0.28402266 0.15754667 0.1407517 0.19906485
design -0.04774039 0.06375839 -0.027526246 -0.17962442 0.009427592 -0.21466455 -0.094318345 0.32594758 -0.044288147 -0.007073564 0.18606906 -0.17987855 -0.27473712 -0.35607544 0.061423264 -0.044652767 0.0171749 -0.02878229 0.004844341 0.1406737 -0.07360128 -0.21262698 -0.19857101 -0.1409503 0.0019462206 0.026828438 0.06001708 0.4885529 -0.24058056 0.03115987 0.041541886 -0.22366253 -0.04296792 -0.24153051 -0.052251812
resources 0.011443897 0.11980984 -0.095947474 0.060373176 0.004435764 0.00058286916 0.17280103 0.09289512 -0.0903419 0.048191346 -0.08454988 -0.075169936 -0.25763616 0.061946414 -0.022052445 0.034649774 0.00067094015 0.10970801 -0.10902523 -0.07220494 -0.018240586 -0.09061291 0.06262702 -0.02535722 -0.0057909386 -0.08469559 0.08705151 -0.10509038 -0.031100098 0.04446397 0.115752734 -0.0892856 -0.0446572 -0.041900247 0.026330927
member 0.17134477 0.21241908 0.07183303 -0.10586414 -0.10308475 0.18827653 0.060782284 -0.26300392 -0.124573655 0.14214258 0.12987453 0.02649623 0.098941244 0.08953791 -0.13755195 0.14590618 -0.23557365 0.095738426 -0.13494202 -0.0793973 -0.05802245 -0.1521657 0.20995592 0.106166735 -0.1342857 -0.17832252 -0.09433547 0.16798285 0.16280304 -0.11270941 -0.1794427 0.15581854 0.17766522 0.19624083 0.14644481
examples 0.14009863 0.029323874 0.020843979 -0.019256037 -0.14916612 0.3507411 -0.20308042 -0.42789727 0.021950444 0.11990535 0.4021492 0.21561797 0.27808827 0.3350366 -0.09440991 0.11261895 -0.65568125 0.1512318 -0.106668845 -0.13930711 0.07150417 -0.118970826 0.22692165 0.15064597 0.01512675 0.061144017 -0.15100364 0.73524976 0.24194045 -0.19010654 -0.04503081 0.31908178 0.1930645 0.38982412 0.20338862
writing -0.05423422 -0.14723 -0.08271247 -0.09839145 -0.0063253646 -0.08025169 -0.16309303 0.14159389 -0.21398547 -0.08671039 -0.10560476 -0.054476116 0.007592867 -0.058833886 -0.0019436307 -0.07103271 0.040857468 -0.19492802 0.11420561 0.056692187 -0.1599595 0.13106705 -0.08346093 -0.07643252 -0.055173703 -0.013074989 0.07610178 -0.2005668 -0.07498845 0.09586815 0.18688993 -0.099006966 -0.051238284 -0.07893321 -0.10742055
personal 0.23438866 0.191008 -0.049149558 -0.032707658 -0.16977115 0.44756377 -0.16469595 -0.43768525 0.05902434 0.22748293 0.42669258 0.25416616 0.30517176 0.36138126 -0.21321222 0.11939993 -0.34864205 0.19916548 -0.2594748 -0.22538197 0.10925825 -0.16801378 0.28996685 0.18696612 0.14281465 0.064882025 -0.2792831 0.42075714 0.2853838 -0.15608324 -0.24323006 0.3439215 0.31252772 0.3871499 0.16531678
numerical 0.053137124 0.11772777 0.004559274 -0.049342725 -0.033540938 -0.034506343 0.18746436 0.02267448 0.049752057 0.13070622 -0.05963745 0.1118025 -0.048504274 -0.08375612 0.05123051 -0.025973788 -0.073047794 0.031856228 -0.04032145 0.050030507 -0.028737279 0.17045428 0.042593237 -0.005427561 0.0142660495 0.023427846 -0.035966564 -0.08232269 0.00029574992 0.04273591 0.014844565 -0.14180398 -0.06762786 -0.016831836 0.07837424
goals 0.084338896 -0.10864018 0.124626204 0.16420592 -0.044078413 0.0045325966 -0.02219647 -0.16398843 0.13863526 0.005232296 -0.22629769 0.1731217 0.025286738 -0.026995106 -0.01001177 0.021678763 -0.011047968 -0.0028256087 -0.008501021 0.038824636 0.123321176 0.18003766 0.029015837 0.002904016 -0.14730652 0.17668433 0.045130223 -8.942856e-05 0.031129368 -0.1751058 -0.14337659 0.11562322 -0.03528371 0.06713858 0.011330288
city 0.5901769 -0.56607676 0.11199232 -0.34742096 -0.604738 0.68392926 0.03841888 -0.6638527 0.4535098 0.44714817 0.75128895 0.65225816 -0.21017656 0.49645168 0.15253176 0.44228455 -0.7925533 0.055440195 -0.7374214 -0.23964705 0.26693854 -0.7254854 0.71067005 0.35465625 0.1896275 0.19607994 -0.47884563 0.60878265 0.6579405 -0.7381262 -0.65889543 0.796445 0.78461385 0.7261148 0.6111168
office 0.09313584 0.103241704 -0.059670523 0.028915973 -0.15908907 0.07570288 -0.05762064 -0.03865151 -0.12728557 -0.077013135 0.120009385 -0.0424977 0.048279475 0.087972276 -0.0335794 -0.027215356 -0.21116404 -0.07872586 -0.097810544 -0.075328596 0.058013037 -0.07599257 0.15520373 0.17015271 0.11847318 -0.044845507 -0.077698044 0.119241625 0.15484275 0.24740532 -0.12057986 -0.05205044 0.07799907 0.10110248 0.07172227
position 0.53132796 0.69507504 -0.5137301 -0.0029762082 -0.21682678 0.6615063 -0.36546475 -0.7617007 0.03681512 0.15614437 0.5103593 0.49861723 0.61474717 0.61636406 -0.10787976 -0.007813849 -0.61744106 0.34016907 -0.37710762 -0.4036219 0.0154312905 -0.41203812 0.64742416 0.009038702 0.6640045 -0.22969924 -0.5625749 0.72638714 0.57388294 -0.15963796 0.3398455 0.6465421 0.19293788 0.734 0.48652446
high -0.112569615 0.035760876 -0.19449766 -0.057781655 0.057337854 -0.05918809 -0.071729705 0.09886331 -0.21086222 -0.1789631 -0.106898345 -0.06792891 -0.09945399 -0.011231344 0.05469116 -0.14786033 0.030467946 -0.43060708 0.15534095 0.07398346 -0.07425643 -0.19320054 -0.12433739 -0.010106604 0.06903324 0.026683778 0.073404126 -0.2294727 -0.017668182 0.1582158 -0.14263457 -0.07869078 -0.0157291 -0.08362871 -0.10737344
complete 0.18393724 0.08828725 -0.023766624 0.007390668 -0.22103211 0.35063305 -0.0007424336 -0.20453134 0.023752885 0.096651785 0.09518272 0.28484422 0.19358094 0.1815351 -0.15899225 0.03692517 -0.21207994 0.10909532 -0.19960555 -0.116457574 0.042884137 0.03583883 0.20276617 0.052906703 0.09484261 0.05815041 -0.26256043 0.125055 0.3488067 -0.0653914 0.19277014 0.43269596 0.21155885 0.2860749 0.10473102
statements 0.29597282 0.1209184 0.25571433 -0.28394502 -0.33829463 0.34168467 -0.09595134 -0.041427 -0.12033264 0.21070285 0.23853362 0.23243566 0.08739961 0.29761216 -0.16383737 0.1754494 -0.22773096 0.20109297 -0.25167218 -0.19022475 -0.07993666 -0.32453418 0.2901028 0.25149527 -0.16240762 -0.11417382 -0.31030163 0.2218586 0.30722842 -0.14532869 -0.16564658 0.33038026 0.31259722 0.27100956 0.2532524
one 0.14938203 0.062358618 -0.05242047 0.020980943 -0.057350114 0.18134275 -0.097493015 -0.21955629 0.056357734 0.080733255 0.13535313 0.2338671 0.24230224 0.25240055 -0.080313645 0.04379576 -0.3122943 0.07322032 -0.15330136 -0.090305015 0.029056072 -0.018772548 0.22789167 0.09485876 0.14020208 0.06745063 -0.22634852 0.21831407 0.13884223 -0.09416075 0.07721418 0.17244701 0.19476075 0.24838096 0.17504859
counseling -0.19242042 0.2120039 0.11381661 0.11651539 0.13814665 -0.032220267 -0.27182415 -0.023572652 0.09771072 -0.27367613 -0.1517837 -0.22289318 0.17936945 -0.17769256 0.1880729 -0.20688203 0.24645248 -0.25107136 0.2619437 0.18065059 0.3249977 0.25877896 -0.28237772 -0.21954013 0.13022582 0.23688264 0.31219852 -0.2394158 -0.18750787 0.04037961 0.1934607 -0.20604827 -0.1911464 -0.14789157 -0.2545049
related 0.25022095 -0.11811032 0.026777836 0.25869784 -0.3067876 0.27671936 0.09315915 -0.17042562 0.24346969 0.18736126 0.0665804 0.17765628 0.28333956 0.2670526 -0.12789948 0.22861373 -0.18029892 -0.02637375 -0.2764804 -0.29864344 0.29554114 -0.11545132 0.26959097 0.25391147 0.072025314 0.22992961 -0.32323968 0.13851875 0.25866124 -0.29008842 -0.16949345 0.2992407 0.3362339 0.2747252 0.23863141
2 -0.090473466 -0.2527113 0.0988898 -0.04393285 -0.027505042 -0.13884695 -0.0044192416 0.11425386 0.09009309 0.07956707 -0.032906078 -0.08995118 -0.15562418 -0.16880976 0.045309663 -0.028594458 0.22411318 0.030400153 0.023074439 0.048988055 -0.020587154 0.23247488 -0.13767509 0.04205549 -0.06968664 0.12519403 0.090822406 -0.22399908 -0.121304005 -0.1146925 -0.090363756 -0.20151187 -0.047377404 -0.11992135 -0.079466075
state 0.27263978 0.31518605 -0.7315462 -0.123079784 -0.17553356 0.54104537 0.14014368 -0.83716273 -0.08087845 0.055171616 0.7641118 0.5918368 0.425876 0.69768953 0.1030059 -0.10189095 -1.5301279 0.190662 -0.17200767 -0.13583459 -0.13606013 -0.39514983 0.74173033 0.1816992 0.71044344 -0.35917485 -0.5639129 0.51232105 0.47646078 -0.028882587 0.5239627 1.0284711 0.4846505 0.9095653 0.46673003
relationship 0.28226408 0.10113975 -0.16834964 -0.23289703 -0.23834485 0.30384576 0.041374102 -0.38005242 -0.049052194 -0.04275013 0.22250037 0.40243328 0.20261401 0.26695654 -0.15975161 0.027709149 -0.31119484 -0.14800888 -0.10483875 -0.3066162 -0.12475887 -0.16513826 0.32661474 0.32530013 0.24889877 -0.1142546 -0.2995354 0.07877027 0.5215832 -0.13779542 0.1324756 0.36230785 0.3709461 0.48446605 0.17781019
reference 0.26436892 0.09946182 -0.052531097 -0.03640731 -0.19156358 0.2718849 -0.14018549 -0.2966542 -0.04082158 0.2649215 0.13574255 0.2055977 0.28409386 0.292036 -0.20517895 0.10324122 -0.13140476 0.31112686 -0.2291115 -0.27546313 0.20247087 -0.21044433 0.23600714 0.101710014 0.10749902 0.0879655 -0.33261195 0.19213308 0.2726286 -0.19756271 0.0572774 0.30192515 0.2191856 0.25873983 0.2500845
materials -0.051086985 -0.5388271 0.60220975 -0.09107988 -0.11102932 -0.10538308 0.09319685 0.08540234 0.056352597 0.24768971 0.07794452 -0.1808512 -0.20055865 -0.11418252 -0.11323207 0.21295871 0.21548621 -0.025351958 -0.08134737 0.07121221 0.011607056 0.04151505 -0.12123061 -0.04292849 -0.25352344 0.17367941 0.15796801 0.1336316 0.008389583 -0.1875868 -0.13226606 -0.024645025 0.08174784 -0.1229381 -0.045156162
presented 0.19708717 -0.013107425 -0.08650029 0.046139512 -0.1104073 0.3756236 -0.14290401 -0.6150817 0.03958978 0.09477271 0.11083077 0.20191476 0.4068655 0.7349973 -0.08760504 0.06479215 -0.34107208 0.13585745 -0.19710365 -0.23103261 0.011172507 0.039869085 0.3969713 0.1060188 0.12399492 0.09423369 -0.3015744 0.5735272 0.23707381 -0.14450707 0.1266034 0.4504083 0.1737484 0.3434236 0.16410975
structure -0.030721134 -0.04480075 -0.30135044 0.38672116 -0.033267096 0.10042302 -0.0394039 -0.2608276 0.30538645 -0.028425973 -0.242894 0.20360294 0.011562647 -0.08546265 -0.007413811 0.063781925 -0.14709088 -0.27218354 -0.010604079 -0.03130143 0.3429089 0.3885476 0.038288496 0.01653013 0.14133492 0.13787909 -0.012278109 -0.12627113 0.08081396 -0.08509258 -0.05974906 0.34195405 0.073455594 0.18827406 -0.004930982
degree 0.70700425 0.08371519 -0.26125902 -0.15766433 -0.53401613 0.9005243 -0.09713486 -0.8659763 0.12871425 0.25399828 0.51858383 0.84771514 0.5517042 0.717721 -0.054770548 0.15695457 -1.1522037 -0.053534087 -0.51223165 -0.47506043 0.04986329 -0.49716824 0.6919783 0.30266005 0.5011583 0.13172871 -0.555694 0.4527794 0.5838592 -0.40904078 -0.25762057 0.91243994 0.69767076 1.004897 0.5741701
garfield 0.12817378 0.062296078 -0.09814999 0.17262134 -0.06657667 0.10483083 -0.1496614 -0.1702047 -0.10459779 -0.077334546 0.0865005 0.22112264 0.22439091 0.080629624 -0.006041999 0.013181476 -0.14475507 -0.05167345 -0.11658609 -0.10595041 0.16486977 -0.053460583 0.03510695 0.13576528 0.06433247 -0.05563715 -0.12528364 0.08241355 0.13225721 -0.046408523 0.104474515 0.09176838 0.16283825 0.16269371 0.11326491
heights 0.04147804 0.0622932 -0.033585425 0.024660967 -0.08025096 0.059494313 -0.058320425 -0.010281104 -0.017160328 0.090051405 0.13743043 0.025958939 0.21339844 0.14127597 -0.2513263 0.13531159 -0.15409653 -0.074169576 -0.10067 -0.080952905 -0.004674017 -0.17802072 0.1654964 0.11368304 -0.019381871 0.12427928 -0.13702337 0.17958745 0.15699406 -0.06757767 -0.20830083 0.004570136 0.04040938 0.22061595 0.06406447
many 0.008068666 0.081153736 -0.078408346 0.042453304 -0.09343454 0.07090428 -0.008858682 -0.0457667 0.08764041 0.026435941 -0.038817488 0.026127473 0.019615762 0.11677307 -0.0181226 0.071440965 -0.1497548 -0.08372789 -0.08386059 -0.022896549 0.019873638 -0.11961835 -0.0072509977 0.0933093 0.13717704 -0.15042506 -0.07398245 0.08777498 0.008292524 -0.018750405 0.14568242 0.09299236 0.0037581136 0.061109804 0.07162889
low 0.19754313 -0.0871688 -0.025165604 0.06359516 -0.1865897 0.06042385 -0.01280698 -0.11400056 -0.065354355 0.04155579 -0.03296191 0.113153316 0.10799786 0.058041815 -0.10667066 0.1304338 0.02796793 -0.0009488347 -0.14860667 -0.12025975 0.107125156 -0.07654009 0.0641449 0.15597403 -0.008898988 -0.04855164 -0.1324571 0.013284644 0.09529376 -0.065372616 -0.010785596 0.040435553 0.1594101 0.15433365 0.12887916
system 0.04896134 0.0025891382 -0.03581102 0.13574882 -0.054988276 0.16804293 -0.17607316 -0.18012424 0.13391538 0.038211398 0.011233327 0.0055833384 0.12859668 0.053230233 -0.044532795 0.13586858 0.004764548 0.010926022 -0.0552753 -0.096223444 0.2256956 0.20693313 0.0798132 0.026823094 0.14348838 0.1437049 -0.0027989277 0.09315767 0.039318968 -0.0732092 -0.08560334 0.023472222 0.0731532 0.043575335 -0.004391628
contact 0.2555688 0.13900985 -0.10267963 0.093265995 -0.16708218 0.19556965 -0.11452115 -0.27248335 0.0032401094 0.20951375 0.09456565 0.28125346 0.32142425 0.29025248 -0.1410001 0.09383222 -0.17522784 0.3826012 -0.19342597 -0.22575626 0.04994085 -0.109232016 0.25440788 0.061062954 0.1488087 -0.10376147 -0.27034035 0.18702476 0.18364263 -0.19565602 0.28010637 0.28200686 0.13684022 0.2880768 0.28416598
4 0.16533358 0.046601057 -0.070651114 0.11883858 -0.074533 0.16321024 -0.049534373 -0.24546716 0.054503646 0.15927555 0.11049844 0.1283831 0.16955404 0.25640878 -0.12532987 0.044663534 -0.28189552 0.0775312 -0.19733828 -0.18039604 -0.00040659838 -0.0008711978 0.2136467 0.1162874 0.074686125 -0.005876785 -0.1509525 0.19121756 0.15169765 -0.039846797 0.103629366 0.241586 0.15561713 0.14857331 0.22347349
advising 0.062824994 0.018928658 -0.029788313 0.017134406 -0.03722829 0.10952214 -0.015458052 -0.18857957 0.010550601 -0.02376 0.0792394 0.20122673 -0.001991771 0.0328235 0.011925424 0.026255026 -0.118648894 0.03500177 0.025991581 0.036176585 0.072782174 -0.027849436 -0.004564998 0.0032555533 -0.058503583 0.07685323 -0.04699518 0.015169854 0.059588194 -0.1298835 -0.068872504 0.21202546 0.16469769 0.12544061 0.011296118
objective -0.0010832724 0.12086426 -0.053724624 -0.07357214 -0.07955587 0.036396936 0.077109925 -0.03869426 -0.17049938 0.024150109 -0.030244406 0.03471485 0.020725831 0.084614225 -0.065494195 0.033590823 -0.108496465 -0.13457291 -0.03162447 -0.050757375 -0.018461162 -0.1370637 0.090395205 0.07754064 -0.0648737 -0.26134256 -0.07570882 -0.20208482 0.045082986 0.03291937 -0.17592564 0.01371764 0.109820955 -0.00013039813 0.022972435
bullet 0.2070569 0.015337063 -0.069566324 -0.140585 -0.26434046 0.488377 0.031700283 -0.20277615 0.055293057 0.09282145 0.5347738 0.22702104 0.23583181 0.37043852 -0.082244486 0.08640473 -0.568843 0.016817737 -0.23047374 -0.20039251 0.049600553 -0.4704669 0.28929532 0.16452026 0.04603074 -0.0042728167 -0.31284088 0.13791783 0.2821404 -0.07093324 -0.06746052 0.30762765 0.24313395 0.17272615 0.11411554
curriculum 0.005420164 -0.04021115 0.13846338 -0.0044824514 -0.0075706285 -0.011616379 0.240326 0.006121879 0.034636147 0.06079595 -0.14419663 -0.011185363 0.02945317 -0.033274353 -0.0068771294 0.20323499 0.08132311 -0.15404941 -0.045279037 0.028576132 0.16467561 0.053081144 0.010509437 0.09080234 -0.0050841356 0.040649235 -0.031893954 0.03231904 -0.09707374 0.09486633 0.0015686633 0.007045555 0.024697373 -0.118754074 0.035517782
vitae -0.013838015 0.17814694 -0.14631711 -0.10570164 0.016404899 -0.09923197 -0.03573317 0.1203027 -0.038105197 -0.0136326365 0.19427243 -0.16626391 -0.088213876 -0.004626729 0.017851643 -0.04614799 0.14335293 -0.21315531 0.030107558 -0.008181361 -0.06639523 -0.2626713 -0.042593546 -0.0733221 0.15346813 -0.12943366 -0.026221374 0.12299333 -0.020221641 0.1480847 0.03215105 -0.039589632 -0.02292702 -0.12081858 -0.00012665968
fractal 0.14016339 -0.013738621 -0.018854603 0.15063617 -0.14323243 0.10169484 -0.14142284 -0.08606923 0.08308899 0.0290198 0.04303661 0.16154891 0.09591655 0.16506517 -0.0557904 0.088993244 -0.13125797 0.01817087 -0.12807551 -0.07523048 0.032502085 -0.032709457 0.08643506 0.12245159 0.03166738 0.04898386 -0.16574088 0.10599611 0.14155775 0.021609828 -0.07469252 0.11536011 0.15060693 0.2181487 0.14161232
aggregates 0.124091126 -0.09316593 0.060994115 0.10070468 -0.14692838 0.08548848 0.0031687382 -0.10326151 0.13900435 0.20575212 -0.075463966 0.046868134 0.2188768 -0.04248536 -0.1545212 0.08584909 -0.020336967 0.016461715 -0.121960066 -0.12914546 0.16393961 0.14338583 0.02266435 0.02471034 0.048966862 0.2705863 -0.0188968 0.06740259 -0.047363132 -0.32805818 0.06258627 0.26365247 0.02732328 -0.028518034 -0.013086755
most 0.14149295 -0.06972741 -0.1269401 0.020213623 -0.14610936 0.16490191 -0.149351 -0.15173969 -0.03588662 0.11417537 0.111984394 0.14211902 0.12939945 0.109292164 -0.04697871 0.103598684 -0.22840135 0.11715686 -0.13026679 -0.12264906 0.066850245 -0.017962325 0.12872218 0.10276229 0.10778544 0.085418746 -0.1433337 0.07680661 0.1339799 -0.081079274 0.21382946 0.12258299 0.13267095 0.15931633 0.16502014
years 0.20123528 0.017599352 9.076623e-05 -0.06476495 -0.20958258 0.3783855 -0.026110966 -0.3336905 -0.00521947 0.16355158 0.13856249 0.21359384 0.17783235 0.16283843 -0.14689101 0.18536066 -0.36168846 0.0365576 -0.18736075 -0.14177404 0.110211544 -0.185131 0.2666486 0.17044954 -0.08115759 0.07539296 -0.15853103 0.19022223 0.23449886 -0.36226794 -0.3344577 0.2767362 0.46835604 0.4186015 0.10323656
online -0.020073583 -0.12424272 -0.20360443 -0.07448409 -0.014032323 0.07941353 -0.008828906 -0.022841822 -0.05557649 0.07849667 0.11946361 0.17156927 0.029053474 0.103124596 0.027382815 -0.02783252 -0.1971098 -0.02711399 -0.0007172902 0.019805035 -0.05827426 -0.017343443 0.10069969 -0.15349129 0.18794695 0.07790073 0.09037391 -0.002562853 -0.053976715 -0.08890165 0.019960059 0.24012148 0.1711056 -0.1741014 -0.081421606
application 0.51269495 0.37548184 -0.34699893 0.09106355 -0.37344924 0.6427192 -0.19800632 -0.80156803 0.25126708 0.2661495 0.69395494 0.34407106 0.49421558 0.5320491 -0.19654934 0.2569032 -0.61240435 0.09582542 -0.4218209 -0.35771522 0.42448285 -0.6046661 0.5937342 0.21602038 0.44651234 0.1642761 -0.51780784 0.7133204 0.73614836 -0.48754632 -0.27894947 0.75474364 0.52869546 0.58547693 0.50622755
practice -0.3169127 0.07671366 -0.05006709 0.14654696 0.18574028 0.06657367 -0.060732983 -0.13003367 0.14447968 -0.15860601 -0.22521433 -0.25074515 -0.081168026 -0.20705487 0.055659346 -0.089902066 0.13678308 -0.18015896 0.13273181 0.08845032 0.18157168 0.20820288 -0.3089038 -0.20664877 0.1355846 0.18288235 0.26964575 -0.13835347 -0.10136418 0.20147595 -0.10847247 -0.15892117 -0.22713459 -0.2087013 -0.18374158
resumes 0.29598626 0.17130315 -0.14353287 -0.05872878 -0.13651799 0.20774086 0.07116138 -0.29671252 -0.0449027 0.16266704 0.04255272 0.31314006 0.3247754 0.3394413 -0.06803637 0.103909016 -0.2870184 0.20173699 -0.23259105 -0.26143909 -0.07401192 -0.06662237 0.22105637 0.121316254 0.23383528 -0.08224448 -0.19524473 0.29737988 0.19654647 0.023088994 0.044711165 0.3365577 0.15860583 0.17404567 0.25348157
tips 0.42777628 0.3011387 -0.3451179 0.06440253 -0.19417937 0.32957268 -0.24184954 -0.4094703 -0.0109191 0.17941597 0.21442354 0.375416 0.36376384 0.3621184 -0.13488252 -0.004946005 -0.38350192 0.5544162 -0.29735568 -0.33503723 0.030056795 -0.38923264 0.36329734 0.018829502 0.3803268 -0.39310774 -0.4577285 0.32085392 0.33853805 -0.20365235 0.45317462 0.36564606 0.24100953 0.38312706 0.36588407
findings 0.0953305 -0.11586109 0.11711693 0.15781996 -0.106303014 0.022980364 0.08841542 -0.029175777 0.22890416 0.0036046803 -0.01982993 0.040781002 0.061675873 0.0062470413 0.13500169 0.10876316 0.04547043 0.05443775 -0.12012461 -0.06663454 0.17073077 0.10550475 0.03894323 0.17844187 -0.21653992 5.311315e-05 -0.102504365 0.108513586 0.11679733 0.08029538 -0.34108347 0.014507854 0.050299186 0.04004102 0.16429512
communication -0.1002175 -0.029028866 -0.014802175 -0.03896714 0.06931468 -0.033610377 -0.118952736 0.12102558 -0.047409628 -0.056974635 0.22765237 -0.07390251 -0.14930321 -0.12425418 -0.01852701 -0.05341687 0.07479601 -0.05708566 0.14229116 0.13291094 -0.05850629 -0.12645724 -0.07759574 -0.025903605 -0.12898842 0.017457034 0.06708877 -0.037389882 -0.012041332 0.033778448 -0.04988759 -0.09832543 0.0024798578 -0.05028249 -0.09747677
results 0.12684132 -0.04634431 -0.20342074 0.41564697 -0.10304765 0.087284066 0.016995266 -0.33152246 0.14167553 -0.20540687 -0.10568399 0.23113881 0.07044764 -0.043477222 0.0701413 -0.038213726 -0.044166863 -0.22061734 -0.09984852 -0.069599494 0.35154018 0.14180295 0.0803375 0.15319045 0.20537722 0.17142075 -0.11490339 -0.043084547 0.021924702 -0.009604113 -0.03212159 0.28550088 0.14987084 0.17876685 0.12910976
avoid 0.20124587 0.08044317 -0.09618699 -0.11483869 -0.1778097 0.34709364 -0.010912568 -0.3765713 -0.06377957 0.19200729 0.21120444 0.22278976 0.34618878 0.23932603 -0.07997888 0.18746117 -0.2061185 0.12085588 -0.25803593 -0.22066608 0.0131677445 -0.24514382 0.2820841 0.11648358 0.18032332 -0.036492947 -0.3043476 0.3066471 0.33299658 -0.12991337 -0.017135415 0.24111956 0.1593253 0.3199733 0.26962608
awards -0.00896403 -0.34188896 -0.011385128 0.019694889 -0.073660575 0.0012771636 0.08276024 0.049700394 0.14618836 0.036645092 0.029087853 -0.0036122776 -0.0906318 -0.029350193 0.0010661461 0.094853595 0.06078087 -0.023842566 -0.042792078 0.024549041 0.10276302 0.24286231 0.012143966 0.12513426 -0.50918293 0.08589328 0.025047546 -0.017744463 -0.0004449729 -0.11605231 -0.12805875 0.07081902 0.09323251 0.018619921 0.09064033
way 0.0666145 -0.079679504 0.1978781 -0.229321 -0.20016491 0.16576558 -0.014370645 -0.33671033 0.014555604 0.22081158 0.3725859 0.25802732 0.0686134 0.18153548 -0.1440212 0.16774674 -0.16394436 0.09084863 -0.16513886 -0.09057251 -0.0117698265 -0.56045395 0.1498307 0.13382925 -0.11148651 0.14298564 -0.14351313 0.19094785 0.14325693 -0.18589403 -0.29223356 0.37935412 0.35545287 0.22689496 0.11992139
employer 0.30950394 0.39165872 -0.11959686 -0.16184191 -0.17139055 0.38037622 -0.091091335 -0.6395997 -0.0687411 0.09743858 0.16891107 0.55079514 0.4298509 0.3926397 -0.055922486 0.07429899 -0.46655738 0.25926942 -0.250482 -0.16655244 -0.012808094 -0.21681575 0.29791597 0.09571857 0.29785946 -0.021447564 -0.31812713 0.22569354 0.16376579 -0.7467444 -0.016083352 1.0995227 0.22520244 0.41958034 0.21474552
employers 0.35119557 0.2121551 -0.027103506 -0.008791997 -0.16904122 0.56433225 0.063064195 -0.507016 0.016609196 0.18119177 0.17276692 0.355131 0.20192991 0.22747636 -0.10466548 0.021372845 -0.48152354 0.057098128 -0.2828085 -0.26335284 -0.0062273545 -0.28474277 0.3814589 0.083915725 0.17329012 0.00929524 -0.3270117 0.32775354 0.3142642 -0.27583387 -0.10478829 0.7001309 0.38277695 0.2680724 0.22618079
age 0.1651471 0.016001182 0.112319775 -0.12556535 -0.2958665 0.31387514 0.0022266395 -0.28776088 -0.10174923 0.15911365 0.23421195 0.19165485 0.19779007 0.27250645 -0.0906226 0.14758034 -0.7147445 0.09144724 -0.2027337 -0.114742815 0.06130814 -0.17899086 0.24351212 0.19028147 -0.03745628 0.04526117 -0.17135218 0.1618185 0.32703918 -0.2604398 -0.19930828 0.49130085 0.413081 0.41514885 0.13390134
scholarship 0.39078134 0.32079008 -0.51047236 -0.12376983 -0.28134042 0.54608446 0.081697166 -0.527156 -0.088023186 0.19124123 0.22774103 0.3689556 0.6048299 0.53125525 -0.10185088 0.05770063 -0.54106635 0.12542883 -0.32705247 -0.26477733 -0.058917843 -0.21700174 0.34943876 0.20918894 0.42291677 -0.029980468 -0.34184748 0.29223293 0.33360457 -0.08670135 0.01083156 0.58439773 0.35180262 0.44222468 0.27309772
clinical 0.111647315 -0.12786001 -0.083145514 -0.1318627 -0.12177265 0.09728998 -0.0063565397 0.092406385 -0.102376185 0.03192257 0.1435386 0.030190809 0.09644764 0.15725024 -0.14862935 0.020418284 -0.11690492 0.14283343 -0.04371472 -0.09031266 0.016359143 -0.09312361 0.083277605 0.20405377 -0.113647945 0.11538435 -0.17852625 -0.013626665 0.07499846 -0.07448894 -0.07129398 0.097595364 0.13235214 0.05764331 0.03269868
september 0.18860063 0.15383005 -0.2878643 -0.099009246 -0.1914084 0.40794814 -0.52063423 -0.43410563 -0.12784104 0.101060465 0.36742038 0.24932644 0.29600805 0.4447488 -0.12332097 0.011027497 -0.67367995 0.24370399 -0.13327813 -0.17538872 0.11542823 -0.17708124 0.31497025 0.1854336 0.3409669 0.0853111 -0.31920433 0.47827113 0.30585963 -0.22148773 0.43657905 0.46902326 0.21836327 0.47323617 0.18510704
gpa -0.00030689331 -0.005543383 -0.15994956 -0.026194021 -0.01609528 0.11807346 -0.13169248 -0.17554958 -0.032555576 -0.01949857 0.18664108 0.07846854 0.0685275 0.20565794 -0.06325417 -0.021063942 -0.16417111 0.068185344 -0.061608903 -0.033710998 0.043908548 -0.07102711 0.06372157 0.12380582 0.06583685 0.01354813 -0.08958087 0.18844342 0.10333791 -0.037640806 0.10592449 0.16467698 0.09417657 0.104411945 0.054210443
different 0.23297812 0.11457296 -0.1030883 0.017780779 -0.13525096 0.27520552 -0.14785746 -0.26452526 -0.058621813 0.18495265 0.094280586 0.29036406 0.31328046 0.26669917 -0.17808345 0.033656776 -0.19809243 0.24924183 -0.23747116 -0.23535267 0.13202137 -0.109499276 0.24949495 0.113819756 0.099061996 0.019214476 -0.30004686 0.23767686 0.20666397 -0.12758923 0.23032518 0.22663978 0.22058406 0.32766333 0.2510704
feedback 0.17422815 -0.21397659 0.15933812 -0.05266075 -0.19573334 0.13003606 0.026271414 -0.21317829 0.013196009 0.12559086 0.14905488 0.08496337 0.09735595 0.093813986 -0.14987686 0.1389206 -0.1982342 0.10597797 -0.15632111 -0.09997462 0.08821529 -0.14246729 0.13788031 0.13584475 -0.06409653 0.077812225 -0.13918228 0.1696028 0.19419669 -0.17906992 -0.22695403 0.1379642 0.21877865 0.21165866 0.20484851
managing -0.13497034 0.06790935 -0.06690939 -0.058990646 0.12997788 -0.12697412 -0.05266373 0.10384475 -0.056618318 -0.0680574 0.11129212 -0.1344942 -0.117108256 -0.04444329 0.095672175 -0.11680356 0.07543034 -0.12453106 0.13090485 0.06993463 -0.110774264 -0.05480901 -0.06430057 -0.060309783 0.045894742 -0.0631279 0.11199532 -0.11002731 -0.07178694 0.11279644 0.10525752 -0.10070278 -0.084568135 -0.0881163 -0.057638925
paul 0.20075972 -0.059255406 -0.24997222 -0.07396695 -0.1489555 0.18028206 0.006915494 -0.16472428 0.091409 -0.07381526 0.30171546 0.25639212 0.12806451 0.05849201 0.23577783 0.08340454 -0.21572728 -0.22194472 -0.1110503 -0.05475413 -0.0022096257 -0.15399908 0.24410716 0.21683647 0.34856266 -0.038479153 -0.094051294 0.07106031 0.107931234 -0.126605 0.047337793 0.26508072 0.2803299 0.27188486 0.2148922
experimental 0.14486025 0.051189303 -0.15383916 -0.020024955 -0.16557358 0.21770766 -0.2542671 -0.20275192 -0.07020383 0.029287525 0.23276687 0.15638714 0.16151349 0.25097987 -0.14577028 -0.006674818 -0.48144504 0.1258974 -0.087267585 -0.12263322 0.024646182 -0.07289331 0.19457671 0.108635806 0.03848086 0.09746078 -0.1635488 0.16006581 0.21203564 -0.12960698 0.21919213 0.2737705 0.143337 0.2895852 0.11615591
requirements 0.24827987 0.8932281 -0.39861462 0.07583596 -0.12117817 0.63774097 -0.15746006 -0.5244935 0.14014444 0.255092 0.26616377 0.26041985 0.7554918 0.672498 -0.15952632 0.07384486 -0.5675965 0.45134744 -0.1693306 -0.14921865 0.10230514 -0.25593722 0.53946495 -0.02831526 0.7589277 -0.1099405 -0.35741338 0.7062339 0.24189979 -0.227327 0.1440857 0.6917841 0.1402361 0.1701147 0.15447745
universal 0.14231285 0.10927936 0.068123944 0.2634052 -0.049855344 0.0068840017 0.2546737 -0.2418856 0.22225551 0.24191858 -0.22992373 -0.007835724 0.15670647 0.044420756 -0.09250863 0.28253976 -0.11191284 -0.018590078 -0.13882735 -0.19756597 0.06961909 0.2753919 0.06928313 0.038648225 0.18010575 -0.13418187 -0.039444957 0.22898176 0.06273609 -0.09534328 0.06478279 0.10526104 0.015303741 0.06346962 0.22595853
transferable -0.11109122 0.009607368 -0.10900993 0.01699781 0.09065127 -0.12865722 -0.11390014 0.021172816 -0.0091406405 -0.104476064 -0.042441957 -0.096005686 -0.09768709 -0.11921619 0.1385004 -0.15251072 -0.03996326 -0.09773855 0.13767602 0.07896777 0.04098457 -0.0020411732 -0.14669997 -0.08597045 0.07434352 -0.03311033 0.11475783 -0.070398696 -0.14940949 0.08844875 0.018589646 -0.013674081 -0.1798505 -0.015813554 -0.13494383
use 0.36579826 -0.025078151 0.039188966 0.118800946 -0.29637456 0.7790249 -0.22543176 -0.99290186 0.1972551 0.26797035 0.45876932 0.26768452 0.55754405 0.6682281 -0.18594761 0.2681574 -0.613814 0.102729574 -0.3959569 -0.33835453 0.28600296 -0.48530293 0.68124557 0.26802146 0.21585952 0.22922148 -0.47507823 0.67379814 0.59952503 -0.40379655 -0.3226455 0.8498273 0.5614848 0.60124 0.4965743
studies -0.024483059 0.059757058 -0.15211475 0.14500555 0.050343256 0.03978516 0.04178565 -0.25031734 0.22894189 0.036581993 0.05440504 0.03367427 0.044153463 0.0345231 -0.074637204 0.11668583 -0.07628923 -0.11107468 0.015841907 -0.007599919 0.25984338 0.13380373 0.049505062 0.05458784 0.048115328 0.20575577 0.0360468 0.018783147 0.02901229 -0.09715189 -0.24934724 0.0508676 -0.031994253 0.19662544 0.045635212
various 0.10373481 -0.007009926 -0.3998145 -0.11848274 -0.09486162 0.41000855 -0.1879128 -0.12556915 -0.20939088 0.07684274 0.12850277 0.27177358 0.18092826 0.35994926 -0.116699025 0.0069824867 -0.67206687 0.2889057 -0.14530122 -0.095358744 0.042716693 -0.19146468 0.2984202 0.037380386 -0.07587501 0.10933237 -0.20364916 -0.026353013 0.32594326 -0.21763097 0.21409479 0.4272774 0.276079 0.35735872 -0.004297565
organization -0.040826607 -0.073642425 -0.101312034 -0.0764874 -0.07055436 0.13220675 0.05897737 -0.10745417 -0.04403242 0.03112662 0.21173435 0.22921152 -0.07420469 0.04529344 0.09758788 0.100459576 -0.23945288 -0.1070694 -0.0474124 0.026761703 -0.15714411 -0.1599926 0.18299532 0.11544469 0.084703684 -0.07676546 -0.14102802 -0.05106431 0.18573922 0.10412039 -0.10711632 0.28939798 0.20767434 0.21119842 0.09568383
device 0.05000973 0.023474902 0.010354201 -0.16967098 -0.19121318 0.21683346 -0.10958595 -0.18430878 -0.12862386 0.10968801 0.18696454 0.015442916 0.062089417 0.21922413 -0.057517335 0.042924292 -0.35529974 0.03517199 -0.18102387 -0.0893596 -0.018208558 -0.17214127 0.12978537 0.10925588 -0.16885468 0.029368313 -0.12440048 0.1178315 0.19209597 -0.07326558 -0.22659346 0.012224368 0.1793883 0.17939351 0.04877638
industry -0.13831569 0.058265436 -0.0140533075 -0.243315 0.1366833 -0.07164098 -0.15382896 0.17704207 -0.18135197 -0.10048984 0.19847168 -0.10243007 -0.12384166 -0.12150233 0.08640433 -0.10103221 0.074901715 0.024289569 0.18505171 0.115173414 -0.20764709 -0.12803113 -0.11088154 -0.07919755 -0.11503361 0.06097481 0.13209316 -0.10674118 -0.056055978 0.14191613 -0.114581406 -0.16463423 -0.025987765 -0.11714 -0.1771777
time 0.19368297 0.18624476 -0.037655108 -0.14312764 -0.10500136 0.41085696 -0.06204149 -0.9926456 -0.08888298 0.14646216 0.20953283 0.3596022 0.37285498 0.3344531 -0.18230245 0.12770136 -0.5006934 0.17506225 -0.20708854 -0.19964516 0.019358616 -0.2452973 0.3182708 0.14791273 -0.04610719 -0.0054609883 -0.27886033 0.22919382 0.3057454 -0.5060765 -0.089436986 0.2674921 0.3990067 0.3741915 0.09808054
master -0.071608 -0.09214139 -0.060057085 -0.12769327 -0.0037650794 0.01308019 -0.10906232 0.12697743 -0.10949188 -0.22226724 -0.4752635 -0.020157147 -0.15056339 0.009059155 0.05341603 -0.26456985 0.041533116 -0.17583713 0.104156345 0.048151262 -0.0254128 -0.14506465 -0.085224144 0.116037734 -0.15213986 0.029277207 -0.0019569066 -0.38433024 0.02767726 0.29893735 -0.23468514 -0.0015074923 0.13277891 0.08766258 -0.13657019
knowledge -0.2753501 0.0061922087 -0.05453291 0.1155063 0.31555665 -0.3074286 -0.22638093 0.25854418 0.032928213 -0.29127583 -0.025808994 -0.28951216 -0.29892075 -0.32276508 0.20435978 -0.2921015 0.1599076 -0.06949456 0.27248606 0.251503 -0.105878964 0.051858094 -0.23696877 -0.27614784 0.017564353 -0.039129145 0.2514265 -0.13318384 -0.32874608 0.28842908 0.17343712 -0.07645731 -0.27216586 -0.33226067 -0.26361576
process 0.19874723 0.07013658 0.16827704 -0.13831997 -0.20923668 0.22516783 0.19347492 -0.20167972 -0.08200066 0.15005827 0.2650253 -0.13319091 0.17782992 0.20934455 -0.16038962 0.20933226 -0.18354185 0.1454169 -0.23582835 -0.13447343 0.008578207 -0.18865629 0.18218285 0.12455296 -0.2014321 -0.073880546 -0.19235031 0.23303796 0.25313216 -0.26509687 -0.19817053 0.16285402 0.22549899 0.27272698 0.16185687
author -0.17674804 0.22050448 0.044001456 0.14874808 0.1667742 0.0015473902 -0.05929435 -0.006206389 -0.026099797 -0.15969111 -0.11385046 -0.27661273 0.008564687 -0.22057317 0.004555119 -0.0445358 0.107819386 -0.15814789 0.19071507 0.08454367 0.13626334 0.01297337 -0.24624333 -0.17397206 0.11806065 0.06622909 0.2765892 0.17689617 -0.1407401 0.23684642 0.020917332 -0.26934385 -0.27748328 -0.25480443 -0.17372312
memberships 0.3432723 0.34244272 -0.31640625 -0.14033082 -0.25994363 0.38015458 -0.2572799 -0.38865063 -0.20711628 0.26788655 0.25143588 0.3144846 0.41473165 0.38827762 -0.1714899 -0.07501798 -0.34521085 0.64831614 -0.26272708 -0.28875148 0.076083675 -0.39861515 0.3970489 0.13317521 0.2613028 -0.42563048 -0.37399805 0.27204636 0.32908043 -0.23316686 0.46753973 0.32910514 0.20827447 0.38475403 0.2972906
courses 0.1702498 0.15245464 0.053377077 -0.05855616 -0.101036616 0.20713171 0.06621618 -0.39590314 -0.036028802 0.1550784 0.07765383 0.11165136 0.21690041 0.071284674 -0.054808702 0.13802475 -0.22661728 0.11135591 -0.17936376 -0.13562907 0.009829802 -0.12353486 0.21529996 0.15341447 0.012296078 -0.022685189 -0.21391355 0.16653891 0.108399674 -0.3078008 -0.100166045 0.22432382 0.19277635 0.20530173 0.13005774
dust 0.08484443 -0.009389738 0.044237368 -0.2175798 -0.17588247 0.1809797 -0.11919573 -0.093071006 -0.24416576 0.12097068 0.30656442 0.080684945 0.005891763 0.062360674 -0.10189219 0.20880161 0.001068063 0.17813534 -0.15051141 -0.032746285 0.19246395 -0.18318428 0.066963956 0.23396842 -0.0048615476 0.024480028 -0.0829133 0.105652906 0.16576383 -0.41875002 -0.03589368 0.20457682 0.19072165 0.2533231 0.104232684
cake 0.17902143 -0.006225573 -0.04274488 -0.14454658 -0.15950024 0.22126552 0.029265227 -0.16150486 0.09914694 0.1200875 0.2863742 0.39506245 0.079420194 0.4709125 -0.06907154 0.10336842 -0.20125799 -0.024524787 -0.18814868 -0.11190895 -0.052196886 -0.1025544 0.25747204 0.1155335 -0.03824897 0.038784463 -0.19822824 0.09932541 0.14132722 -0.008675845 -0.038198065 0.13410611 0.20925124 0.35093546 0.17351328
laboratory 0.060765408 0.19500364 -0.027751636 0.007841141 -0.11125895 0.11815302 0.014172014 -0.06475692 0.0050635696 0.0030344992 0.36989716 0.051865257 0.018206893 0.06533107 -0.07645341 0.038590346 -0.117175005 -0.06341722 -0.10818747 -0.12426463 0.0050365394 -0.2484819 0.02577326 0.05459011 0.13952243 0.01651489 -0.04852513 0.2748088 0.07784986 -0.026611187 -0.24677888 0.0053744805 0.08071005 0.066838585 0.10366823
meeting -0.07060218 0.18137465 -0.10199866 0.03263212 0.07978288 -0.07693759 0.07025813 0.05865113 -0.1655276 -0.20405723 -0.079930134 -0.023005644 -0.36777595 -0.09527086 0.09682058 0.011274619 -0.0154921105 -0.18171042 0.07929498 0.067606375 -0.06015307 -0.19365355 -0.01000773 -0.022246193 0.027649213 -0.09816909 0.06313732 -0.13367352 0.030272562 0.16914405 -0.0576158 -0.09366741 0.026597707 0.08950821 -0.086274095
annual 0.39153126 0.36346874 -0.11115804 -0.052473404 -0.18646333 0.7391184 0.0063482528 -0.35065824 -0.08678255 0.015765348 0.52794456 0.2442428 0.20943876 0.24811567 0.07490769 -0.16303432 -0.20158373 -0.018982029 -0.21367106 -0.016745217 -0.019138893 -0.16735727 0.23191516 0.08153862 0.25105026 -0.116845705 -0.2492573 0.09493371 0.558937 -0.042418007 -0.0003574749 0.24933168 0.55596584 0.21728984 0.24651998
verb 0.16774665 -0.122213274 0.22390726 -0.15187217 -0.14686936 0.19099897 -0.08922965 -0.2271888 0.012102801 0.17970002 0.11709717 0.16252759 0.12528984 0.1507841 -0.06233863 0.18738535 -0.15742707 0.05829193 -0.22659276 -0.16095771 0.19059366 -0.13547294 0.23655616 0.11460561 -0.0033880037 0.13593733 -0.17555122 0.17911345 0.17056857 -0.14175971 -0.24677435 0.19557625 0.17895676 0.14218627 0.18467788
ms -0.0032711988 -0.1120302 0.0035215009 0.10194936 0.004172648 -0.026545387 -0.11891797 -0.03222405 -0.011534561 -0.024058457 0.09790556 0.031001719 -0.0544492 -0.0038555642 -0.00050362915 0.08404413 -0.060971387 0.08743645 -0.016231192 -0.050421715 0.11328513 -0.04108172 0.050827265 0.0090554645 -0.15973184 0.01754001 -0.0044211354 0.057875644 0.0617137 -0.03478293 -0.15597242 -0.0056297877 -0.030282088 0.098947115 0.015763566
project -0.068086065 -0.16812243 0.18316938 -0.24740216 0.029872848 -0.179587 0.03127537 0.22942388 0.1687105 0.35611826 0.06029704 -0.20600727 -0.12645157 -0.10993412 -0.15194872 -0.01582782 0.2153282 0.042031042 0.061592482 0.051078085 -0.09255968 0.27538607 -0.11892165 9.104117e-05 -0.1893425 0.18137765 0.10634128 0.05646252 -0.064808965 -0.13942583 -0.1517216 -0.13895234 -0.064777575 -0.13670339 -0.08555571
areas 0.3406903 -0.045621272 0.0132916225 -0.09758279 -0.2624333 0.3342646 -0.26347888 -0.37871033 -0.053601876 0.24563867 0.15710081 0.037198 0.2793527 0.24647574 -0.17981952 0.242253 -0.30624568 0.041302163 -0.31083122 -0.1863482 0.21411383 -0.21875048 0.30898654 0.15720518 0.049460847 0.17277691 -0.2715574 0.3014882 0.29194033 -0.2876597 -0.114808865 0.38880098 0.34851786 0.2847521 0.30944172
details 0.20398563 0.11248995 -0.045444444 -0.15192729 -0.21967638 0.38209444 -0.16435167 -0.4568351 -0.08302201 0.18753457 0.32610556 0.28806132 0.2800195 0.3962479 -0.21724701 0.12683673 -0.47558057 0.2451894 -0.27047384 -0.24134125 0.08816271 -0.19870114 0.28993532 0.21356258 0.020210814 0.049464304 -0.30437797 0.37769076 0.35863718 -0.25600109 -0.08726877 0.39133465 0.4279341 0.35011297 0.15004349
portland 0.16555709 -0.024056818 -0.053002838 -0.048568495 -0.11366653 0.27426478 -0.20839415 -0.25186998 -0.03533515 0.13612814 0.08319176 0.23323144 0.15759753 0.31375962 -0.12891687 0.056999385 -0.8401508 0.16133758 -0.16649196 -0.14908926 0.081012614 -0.03730388 0.21180098 0.08204843 0.044596933 0.024183948 -0.16450194 0.22404182 0.20486546 -0.08601643 0.26675978 0.35214534 0.2048714 0.36080092 0.06882907
pages 0.34194115 -0.12043092 0.06192527 -0.12112334 -0.2608146 0.29754174 -0.109278 -0.21711405 0.10789906 0.15147357 0.1671223 0.08823558 0.1681024 0.46418637 -0.28073677 0.22445011 -0.4186691 -0.10274269 -0.24880034 -0.32544813 0.16510357 -0.33116576 0.36931556 0.22042687 0.06297399 0.10907071 -0.18124855 0.26818138 0.24903373 -0.20605493 -0.1556754 0.27871004 0.26941565 0.27131823 0.27926892
presentation 0.18051948 -0.18119171 0.08454712 -0.13554491 -0.22042498 0.24588284 -0.007561679 -0.3103589 -0.11216436 0.31059965 0.18780945 0.13651338 -0.019671451 0.21306136 -0.10973335 0.24617377 -0.1719903 0.1034 -0.33483997 -0.20087345 -0.23697704 -0.25011924 0.22596955 0.16993354 -0.026311595 -0.007836151 -0.23491645 0.2270595 0.22099057 -0.15864779 -0.14110425 0.31733984 0.26416373 0.18006136 0.25630975
measurements -0.077273384 0.008561796 -0.1325591 0.30486694 0.067939386 -0.013445701 -0.05163601 -0.09102562 0.21907243 -0.03428994 -0.13185383 0.10063349 0.074439414 -0.029089913 0.07789406 -0.14572762 0.08683819 0.05537743 0.044022482 -0.02428959 0.16063847 0.1999635 -0.03373483 -0.10450994 0.2228432 -0.011113415 0.014004362 -0.12573598 -0.1086916 0.18259344 0.24694192 0.26139683 -0.14167714 -0.0940059 -0.041979823
date 0.1430345 0.037391745 0.033655882 -0.08211268 -0.15447575 0.3819243 -0.005686001 -0.5073358 0.07874091 0.14601041 0.2464101 0.11387282 0.18358256 0.20456834 -0.071930684 0.23188688 -0.4357274 0.071080536 -0.17702876 -0.09292093 0.08722748 -0.27179056 0.16091251 0.13779794 0.043098304 -0.030356271 -0.197661 0.22191994 0.26324415 -0.5751697 -0.28415993 0.34432638 0.4134089 0.3318192 0.2077861
silicon -0.07501652 -0.47138736 0.27114204 0.015465027 0.04298223 -0.110099226 0.09443563 0.04497052 0.031478956 -0.049755402 0.2806856 -0.10069061 -0.13423859 -0.1408011 0.0044269096 0.17933413 0.14079838 -0.5061517 0.018672405 0.10525513 0.12120421 -0.24813494 -0.0071037575 -0.005204655 -0.23490414 0.27673414 0.12926377 0.28943884 0.004773173 -0.00081107346 -0.46262166 -0.037811324 0.05494749 0.036572076 -0.05988819
6515557799 0.15113132 0.09023849 -0.1384804 0.03850626 -0.16941535 0.22489895 0.006766152 -0.14564519 0.014874077 0.14276366 -0.020227732 0.2863034 0.2859216 0.299504 -0.09289109 0.0341705 -0.24174556 -0.014614323 -0.1793326 -0.11254708 -0.08182047 -0.12407727 0.22912107 0.15266019 0.19530816 -0.11874714 -0.26114446 0.21873415 0.21865523 0.0010833435 0.14669868 0.24504304 0.23071219 0.14950804 0.21525979
ideas 0.48206446 0.45874026 -0.269063 -0.26235005 -0.32272592 0.5341009 -0.049934343 -0.39832523 0.034934353 0.21932982 0.2709658 0.5726139 0.4633189 0.64129865 0.12995408 -0.039766047 -0.73270744 0.25937465 -0.38962436 -0.3121105 -0.35882333 -0.21661352 0.5559194 0.033067107 0.37442195 -0.15451871 -0.4159092 0.30333483 0.48208854 -0.13209558 0.23646775 0.50773567 0.3726505 0.72588325 0.39377186
synthesis 0.09073771 -0.0852209 -0.011313771 0.013220271 -0.005426324 0.047286537 -0.18398571 -0.12963532 0.07572867 0.01568991 0.07383403 0.1304733 -0.10842727 -0.04907185 0.022208046 0.26599103 -0.068103045 -0.022256356 -0.05722175 0.03359604 0.104297765 -0.052947067 0.0577438 -0.0012862816 -0.22093742 0.07442254 0.034335002 0.24499649 0.06642636 -0.17414713 -0.13913697 0.16587308 0.08766036 0.15925099 0.018772919
guide 0.24960038 0.015436246 0.048853442 -0.1321874 -0.22289456 0.28551847 0.015404328 -0.3004759 -0.37383413 0.20181026 0.16460451 0.116187796 0.2363684 0.22846176 -0.13307196 0.17664291 -0.28662002 0.17080516 -0.16561443 -0.2021098 0.09637335 -0.06894184 0.17068179 0.12502249 0.0043348707 -0.066206895 -0.22321379 0.22256014 0.28559306 -0.17201094 -0.14745568 0.3261584 0.2747377 0.24140015 0.22932357
analysis -0.18101257 -0.21213381 -0.091140755 0.14506687 0.1937189 -0.1593 -0.18473232 0.025012657 0.09652241 -0.1989281 -0.16419463 -0.08878996 -0.25455785 -0.2420884 0.18401705 -0.194302 0.17778762 -0.18335372 0.20521377 0.23663579 0.08708793 0.22524041 -0.16940972 -0.17128503 0.047743883 0.1561998 0.24186407 -0.14536831 -0.17625664 0.19258204 0.15370326 -0.06901023 -0.17562942 -0.13630769 -0.18107235
cse 0.11168154 -0.025432419 -0.18260132 -0.058176894 -0.14199324 0.28486645 -0.22247328 -0.10235825 -0.1148741 0.029268224 0.1356747 0.1117526 0.14641926 0.23962763 -0.121448934 0.0464896 -0.4644499 0.22909445 -0.08757289 -0.09573078 0.050925605 -0.057056606 0.12139948 0.13590223 0.03174669 0.13381413 -0.110074565 0.046842027 0.21774168 -0.2068141 0.23678981 0.2456799 0.22072126 0.37948707 0.08573408
programs 0.13416794 0.09435182 -0.098611906 -0.046118516 -0.12208668 0.36789694 -0.40137604 -0.32911265 -0.039972883 0.11135281 0.35491085 0.29457778 0.29979077 0.35550475 -0.096653424 0.06279547 -0.6501568 0.18963322 -0.12990497 -0.108543426 0.03858277 -0.13695352 0.25647062 0.17818137 0.14778967 0.1396342 -0.31086764 0.6083427 0.31331107 -0.20390888 0.06460607 0.4132074 0.26835808 0.38856888 0.1418183
amount 0.31958258 0.26781896 -0.28074405 -0.120289 -0.2445079 0.4131945 -0.33212847 -0.48800406 -0.09644641 0.065542206 0.26231328 0.35695332 0.36286512 0.4259573 -0.14636509 -0.016961625 -0.785784 0.21961494 -0.19288872 -0.19723709 0.10964809 -0.15729813 0.4209842 0.08886842 0.3356243 0.007943059 -0.33144087 0.6847915 0.27577958 -0.22521283 0.18151654 0.38081577 0.2616448 0.36932564 0.26768824
duties 0.5875773 0.36669207 -0.18623541 -0.0077467156 -0.38962206 0.5967231 -0.2642646 -0.6577946 0.09399075 0.2853189 0.55909085 0.41577867 0.5426268 0.52201945 -0.22218837 0.19926475 -0.42910963 0.32513836 -0.39400753 -0.46811238 0.3457414 -0.59441155 0.6023186 0.24463493 0.36133814 0.040359173 -0.50759816 0.5394599 0.5945905 -0.5180891 -0.08870787 0.6409271 0.44577053 0.6722398 0.51497275
font 0.29303327 0.08052934 -0.13021256 0.008317297 -0.2219587 0.44964755 -0.021047082 -0.20918097 0.022469372 0.09280801 0.042102553 0.3603408 0.35246062 0.3995537 -0.21022327 0.060829856 -0.37431353 0.37427628 -0.21978016 -0.22273074 0.031101413 -0.03135319 0.30041108 0.09261114 0.058800474 -0.011020967 -0.29158747 0.09868475 0.30867186 -0.17498423 0.20984322 0.50185204 0.27025777 0.28383225 0.14178127
size 0.23437598 0.033672135 0.07394604 -0.0103784595 -0.16857848 0.27860656 0.12395525 -0.13616386 -0.069620736 0.12802418 0.12711653 -0.049477167 0.17626214 0.17222579 -0.15856038 0.25621465 -0.1332141 0.123741455 -0.17476384 -0.21146584 0.092584714 -0.23279648 0.215164 0.14618215 -0.0015357082 0.060096875 -0.15225293 0.37572297 0.23748556 -0.15646538 -0.28177327 0.10420537 0.560475 0.15695633 0.16059898
technical -0.09389168 0.12152234 -0.029914048 -0.029875766 0.13309081 -0.14896193 -0.033210702 0.102526486 -0.08580383 -0.09098135 0.056070413 -0.10267971 -0.054635506 -0.066907726 0.071612164 -0.05748984 -0.032350086 -0.120143086 0.04566746 0.1028456 -0.08154161 -0.065561764 -0.09796556 -0.057440005 0.11848816 -0.09346863 0.10999603 0.12369576 -0.10493816 0.104182705 0.06026273 -0.09651018 -0.09589539 -0.108895265 -0.095094
format 0.23739934 0.17391543 -0.07957146 -0.22600885 -0.13614176 0.46158126 -0.106841445 -0.59678745 -0.2815506 0.014741954 0.26757574 0.54074514 0.37960717 0.446392 -0.11907242 -0.041726198 -0.5681269 0.23571795 -0.15370585 -0.10188743 -0.04276398 -0.29071444 0.33300334 0.09166425 0.039084878 0.023696853 -0.23938581 0.1732533 0.26373512 -0.24340013 0.10271053 0.5845404 0.32513362 0.44482774 0.11709185
skill 0.013034324 0.117125325 -0.103346325 0.06334265 -0.13362959 0.006422313 0.19382322 -0.038424388 0.08574361 -0.002215512 -0.21189539 0.039240923 0.06362447 -0.0068402113 -0.086515896 0.09276735 -0.03737523 -0.123397306 -0.07984844 -0.049179748 0.08585621 0.3101836 0.084285684 0.09063755 0.09371931 -0.113097444 -0.04862571 -0.016356023 0.07239247 -0.041719627 -0.31970304 0.016952831 0.12221442 0.11682279 0.048626147
english -0.11324919 -0.3384546 0.077776656 -0.060076892 0.014342768 -0.20163834 -0.06173051 0.09854327 -0.08029361 -0.12630294 0.04679059 -0.03066116 -0.19994368 -0.15461905 0.1580726 -0.08261816 0.15138082 -0.096866526 0.010914375 0.12990999 -0.15168923 -0.13185313 -0.07330007 -0.051271733 -0.097979955 0.013329903 0.076998636 -0.1263864 -0.1520843 0.07213895 -0.12733437 -0.06808541 -0.003960439 0.00097424956 -0.09705973
association 0.21292016 0.004417549 0.1173398 -0.114905186 -0.19208294 0.09016991 0.019602543 -0.12799181 -0.08744049 0.17069805 0.14269784 0.1561014 0.1956466 0.13689862 -0.08184403 0.18876378 -0.21453273 0.09328392 -0.16494653 -0.17798837 0.04134276 -0.105772994 0.19070812 0.16133352 0.09387401 -0.02300688 -0.17479685 0.20427449 0.091040194 -0.14010699 -0.10415436 0.14840303 0.20702124 0.15665445 0.16974728
planning 0.045888226 0.05115519 -0.058055054 0.1043218 -0.02695723 0.09402316 0.078132056 -0.091384016 0.10297885 0.09764687 -0.15341093 0.101744756 0.04607424 0.07742226 -0.056417804 0.042095225 -0.04579904 0.054060075 -0.105105996 -0.042349264 0.055727236 0.108215205 0.044127274 0.03088853 0.041203633 0.11618783 -0.054709207 0.059245966 0.038735185 -0.01158486 -0.02612074 0.032261364 0.061130084 0.04789635 0.100452125
librarian 0.02616128 -0.027346874 0.04024608 0.0007823929 0.03839283 0.008256923 0.003751181 0.021709893 0.02766366 -0.025474286 -0.026252747 -0.024137402 -0.021521533 -0.027016496 0.025224853 -0.042596128 -0.046945035 0.031298485 0.0064026006 0.025900114 -0.029333293 -0.048998844 0.03606428 -0.03586056 -0.016526211 -0.04530797 -0.019375706 0.04441655 -0.030831981 0.043101717 -0.012482751 -0.013437368 -0.022151113 -0.03162539 -0.042813838
area 0.10266698 0.2283822 -0.28896922 -0.014494993 -0.099111274 0.33662042 -0.44177812 -0.25517762 -0.34319726 -0.002569564 0.3795408 0.15784927 0.24250296 0.21713707 -0.069876015 -0.006365399 -0.29379767 0.21066812 -0.018404106 -0.044092488 0.21304603 -0.29512647 0.23463167 0.083346814 0.269859 0.17304529 -0.11119316 0.054350045 0.1611953 -0.21326242 0.08515242 0.23133218 0.077804916 0.16644283 0.031109031
dublin 0.1830768 -0.0054616523 -0.04640122 0.06500231 -0.13633692 0.29514578 -0.19148828 -0.34571892 -0.029719329 0.12840155 0.1466859 0.2191833 0.22521974 0.35616416 -0.11415222 0.03030451 -0.5329716 0.18559201 -0.16608748 -0.16959642 0.12906677 -0.03487479 0.30128875 0.13132763 0.056934133 0.048296705 -0.20589526 0.32472515 0.29359338 -0.14457808 0.074535914 0.3080665 0.1791568 0.34555748 0.14661404
health 0.08189493 -0.14126328 0.019059481 0.043499988 -0.120329306 0.29545078 -0.12948684 -0.19064395 0.11612635 0.1769352 0.25348502 0.010515772 0.027470047 0.14180733 -0.17890741 0.14089848 -0.10249989 0.028354526 -0.17893605 -0.13628124 0.10710591 -0.18921407 0.17339824 0.15849386 -0.010741778 0.009530259 -0.11978891 0.17955373 0.19260131 -0.1312154 -0.19284774 0.18054882 0.15430498 0.18598026 0.14219496
database -0.17519112 -0.0938442 -0.038257048 0.0602732 0.083161324 -0.121713944 -0.10658382 0.2352475 0.09038085 -0.029105118 -0.12001944 -0.12161475 -0.07020885 -0.019554712 0.029566959 -0.023613172 0.1963933 -0.011273548 0.047950562 0.048259873 0.09189234 0.11952495 -0.12665153 -0.06517226 0.08943638 0.12667458 0.08222722 -0.102462314 -0.11195211 0.21225937 0.15490662 -0.14064017 -0.079173036 -0.21659736 -0.09396402
concentration 0.17586173 0.1566699 0.08443797 -0.105896145 -0.026750708 0.11859778 0.12213972 -0.12989812 -0.10113488 0.02932762 0.027135622 0.0301062 0.0665268 0.051948257 -0.03182566 0.10510129 -0.14891581 0.08033957 -0.09894967 -0.06641816 -0.11386992 -0.029333597 0.1444429 0.05571402 -0.07550398 -0.07588603 -0.11838509 0.08523953 0.11094366 -0.12971318 -0.0029045776 0.09351751 0.12270391 0.12158352 0.07696456
accomplishments -0.064954005 -0.43599516 0.4076232 0.052716326 -0.009858045 -0.12757486 -0.012354039 0.10053952 0.12141187 0.18182382 -0.15730266 -0.078206666 -0.11151037 -0.29808888 -0.13335828 0.032384407 0.25696695 0.12896954 0.046177287 0.06382789 0.06697324 0.33357033 -0.13263136 0.008846105 -0.16696382 0.18787155 0.15646787 -0.29254577 -0.121948645 -0.2687355 -0.03254588 -0.15057711 -0.075584136 -0.05500102 -0.025615197
summary 0.3446603 0.34543872 -0.4185873 -0.022129005 -0.20826924 0.47548747 -0.4116146 -0.43681216 -0.19291207 0.13962486 0.403213 0.3653825 0.41546777 0.482099 -0.20742367 0.0049850303 -0.5182164 0.38771838 -0.20689373 -0.27782038 0.100545466 -0.29398322 0.4461596 0.1559583 0.32921872 0.009764664 -0.4523278 0.2686709 0.38431382 -0.30672598 0.41714123 0.4817215 0.29306468 0.42242604 0.29253715
purpose 0.6058544 0.463926 -0.3721562 0.036938753 -0.2876856 0.5904488 -0.30747363 -0.7004072 -0.035579212 0.26298985 0.32661024 0.5072828 0.558172 0.55057746 -0.115638085 -0.24054492 -0.48791423 0.40196297 -0.35676014 -0.43824065 -0.043820508 -0.4388468 0.64727724 0.017603468 0.45157462 -0.2819603 -0.5890235 0.4285092 0.5330553 -0.15525398 0.2594583 0.59286386 0.21702726 0.6296148 0.53619665
8 0.11132583 -0.0139788855 -0.043411262 0.07465462 -0.098239 0.35068393 0.04663561 -0.21914798 0.06769121 0.1811842 0.046213828 0.2153795 0.19217096 0.2519081 -0.12593055 0.092160635 -0.10267676 0.23326245 -0.13625915 -0.071503915 0.13917361 0.028850848 0.23484732 0.09322224 -0.03953535 0.09627545 -0.15924367 0.034182858 0.13107184 -0.16966009 -0.074920855 0.3459436 0.15879141 0.14187722 0.07065682
patients 0.14072892 -0.04910425 0.096656114 -0.07717769 -0.09645691 0.24524435 0.036788035 -0.2988968 0.0829291 0.1328403 0.21289544 0.2040225 0.1343261 0.1554873 -0.049834285 0.11544003 -0.24701954 0.079315774 -0.14461015 -0.11270013 0.08736833 -0.29129082 0.17040364 0.13160981 -0.09438142 0.13300878 -0.16325639 0.26612067 0.17574722 -0.25838584 -0.19457962 0.18028481 0.21959476 0.21152748 0.2039634
electron -0.080814585 -0.12639475 -0.046215635 -0.21155578 0.1005206 -0.05007549 -0.14548795 0.15337116 -0.1435364 -0.13432392 0.1378041 -0.12589753 -0.16493574 -0.033014502 0.111775026 -0.11777594 0.0015478836 0.003607709 0.085814774 0.08395216 -0.18899162 0.032943886 -0.07787216 -0.021349203 -0.063525304 0.15565431 0.13593681 -0.041557528 -0.04159923 -0.10601443 0.1380235 0.049234677 -0.04137094 -0.07235646 -0.20686601
goldy -0.060426306 0.137102 -0.33074367 0.3233947 0.0648106 -0.02402434 -0.1602342 -0.12077403 0.29134902 -0.05583547 -0.33762375 0.12402041 -0.022305386 0.0049751615 0.054095406 -0.04704378 -0.13768315 -0.28344917 0.014078072 0.09835836 0.073186934 0.27967665 -0.095582254 -0.024248557 0.2497065 0.0066735437 0.09158873 -0.3625597 -0.02131648 0.022692068 0.36184797 0.1874484 0.0023658536 0.025133308 -0.047437474
grant -0.17931631 0.21521749 0.016601129 0.23429374 0.167823 0.22540325 0.23806421 -0.14898583 0.1954854 -0.09530939 -0.16977538 -0.31427616 0.2633689 -0.039705098 -0.22857624 0.04402702 0.13704446 -0.06638156 0.16127974 -0.057691023 0.20460005 0.014396326 -0.12369446 -0.16497184 0.106955506 -0.039929822 0.12066183 0.18366013 0.1315522 0.18485558 -0.18351515 -0.3335051 -0.28029734 -0.20424037 -0.058066856
team 0.04947544 0.18688183 -0.24749465 0.09805841 -0.06998338 0.10576015 -0.012143094 -0.16904853 0.0866179 -0.06254557 -0.014927429 0.11507644 0.06816867 0.13597085 -0.017745854 -0.03065613 -0.21470101 -0.14533825 0.019923864 -0.043964725 0.20125327 -0.014191739 0.023662446 0.057710707 0.16221328 0.16247882 0.0033057511 -0.00020634435 0.047886938 -0.10451756 0.009672946 0.25297248 0.14146148 0.06076114 0.010560721
measurement -0.053745475 -0.013232038 0.029413236 -0.027359465 0.07881647 -0.17037706 -0.21708943 0.12847562 -0.063671485 -0.066681825 -0.04406605 -0.095618345 -0.12224775 -0.15548956 0.002808007 -0.10167937 0.14299504 -0.12827367 0.08664937 0.09688095 -0.047930527 -0.046091177 -0.10569285 -0.038274974 0.0023145075 -0.029627163 0.07774673 -0.151128 -0.10033374 0.04220428 0.06654944 -0.113062136 -0.06263248 -0.12890328 -0.06988959
conditions 0.2867662 0.15451558 -0.06427135 -0.11195403 -0.269247 0.36267558 -0.32532144 -0.3375522 -0.061808318 0.1344214 0.16995452 0.42404965 0.4005967 0.46287456 -0.053810433 -0.06483401 -0.39436114 0.24213968 -0.18248709 -0.19460094 -0.12836939 -0.11040586 0.38340363 0.122812524 0.085533015 -0.10345534 -0.28322434 0.23547377 0.33932063 -0.098155074 0.13592437 0.5917313 0.3059563 0.5096244 0.27021614
technology -0.15532093 0.024216797 -0.1350175 0.018967355 0.17414315 -0.25191665 -0.09453614 0.21643652 -0.009231712 -0.1396207 -0.11064764 -0.13528667 -0.14923862 -0.10703878 0.25721088 -0.17812745 0.20432861 -0.16312623 0.10591693 0.15430336 -0.17359649 -0.043740906 -0.21352729 -0.105101585 0.17978883 -0.027388893 0.133047 -0.22645293 -0.25502098 0.20534128 0.26099032 0.114001416 -0.06739325 -0.26790535 -0.09739352
decision -0.14585896 0.033637505 -0.06874038 0.04194186 0.08661565 -0.11542437 -0.10974504 0.15626872 -0.039171692 -0.10899661 -0.007285677 -0.036974747 -0.12648878 -0.19495253 0.11910139 -0.09927848 0.025182022 -0.053554393 0.16536854 0.10347556 -0.046700496 0.053870827 -0.1064862 -0.1170946 0.075888135 -0.10776063 0.13931218 -0.15368715 -0.11033075 0.04789942 0.07169367 -0.08284638 -0.15126753 -0.09828735 -0.15214254
monitor -0.15906888 0.10488861 0.04542192 -0.11064159 0.16023438 -0.15567559 -0.19399066 0.08444917 -0.13846736 -0.20626155 0.113687605 -0.15758602 -0.11468683 -0.25165087 0.24508658 -0.153484 0.0892732 -0.13048953 0.28321823 0.10298201 -0.080756664 -0.029331574 -0.2897684 -0.18868028 0.033779107 -0.048346467 0.1971612 0.12525557 -0.19588567 0.087930284 0.17619455 -0.2475881 -0.17527956 -0.24502409 -0.25723237
expected 0.3913415 0.24117473 -0.1997706 0.09626361 -0.1940315 0.6750491 -0.123428635 -0.75451565 0.090981305 0.17332707 0.18950176 0.42221856 0.6829724 0.7197855 -0.043708127 0.016266273 -0.34148046 0.20789671 -0.3077153 -0.30006677 0.080744 -0.117960036 0.7244603 0.01645179 0.20548798 -0.05170451 -0.5006694 0.32994717 0.37660694 -0.08424073 0.09788458 0.6901279 0.16708638 0.42287922 0.41946632
